{"kind": "dueling", "checkpoint": "results_v9/pbrs_lr1e4/dueling_dqn_weights.pth", "num_players": 450, "embed_dim": 8, "continuous_dim": 73, "state_dim": 78, "action_dim": 5, "state_dict_keys": ["player_embedding.weight", "phi_defender.0.weight", "phi_defender.0.bias", "phi_defender.2.weight", "phi_defender.2.bias", "phi_teammate.0.weight", "phi_teammate.0.bias", "phi_teammate.2.weight", "phi_teammate.2.bias", "value_stream.0.weight", "value_stream.0.bias", "value_stream.2.weight", "value_stream.2.bias", "value_stream.4.weight", "value_stream.4.bias", "shoot_advantage.0.weight", "shoot_advantage.0.bias", "shoot_advantage.2.weight", "shoot_advantage.2.bias", "pass_advantage.0.weight", "pass_advantage.0.bias", "pass_advantage.2.weight", "pass_advantage.2.bias", "pass_advantage.4.weight", "pass_advantage.4.bias"], "shapes": {"player_embedding.weight": [450, 8], "phi_defender.0.weight": [32, 4], "phi_defender.0.bias": [32], "phi_defender.2.weight": [32, 32], "phi_defender.2.bias": [32], "phi_teammate.0.weight": [32, 18], "phi_teammate.0.bias": [32], "phi_teammate.2.weight": [32, 32], "phi_teammate.2.bias": [32], "value_stream.0.weight": [64, 53], "value_stream.0.bias": [64], "value_stream.2.weight": [32, 64], "value_stream.2.bias": [32], "value_stream.4.weight": [1, 32], "value_stream.4.bias": [1], "shoot_advantage.0.weight": [32, 53], "shoot_advantage.0.bias": [32], "shoot_advantage.2.weight": [1, 32], "shoot_advantage.2.bias": [1], "pass_advantage.0.weight": [64, 85], "pass_advantage.0.bias": [64], "pass_advantage.2.weight": [16, 64], "pass_advantage.2.bias": [16], "pass_advantage.4.weight": [1, 16], "pass_advantage.4.bias": [1]}, "tensors": {"player_embedding.weight": [[1.9269150495529175, 1.4872841835021973, 0.9007171988487244, -2.1055214405059814, 0.6784184575080872, -1.2345449924468994, -0.043067481368780136, -1.6046669483184814], [-0.8457096219062805, 1.363102674484253, -0.3770661950111389, -1.3862297534942627, -0.6160991787910461, -0.3213996887207031, -0.633625328540802, 1.0461007356643677], [1.456305980682373, -0.10290572792291641, -0.3853627145290375, 0.40548357367515564, -0.3721126914024353, 1.221407175064087, 0.7742014527320862, 1.3712778091430664], [1.3327953815460205, 1.514338493347168, 0.6722444891929626, 1.1424421072006226, -0.46905717253685, 0.10806477069854736, -0.37228307127952576, 1.156724452972412], [-1.1335631608963013, -0.5696215033531189, -0.6080328226089478, 1.9752265214920044, -0.0372198261320591, -0.39607563614845276, 0.27709755301475525, -0.8101392984390259], [-1.3500030040740967, 0.970925509929657, -0.7492758631706238, -0.223294198513031, -1.3490322828292847, 1.675749659538269, -1.0863746404647827, -0.807253897190094], [-0.7949225306510925, -0.824173629283905, 0.16391374170780182, 0.6274474263191223, -1.011850118637085, 0.4857265055179596, -0.516588568687439, -0.9644294381141663], [-0.7544470429420471, -0.44182389974594116, 0.33991512656211853, 0.5817956328392029, -0.2110971212387085, 1.3472927808761597, -1.3339170217514038, 1.7793532609939575], [1.517309546470642, 0.00808296911418438, 2.1733736991882324, 0.12988881766796112, 0.6080729365348816, -0.12071482837200165, -0.8215972781181335, 0.5223131775856018], [-0.1653117686510086, 0.8499125242233276, 0.1715514212846756, 0.3875293731689453, 0.5949155688285828, -0.7371748685836792, -1.9369778633117676, -0.8865931034088135], [0.2876461446285248, -0.29658353328704834, -1.2069131135940552, -0.13476400077342987, 0.25934484601020813, 0.4460652768611908, 0.8275953531265259, -0.2090853750705719], [0.6170530319213867, -0.6971842646598816, -1.1372590065002441, 0.5635216236114502, -1.59080970287323, -0.7455876469612122, 1.2583779096603394, 0.3605193495750427], [-2.3125338554382324, 0.2614690661430359, 0.9487993717193604, 0.31178465485572815, 0.9517470002174377, 0.491086483001709, 0.8277930617332458, -0.545444130897522], [-0.18445812165737152, 0.7262281775474548, -0.15548911690711975, 0.11189641803503036, -0.138837993144989, 1.8294769525527954, 0.09153822064399719, -0.2951714098453522], [-1.134838342666626, 0.1317792534828186, -0.7276138067245483, 0.6553580164909363, 0.780148446559906, -0.07120831310749054, -0.30495381355285645, 0.2617679834365845], [-0.041429463773965836, 0.38581666350364685, -0.1696682572364807, 1.064357042312622, 1.2307018041610718, 0.2313515543937683, 0.5582173466682434, 0.28411993384361267], [1.461875081062317, 1.210308313369751, -1.671796202659607, -1.3780099153518677, 0.17797887325286865, 1.6668181419372559, 0.6700729131698608, 0.33947598934173584], [1.0107172727584839, -0.2612246572971344, -1.8139286041259766, 0.7401769161224365, -0.18891140818595886, 0.7396290302276611, -0.32921719551086426, 0.8747931122779846], [-0.7637349963188171, 0.43266305327415466, 1.3363136053085327, 1.3095368146896362, 0.2783336639404297, -0.08040638267993927, -0.4854260981082916, -0.1940867155790329], [0.38780462741851807, 0.5772532820701599, -0.47216519713401794, 1.3532692193984985, -2.1910159587860107, -0.7684973478317261, -1.0188124179840088, 1.617353081703186], [-2.362419843673706, 0.30551663041114807, 0.08382660150527954, -0.6166748404502869, -0.2478385716676712, -0.3156595528125763, 0.2187652289867401, -0.12882769107818604], [-1.8378424644470215, 0.8160311579704285, 1.0252516269683838, 0.17157720029354095, -1.5938758850097656, 0.9566537141799927, 0.8470840454101562, 1.9874850511550903], [0.4141381084918976, 0.7260566353797913, -0.860448956489563, 0.007780499756336212, -1.2263344526290894, -1.1960796117782593, -1.0409878492355347, -1.0183202028274536], [-0.7666274309158325, -1.6267752647399902, -1.2493629455566406, 0.3467597961425781, 0.590510904788971, -0.6144540309906006, 0.7555124163627625, 1.3882688283920288], [1.7694017887115479, -0.5604662299156189, 0.43219736218452454, -0.08685465902090073, -0.8889591097831726, 0.5540052056312561, 0.90301513671875, 1.0280897617340088], [0.5862277746200562, 2.1548261642456055, -0.3759654760360718, -0.9807875156402588, 0.3881525695323944, 1.0992556810379028, 1.4215341806411743, 0.27884912490844727], [-0.9434595108032227, -0.7026750445365906, -0.5216771364212036, -0.6638168096542358, 0.33633288741111755, 0.40152132511138916, -0.47977837920188904, -2.243183135986328], [-0.41451144218444824, 1.3677645921707153, -1.7838542461395264, 1.9790180921554565, 0.18634827435016632, -0.14533671736717224, 0.8935405611991882, 1.4284971952438354], [0.5849674940109253, 1.3917897939682007, -0.0059863505885005, -1.0353697538375854, -0.00025866759824566543, -0.07780865579843521, 0.679144561290741, 2.14693546295166], [-0.006722282152622938, -1.2451810836791992, -2.010923147201538, -0.8868601322174072, -0.08260286599397659, -0.31148770451545715, -0.22130756080150604, 0.24092760682106018], [-1.0572353601455688, 0.014636018313467503, -0.5873686075210571, 0.22976914048194885, -1.5518486499786377, -0.15014579892158508, -0.46722176671028137, 1.7126498222351074], [1.0946972370147705, -0.571961522102356, 0.5282542109489441, -0.002464194316416979, 0.15348182618618011, 0.16906237602233887, 0.7644484639167786, -0.09016816318035126], [-0.4895271360874176, 0.37502777576446533, -1.5122870206832886, -1.589371681213379, -0.8947043418884277, 0.30102840065956116, -0.39800408482551575, 0.6459448337554932], [-1.3613821268081665, 0.06975068151950836, 0.8352857232093811, -0.44501030445098877, 0.9619579315185547, 0.10365381836891174, -1.8409770727157593, -0.003366930643096566], [-1.1894690990447998, 0.645948588848114, -2.3567941188812256, -0.005486323032528162, -0.1515245884656906, -0.8613526225090027, 1.6522693634033203, 0.0568956695497036], [1.2856049537658691, 1.245065450668335, 1.366945505142212, 1.125996708869934, 0.05573460832238197, 0.9093388915061951, 0.38985398411750793, -0.041115615516901016], [1.1220149993896484, -1.1870462894439697, -0.5357208847999573, -0.18534453213214874, -0.5232247114181519, 0.18544325232505798, -0.5886560678482056, 0.1286529004573822], [2.2538983821868896, 0.34131041169166565, 0.338655024766922, 0.663174033164978, -0.14795729517936707, 0.143721342086792, 1.5227185487747192, 0.7852961421012878], [0.42170584201812744, -0.7474244832992554, 0.9951910376548767, -0.7098857760429382, 0.7164533734321594, 1.4903786182403564, -2.2786688804626465, -0.9508324265480042], [0.21302112936973572, -1.7473441362380981, -0.005644403398036957, -0.945411741733551, -0.9448553323745728, -0.41687241196632385, 0.8186579942703247, -0.7329243421554565], [0.21415147185325623, -1.0049190521240234, 1.2269489765167236, -1.1381574869155884, 0.3192918002605438, 0.26274600625038147, -0.049756038933992386, 0.03439540043473244], [-0.017758876085281372, 1.2999461889266968, -1.752058744430542, -0.9332427382469177, 0.36546286940574646, 0.4311252236366272, -0.7323881983757019, -0.4079687297344208], [0.7653403282165527, 0.2919543385505676, 0.6343353390693665, -0.06664352864027023, 0.4908183515071869, -0.4710039794445038, -0.4136643707752228, 0.22846946120262146], [0.7300341725349426, 1.0858125686645508, 0.13154949247837067, 1.16960608959198, 1.4410109519958496, -0.27370816469192505, -0.6318860054016113, -0.2673575282096863], [-0.19201143085956573, 0.7144713401794434, -0.28508228063583374, -1.197637915611267, -0.053962044417858124, -0.9230736494064331, -0.531170129776001, 1.5976125001907349], [2.0100038051605225, 1.5567041635513306, -0.1310705542564392, -0.15987008810043335, -1.9098199605941772, -1.5029525756835938, -0.9890994429588318, 1.7482742071151733], [-0.6207327842712402, -0.2881687879562378, 2.005220890045166, 1.3057091236114502, 1.086259126663208, 0.5783019661903381, 0.3991207778453827, 1.0304948091506958], [-0.25359857082366943, -1.1273595094680786, -1.4648065567016602, 0.6052184700965881, -0.6452914476394653, 0.311442494392395, -0.6563808917999268, -0.6016366481781006], [0.7557816505432129, -0.09076917171478271, -0.48481079936027527, -0.1187673881649971, 2.1376399993896484, -1.0138942003250122, -0.6860938668251038, 0.532225489616394], [-1.0038061141967773, -2.1721270084381104, -0.002395676914602518, 1.378470540046692, 1.0746890306472778, -0.22669155895709991, -0.5491071343421936, 1.3227958679199219], [0.07809977978467941, -1.6159385442733765, -0.5889150500297546, -0.9032670259475708, 1.3039337396621704, -0.2612048387527466, 0.39324989914894104, -0.4128454625606537], [0.943116307258606, -1.6236873865127563, 0.9477322101593018, 0.8746484518051147, -0.19345355033874512, -0.02587253600358963, -0.058274250477552414, 0.6318840384483337], [0.7635959982872009, -0.895936131477356, -0.6444598436355591, 0.4951123893260956, -0.6215907335281372, -0.8811684250831604, 0.027600640431046486, -1.5001850128173828], [-0.613448977470398, -0.4324973523616791, 0.5377953052520752, -0.2384166121482849, 1.0158008337020874, -0.3988797068595886, -0.05284490808844566, 0.662998378276825], [-0.5269829034805298, 0.8629977703094482, -0.6408007740974426, 1.3237152099609375, 0.6817078590393066, -0.1663369983434677, 0.8661254644393921, 0.7669118046760559], [0.3217855989933014, -1.2997547388076782, -0.12027230858802795, -1.2431696653366089, 0.4488331973552704, 1.2680362462997437, 0.5755001902580261, -0.792206883430481], [-1.0239267349243164, 0.4503348767757416, -0.7691828012466431, -0.007196350954473019, -0.4929567575454712, -1.0229357481002808, -0.6693099141120911, 1.203457236289978], [1.143125057220459, -0.30466634035110474, -0.8848504424095154, 0.16749855875968933, 0.12499338388442993, -0.30249685049057007, -0.9411579966545105, 0.6479259133338928], [1.1819076538085938, -0.8761730194091797, 0.10334009677171707, -0.4941643476486206, 0.3839416205883026, 1.357380747795105, -1.0329794883728027, -1.511953353881836], [-0.6525841355323792, 0.31878119707107544, 0.16408886015415192, -0.7163776755332947, 2.9098753929138184, 1.9370851516723633, 1.7397713661193848, -1.016517996788025], [1.7637169361114502, 0.8440505862236023, -0.08592180907726288, -0.7700144052505493, -0.6169681549072266, -0.3549274504184723, -1.4053680896759033, -0.9361754655838013], [-0.44027435779571533, -0.007859138771891594, -0.5824204087257385, -0.7846301198005676, -0.6562272310256958, -0.12496250122785568, 0.546387255191803, -0.020362989977002144], [1.2129930257797241, -0.05773509666323662, 0.5484200119972229, -0.3550947606563568, -0.8231996297836304, -1.0023170709609985, -1.272296667098999, 1.6831321716308594], [-0.8095964789390564, -2.5610592365264893, 0.6433593034744263, 0.5405782461166382, 0.6158139109611511, 0.6826199889183044, -0.17905640602111816, 0.5825534462928772], [-1.1759757995605469, 0.1404125839471817, -0.5314409136772156, 0.4424576759338379, 1.5160270929336548, -0.3050488829612732, -0.7435250878334045, -0.7001555562019348], [0.29408183693885803, -0.8973314762115479, 0.6963708400726318, 0.04290573671460152, -1.4147335290908813, 0.4349653124809265, -1.3602657318115234, -0.7874408960342407], [1.2897919416427612, -1.0606646537780762, 0.5104230642318726, 0.47547605633735657, 0.45064300298690796, -2.323930501937866, -1.7709236145019531, -0.8577221035957336], [0.27017131447792053, -0.6504305005073547, 0.9629392623901367, -0.38754311203956604, 0.4908210337162018, 0.9775645732879639, 1.0572407245635986, -0.21485453844070435], [-1.6706595420837402, -0.46128028631210327, -1.4586076736450195, 0.4526270925998688, -0.43315649032592773, -0.6003286242485046, 0.1489732712507248, 1.3723782300949097], [2.3349099159240723, -1.3260952234268188, 1.5824980735778809, 1.256845235824585, -1.5860110521316528, -0.32119107246398926, -0.8703019022941589, -0.04837401211261749], [2.0854413509368896, 2.834740161895752, 0.5183625221252441, 0.5685327053070068, 0.03019653633236885, 0.3724144399166107, 0.2628304362297058, -0.21991737186908722], [0.48299622535705566, 0.5436674356460571, 0.6321884989738464, 0.044952936470508575, -0.07229845225811005, -0.4539419412612915, 0.0007976249908097088, -0.01950441673398018], [-0.8605871796607971, -1.138532280921936, -0.21102753281593323, -0.9526749849319458, -1.2016713619232178, -0.46354493498802185, -0.767259955406189, 1.6080278158187866], [-0.6281470656394958, -0.9407659769058228, 0.8491858243942261, -0.24585676193237305, 0.4049815237522125, -0.5417371988296509, -1.3870854377746582, -1.0818790197372437], [0.22951087355613708, 0.510944128036499, 0.36243292689323425, -0.43454766273498535, -0.8848130702972412, -0.07552851736545563, 1.0756523609161377, -0.8711887001991272], [0.45540839433670044, -1.2893112897872925, -0.0008403534302487969, 0.7102422118186951, 0.08926451206207275, 0.2228425294160843, 1.8790065050125122, 0.9500998258590698], [-1.6861424446105957, 2.078618049621582, -0.4987403452396393, 0.9263427257537842, -0.6620309352874756, -2.10859751701355, 1.6382842063903809, 0.027976375073194504], [-0.5986675024032593, 2.194287061691284, 1.75932776927948, 0.15016202628612518, 0.42670363187789917, 0.2885528802871704, 0.834805965423584, 1.0637593269348145], [-0.24601596593856812, 0.4769795536994934, -0.6024333834648132, -0.29419049620628357, 0.25007784366607666, 0.1597275584936142, 0.7037960290908813, -1.2306430339813232], [-1.2481917142868042, 0.011741239577531815, 0.7328205108642578, 1.7334918975830078, -0.19436196982860565, 1.4150707721710205, -0.02429335005581379, 0.10981151461601257], [-0.7889506816864014, -0.07968715578317642, 2.032626152038574, 0.7884674668312073, 0.29124489426612854, -0.804580807685852, -1.678046464920044, 1.1999716758728027], [-0.015057035721838474, -0.10651508718729019, -1.3258874416351318, 1.755664587020874, 0.29817309975624084, -0.4695274233818054, -0.9203482270240784, -0.788679838180542], [-0.3290215730667114, -1.3418108224868774, -0.17805960774421692, -1.9684271812438965, 0.1765141785144806, 1.2108834981918335, 0.29473963379859924, -0.49069511890411377], [-0.6042858362197876, 0.30496451258659363, -1.5239890813827515, 0.029845204204320908, -0.1005433201789856, 0.6235342025756836, 0.19074738025665283, -2.2590911388397217], [1.9720417261123657, -1.8337825536727905, -0.08845517039299011, -1.2838780879974365, -0.869394063949585, 0.8316487669944763, 0.3874528706073761, -0.23962439596652985], [-2.7246804237365723, -1.0868276357650757, 0.6336509585380554, -1.6156833171844482, 0.7385364770889282, 0.07627076655626297, -0.4914762079715729, 1.3004047870635986], [-0.039496049284935, 0.8989927172660828, 0.4610953629016876, 2.40010142326355, 0.38612890243530273, -0.18778552114963531, -0.03256482258439064, 1.0860141515731812], [0.01647065579891205, -0.3826290965080261, 1.4189003705978394, -0.8773619532585144, -1.4071195125579834, 2.7089147567749023, 1.2044421434402466, 0.8235360980033875], [0.49089786410331726, 0.12118834257125854, 1.6594715118408203, 0.9884800314903259, -0.191684290766716, 1.1746046543121338, -0.7218301296234131, -0.5600833296775818], [-1.247079610824585, -0.020616205409169197, -0.005264054983854294, -0.4959825575351715, -0.5632025003433228, 0.20320475101470947, 1.1293896436691284, 1.23294997215271], [1.1188184022903442, 0.1606445014476776, 0.658457338809967, 1.9220027923583984, 0.47650161385536194, 0.28653421998023987, 0.11057272553443909, 0.843265175819397], [0.37329399585723877, 1.8518003225326538, -1.2511345148086548, 0.3325209319591522, 0.305963933467865, -1.4747520685195923, -1.269075632095337, -0.1034492552280426], [-0.1960269957780838, 0.014680328778922558, 1.1678626537322998, 0.8534079790115356, 0.5140557885169983, 0.2987107038497925, -1.178603172302246, -1.8017412424087524], [0.6902197003364563, 0.651208758354187, -1.5486278533935547, 2.004099130630493, 1.5576517581939697, -0.754287600517273, -1.5118621587753296, -2.1262400150299072], [-0.0799778401851654, -0.9823851585388184, -1.2808815240859985, 0.024217089638113976, 0.716329038143158, 0.2506759762763977, -0.15902800858020782, 2.687096118927002], [0.6475121974945068, 0.6417761445045471, 2.0176937580108643, 1.1028130054473877, 0.4811377227306366, -1.128695011138916, -0.8796284198760986, 0.8899495601654053], [0.49847474694252014, -3.347590923309326, -0.9925627708435059, -1.4260847568511963, -0.6612498760223389, -0.2985783815383911, -0.6836101412773132, -0.5879579186439514], [0.760063886642456, -0.9722233414649963, -0.4818715453147888, 1.1907621622085571, -0.18337495625019073, 0.6988745927810669, -0.8641912937164307, -0.789603054523468], [-0.21801139414310455, 0.06097790598869324, 1.0474739074707031, 1.7008378505706787, -0.1827995628118515, -1.9971497058868408, 0.4282315671443939, 1.723821759223938], [-1.1801515817642212, 0.24896444380283356, -1.68494713306427, 0.3644390106201172, 0.7007485032081604, 1.2734483480453491, 0.5962665677070618, 0.014302099123597145], [0.6571251749992371, 0.440635085105896, 0.21332049369812012, -1.236870288848877, -0.22170855104923248, -0.03572061285376549, 0.33889099955558777, -1.4840503931045532], [-0.3175756335258484, 1.6255115270614624, 0.703629195690155, -0.6911212205886841, -0.4721219837665558, -0.5053441524505615, -0.726424515247345, 1.092621088027954], [-1.1088935136795044, -1.996329665184021, 0.8146483898162842, 1.1228207349777222, 0.15639202296733856, -1.0080927610397339, 0.46692442893981934, -0.4779130816459656], [0.8817496299743652, 0.0675542876124382, -0.5556092858314514, 1.6495933532714844, -1.4039461612701416, 2.1960232257843018, -0.42047926783561707, 0.20391787588596344], [-0.3163463771343231, 0.8300893306732178, 0.16751036047935486, 1.908286690711975, -0.28444796800613403, -0.04092542827129364, -1.1750882863998413, -0.2135910540819168], [-0.7788956165313721, -0.425618052482605, 0.7109471559524536, 0.5788922309875488, 0.6581704616546631, 1.0674644708633423, -0.5530452728271484, 0.15789058804512024], [0.8492595553398132, -0.605663537979126, 0.8375557065010071, 1.0235189199447632, -0.19164806604385376, 0.7131966352462769, 0.8197054266929626, 0.2969999611377716], [-1.048783302307129, -1.9407058954238892, 0.12516476213932037, -0.22644224762916565, -0.13259419798851013, 1.2954524755477905, -0.04125617444515228, 1.4083329439163208], [-0.34437939524650574, -1.7276215553283691, -1.7071483135223389, -0.7781001329421997, 0.008464463986456394, -0.4325849711894989, 0.2584381103515625, -2.41591215133667], [-0.22551961243152618, -0.4548487663269043, 1.6117422580718994, 1.348684310913086, -0.9088964462280273, -0.5273272395133972, -1.1835073232650757, 1.2046316862106323], [1.6477527618408203, -1.2188230752944946, -1.1946297883987427, -0.8921259641647339, -1.520078420639038, -1.9729360342025757, 1.1442018747329712, -0.3713199198246002], [0.8346619009971619, -0.9929929971694946, -0.4071507155895233, 1.2371858358383179, 0.8400404453277588, -0.6496560573577881, -1.5664411783218384, -0.46547937393188477], [-0.8215242028236389, -0.3118283450603485, 0.6217643022537231, -0.8211058378219604, -1.899709939956665, 0.5117154717445374, 1.8517957925796509, 1.0352857112884521], [-0.328985333442688, -0.39312633872032166, 0.3188706040382385, 0.20920266211032867, 0.484892338514328, 1.7980939149856567, 1.5668039321899414, -0.5987268090248108], [1.6357635259628296, -0.9800820350646973, 1.1284149885177612, -0.6385103464126587, 0.9640296697616577, -0.8330481648445129, -0.6919984817504883, 0.049123987555503845], [0.9891489148139954, -1.3900761604309082, 2.401616334915161, -0.3792126476764679, 0.21971631050109863, 0.9993267059326172, 0.9763489365577698, -0.652247965335846], [-0.45624470710754395, -0.10347845405340195, -1.7237149477005005, -0.350785493850708, -0.10264727473258972, 0.08844505250453949, -0.5056617259979248, -0.01682782731950283], [0.7540770769119263, -0.8107795119285583, -1.1124513149261475, 0.4760996103286743, 0.3847725987434387, 1.0787594318389893, 0.781356692314148, 1.0622376203536987], [0.4419998824596405, -0.20981228351593018, 0.031116997823119164, 0.20590852200984955, -0.04325991868972778, -1.007954716682434, 0.31395813822746277, -0.7666054964065552], [-0.1852443367242813, -1.0921489000320435, -0.29430678486824036, 0.2298586368560791, 0.15716731548309326, 1.6908209323883057, -0.4021291434764862, 0.3688507676124573], [-0.7172776460647583, -0.4668855369091034, -0.23061424493789673, -0.2790592610836029, -0.3906541168689728, -1.115718126296997, 0.9359216690063477, -1.3509339094161987], [-0.3565956652164459, 0.9378460645675659, -0.5949684381484985, -0.45022472739219666, 0.044358301907777786, 2.625342607498169, -0.2771918475627899, 0.6164922714233398], [0.817150354385376, -1.8017939329147339, 0.9025372862815857, -3.1289706230163574, -0.6282172203063965, -0.41859155893325806, -1.534722089767456, -0.6750887036323547], [-0.0576200857758522, 0.8770619034767151, 1.8404170274734497, -1.9296826124191284, -1.2164994478225708, 0.656030535697937, 0.5765954852104187, -2.516202211380005], [-0.1892135590314865, -0.2021743208169937, -0.394851416349411, -0.9886717200279236, -0.4742441773414612, -0.05259428918361664, -0.5960877537727356, 0.43358612060546875], [-1.0356072187423706, 0.06975367665290833, 2.16457462310791, -0.4287671744823456, 0.9889640212059021, 1.5955085754394531, 0.5496580600738525, -0.17617812752723694], [0.07871077954769135, -0.5503139495849609, 0.7355471849441528, 0.10778794437646866, 0.2400653213262558, -0.4496611952781677, 0.9778243899345398, 0.49280402064323425], [0.5601889491081238, -0.3624759316444397, -1.4908084869384766, -0.1716618537902832, 0.11016581207513809, 1.0887689590454102, 0.4340271055698395, 1.8815157413482666], [-0.847952663898468, 1.0298409461975098, -1.9801735877990723, 0.9181973934173584, 0.469698041677475, 0.3050100803375244, -1.2652791738510132, -0.7425017952919006], [1.3796191215515137, -0.05743718147277832, 0.022458091378211975, 0.40347719192504883, -1.20206618309021, 1.1366360187530518, 0.06887573003768921, -0.21279573440551758], [-0.226003497838974, -0.15453511476516724, 0.9898133873939514, -0.8195236325263977, -0.20571541786193848, -0.37602534890174866, 1.5612571239471436, -1.4253313541412354], [-0.24242372810840607, 2.1050736904144287, -0.17001494765281677, 0.42380261421203613, 1.0351682901382446, 0.7625852227210999, 0.12955735623836517, 0.334171324968338], [0.8288326263427734, -0.46280378103256226, 1.0315885543823242, 0.26694855093955994, 0.5882416367530823, 1.5245130062103271, 1.583710789680481, 0.9509143829345703], [0.8487375378608704, -0.7880451679229736, 0.7985318899154663, -0.5001278519630432, -0.2618824541568756, -1.4831594228744507, -1.9006248712539673, -2.4558184146881104], [0.1590195894241333, -0.9784515500068665, 0.3981650173664093, 1.2211233377456665, -0.5274823904037476, 0.4778498709201813, 0.5487280488014221, 0.31352612376213074], [1.1883580684661865, 1.4434469938278198, 0.6483975052833557, 0.23322275280952454, -0.41475003957748413, -1.1639957427978516, 0.03366803005337715, -0.8923611044883728], [0.7467355728149414, -0.18958055973052979, -0.8180702924728394, 0.6691776514053345, 0.6289189457893372, 0.5463212728500366, 1.2986180782318115, 1.2175438404083252], [0.5990701913833618, -0.191047802567482, -1.4357670545578003, -1.4855124950408936, 0.29632073640823364, -1.3886936902999878, 1.9008872509002686, -0.12753576040267944], [0.006809437647461891, 1.0511409044265747, -0.9683281183242798, -0.424622505903244, -0.3234161138534546, 0.9879631400108337, -0.06317071616649628, -0.4275316596031189], [1.1081607341766357, -1.2642040252685547, 0.9990360736846924, -1.273768663406372, 1.4232500791549683, -0.9030722379684448, -0.6975299715995789, -0.01952625997364521], [0.10100887715816498, -0.2856631577014923, 1.3741962909698486, 0.667658805847168, -2.316316604614258, 0.008762465789914131, 1.5773066282272339, -1.1254059076309204], [-0.662311315536499, -0.2341168373823166, -0.18090875446796417, -0.12556035816669464, 0.5979592204093933, 0.13272090256214142, 0.3679230511188507, 3.210977792739868], [-1.1227482557296753, -0.09179558604955673, -0.007532777264714241, 0.3446885645389557, 0.05590522289276123, -1.1604304313659668, 1.3393267393112183, 0.000899399456102401], [-0.25875166058540344, 2.351961135864258, 0.6041461229324341, 0.018012842163443565, -1.3996542692184448, -0.33963698148727417, 0.6111565232276917, -0.1592808961868286], [-1.4542995691299438, -0.23104310035705566, 0.6108342409133911, 1.293134331703186, 1.8235801458358765, 1.8212759494781494, 0.21805690228939056, -1.9939446449279785], [-0.35926467180252075, -0.6630266308784485, -0.2637537717819214, -0.9568029642105103, 1.9206007719039917, -0.955276608467102, 0.5387840867042542, -0.2733688950538635], [0.10613418370485306, -0.3067088723182678, 0.864227294921875, -1.0658658742904663, -1.0129939317703247, -0.9939180612564087, 2.9082677364349365, 1.4483332633972168], [-0.6935620903968811, -0.6439812779426575, -0.5087133049964905, 0.2927989065647125, 0.13582690060138702, -0.3038930296897888, 1.3690707683563232, 1.1148402690887451], [0.9712569117546082, 0.7152132391929626, 0.9307134747505188, 0.846680760383606, 0.3253745138645172, -0.2981712818145752, -0.7306327223777771, -1.2417943477630615], [-0.24772344529628754, 0.4430842101573944, 0.39185723662376404, 1.1099650859832764, 0.780515193939209, 1.8094751834869385, 0.295866459608078, 1.2057104110717773], [0.09715356677770615, 0.0064568109810352325, 1.12102472782135, 1.3673944473266602, 0.5734404921531677, 0.09153366833925247, 0.052453357726335526, 1.2055832147598267], [-0.8064055442810059, -0.8865262866020203, -0.26046037673950195, 2.2682220935821533, -0.36988919973373413, -0.2125467211008072, 1.1868526935577393, -0.12597085535526276], [-0.26540470123291016, 0.7725227475166321, 1.9858537912368774, 0.29631927609443665, -0.04169216379523277, 0.7271658182144165, -0.3564753830432892, -0.7422282695770264], [-2.1757872104644775, 0.5290213823318481, -0.735155463218689, -0.06275273114442825, 0.06521006673574448, 1.2478787899017334, -1.2928740978240967, -0.13489679992198944], [0.10171479731798172, -1.2285960912704468, -1.922564148902893, -0.45337656140327454, 0.1947527527809143, -1.3745313882827759, 1.2571548223495483, -2.058912515640259], [1.2860474586486816, 0.22505377233028412, -0.9246196746826172, 0.7994245886802673, -0.9867085218429565, -0.5169756412506104, 0.056854743510484695, 0.7511723637580872], [-0.7132115960121155, 0.8600049018859863, -0.6732481718063354, 0.08901794999837875, -0.8807154893875122, 0.7142276763916016, 0.4858526885509491, 1.2336959838867188], [0.6396758556365967, -1.0234332084655762, -0.42987188696861267, 0.15897861123085022, -1.141322374343872, -0.5405950546264648, 0.9187018275260925, 1.9335955381393433], [-1.93796706199646, -0.8595336675643921, 0.8293968439102173, 1.0709261894226074, 0.74763023853302, -0.11809253692626953, -0.9837365746498108, -0.7049969434738159], [2.353257656097412, -2.130531072616577, 0.32942864298820496, -1.2747539281845093, -0.520291805267334, 0.08188614249229431, -0.4857562780380249, -0.9941468238830566], [-0.36654728651046753, -0.451322466135025, 0.8124958276748657, -0.08576750755310059, 0.03045293688774109, -0.7825973629951477, 0.8930248618125916, 0.20117047429084778], [-0.30681759119033813, -0.5739150047302246, 0.3574734628200531, -0.49549785256385803, -0.4136520028114319, 1.6962809562683105, -1.4413810968399048, 0.041372571140527725], [0.09791436791419983, 0.5070580840110779, 0.2529248595237732, 0.8446996808052063, -0.8881528377532959, -1.1610877513885498, -0.8602324724197388, 0.9328528046607971], [0.38668233156204224, -0.5442875623703003, -1.042245864868164, 1.653515338897705, -0.6179915070533752, 0.21552026271820068, -0.879128634929657, -0.15204495191574097], [0.5882829427719116, -1.3876924514770508, -1.7539243698120117, -0.6758856773376465, 0.6696134805679321, 1.0739049911499023, 0.26928937435150146, 1.517707109451294], [1.54808509349823, -0.5402103662490845, -0.6662377119064331, -0.22499732673168182, 0.6408771276473999, 0.38380029797554016, -0.35758084058761597, -0.6797989010810852], [-0.17127610743045807, -1.436047077178955, 0.6163262724876404, -0.2618575394153595, -1.5683637857437134, -0.008505988866090775, -0.36081090569496155, -1.1926779747009277], [-0.30221131443977356, 0.3222886323928833, -0.05481232330203056, 1.1761029958724976, 2.1518197059631348, 1.9696108102798462, -0.3353269696235657, -1.9557236433029175], [-0.43430325388908386, -0.447333961725235, 0.3980654776096344, -1.5883880853652954, -0.06988416612148285, 0.8734490275382996, -1.2223128080368042, -0.7727031111717224], [-1.1835020780563354, -0.09663647413253784, -0.650650680065155, 0.32426881790161133, 0.5131375193595886, -0.3794100284576416, -0.18651770055294037, 0.26861852407455444], [0.5739778876304626, 1.6648975610733032, -0.30528366565704346, 1.3638839721679688, -0.5334792733192444, 0.24437204003334045, -0.556289553642273, -0.08467864245176315], [-0.14055423438549042, -0.45163094997406006, 0.3563162088394165, -0.0538516491651535, 1.4297668933868408, -0.11293625831604004, -0.29785263538360596, -0.7633659839630127], [2.660731077194214, -1.1332244873046875, 1.493129014968872, -0.9975879788398743, -1.5221645832061768, -0.2743295431137085, -1.2419453859329224, -0.27692317962646484], [-0.9028950929641724, 0.026180149987339973, 0.3405977487564087, -1.6703226566314697, 1.2150675058364868, -0.09187986701726913, 2.235294818878174, 0.07357367873191833], [-1.3845640420913696, 1.0016969442367554, -0.1527528017759323, -1.1679359674453735, 1.0150319337844849, -0.4006745517253876, -0.02236977592110634, -0.29188331961631775], [1.7587459087371826, -0.04293788596987724, 1.9674326181411743, -0.08322007954120636, 1.220018982887268, 1.0393400192260742, 0.21646831929683685, 0.3243568539619446], [-0.3284938633441925, -1.361244559288025, -1.1102430820465088, -0.4264739751815796, -1.2691868543624878, 0.7722010016441345, -0.6375530958175659, 0.6904256939888], [0.8728745579719543, -0.27010783553123474, 0.18455363810062408, -1.1087321043014526, -0.5262229442596436, -0.5715479850769043, -0.0349101759493351, 0.8282113075256348], [-0.440834105014801, 0.01636837236583233, 0.9107789397239685, -0.8285496830940247, 0.570663332939148, 0.45168304443359375, 2.4754488468170166, -0.638875424861908], [-0.9030112624168396, -0.6401212215423584, 0.18392647802829742, -0.7987250685691833, -0.7498986124992371, -0.757071316242218, 1.6706269979476929, -1.1926062107086182], [0.8667841553688049, -0.4052761197090149, -1.1565971374511719, 0.5942385792732239, -0.2526858448982239, 0.36396414041519165, -1.3006112575531006, 0.9737712740898132], [0.23702813684940338, 0.7728748321533203, -0.035379793494939804, 0.06481464952230453, -0.07588651776313782, -0.4782434105873108, -1.0356104373931885, 1.4780195951461792], [-0.23828080296516418, -0.18420086801052094, 1.140551209449768, -0.7661495804786682, 0.18307100236415863, 1.2135683298110962, -1.2813618183135986, -0.6998347043991089], [1.7816181182861328, 1.1594107151031494, -1.3428252935409546, 0.7006224989891052, -0.6768152713775635, -0.9605897068977356, -0.6438408493995667, -0.1963472217321396], [-0.6658414602279663, 0.00985541008412838, 0.2642761468887329, 0.6938213109970093, -0.520176887512207, -0.6160886883735657, -0.20550881326198578, 0.5982987880706787], [0.25069987773895264, -1.798209309577942, 0.33478644490242004, 1.7486417293548584, 0.4747333228588104, 1.3871339559555054, -1.1374009847640991, -0.62142413854599], [1.1857613325119019, -1.9583933353424072, 0.4484812915325165, 0.6053551435470581, 0.5654879212379456, -0.9278504848480225, -0.19087839126586914, 0.2679685652256012], [0.643098771572113, -1.9509978294372559, -0.637146532535553, -0.12077850103378296, 0.011760645546019077, -0.08868023753166199, -0.40839359164237976, 0.05492441728711128], [-0.29362156987190247, 0.4544214606285095, -1.5176221132278442, 0.7311370372772217, 0.5722823143005371, -0.2117316573858261, 0.8713735342025757, -1.842746376991272], [-1.6471881866455078, -0.07604031264781952, -0.5812519788742065, -1.3184864521026611, -1.6097502708435059, -1.6710630655288696, -0.5640541911125183, 1.1508291959762573], [-1.6215978860855103, -0.7813446521759033, 0.9126636385917664, 1.22030770778656, 0.5782483220100403, -1.3964136838912964, -1.0155824422836304, 0.3766999840736389], [-1.2118569612503052, 0.9034615159034729, -0.7552037239074707, -2.9493422508239746, 1.4527784585952759, -0.21097709238529205, 0.16321024298667908, 1.2986851930618286], [-0.9527983069419861, -0.8329483866691589, -0.7722153067588806, -1.0380711555480957, 0.600590705871582, 1.244965672492981, -1.1201752424240112, -2.785442352294922], [-0.972196638584137, -0.2925424873828888, -0.4505457580089569, -0.3152087926864624, 1.0524117946624756, 2.62274169921875, 0.9991557002067566, -0.15538661181926727], [-0.5955227613449097, -0.43307796120643616, 1.7661789655685425, -0.536755383014679, -0.6598240733146667, 0.2894057631492615, -0.47881194949150085, -0.6749796867370605], [-1.545717716217041, -1.586336374282837, -0.2849804162979126, 1.4979710578918457, -0.14325420558452606, 0.834671676158905, 0.013993790373206139, -0.7594150304794312], [0.15712814033031464, -0.4534706175327301, -1.5631111860275269, -1.262421727180481, -0.21540790796279907, -0.5168060064315796, 0.9336523413658142, -0.8329361081123352], [1.2821135520935059, -0.9667137861251831, 0.13837775588035583, 0.5697898864746094, 1.0083860158920288, -0.012729774229228497, 0.44774311780929565, -0.9350441694259644], [-0.7961369156837463, 0.4634629487991333, -0.778785765171051, -0.011200420558452606, -0.8367990255355835, -0.15289832651615143, 0.5174569487571716, 1.5960313081741333], [-0.7884156703948975, 1.9387874603271484, -0.8823907971382141, 1.171831488609314, 0.9703550338745117, 2.1960020065307617, 0.7432330846786499, -0.9075108766555786], [0.12243027240037918, 0.24018661677837372, 0.3816433548927307, -0.06768923252820969, 0.0754270851612091, 1.228011131286621, 0.5413550138473511, 1.5778822898864746], [0.08513777703046799, -1.5322829484939575, -0.1536044478416443, -1.1607493162155151, 1.0523853302001953, 1.887670874595642, -0.4952934980392456, 1.0190625190734863], [0.8062883019447327, -0.6957824230194092, -0.48256587982177734, 0.9685053825378418, 0.42896291613578796, -0.05702754482626915, 0.8257854580879211, 0.48996293544769287], [-1.1032185554504395, 0.7213666439056396, -2.4888501167297363, 0.4289160966873169, -0.46096280217170715, -0.9890083074569702, -1.8721379041671753, 1.208958625793457], [-0.9380512237548828, -0.6385068893432617, 0.2194686383008957, -0.439242959022522, -0.1391070932149887, -0.018692156299948692, 1.6560721397399902, 1.0661178827285767], [-0.686759889125824, -1.2940294742584229, 0.22780382633209229, 0.09065857529640198, 0.5011078715324402, 1.6740466356277466, -1.1117453575134277, 0.7170878648757935], [0.64337557554245, 0.1844116747379303, 0.03974062576889992, 0.32468175888061523, -0.981123149394989, -0.20106422901153564, 0.8605425357818604, -0.3138588070869446], [-1.181583046913147, 0.317346453666687, -1.1886826753616333, 0.21072505414485931, -0.394801527261734, 0.0794733315706253, -1.5188838243484497, -0.916708767414093], [0.43506288528442383, 0.32145050168037415, 0.052249763160943985, 0.8522070646286011, -0.5367655754089355, 1.0806407928466797, 0.7725123763084412, -1.1800798177719116], [0.4033621549606323, -0.8434571623802185, -0.9787545800209045, -1.905518889427185, -0.6293749213218689, 0.4715013802051544, -0.4022233784198761, 1.2806812524795532], [0.6964290142059326, 0.002626275410875678, 1.0513267517089844, -1.0461540222167969, 0.8810855746269226, 1.7971476316452026, -0.23617050051689148, 0.2277931571006775], [-0.22446128726005554, -1.0680567026138306, 1.6916183233261108, 2.042473077774048, -1.3402037620544434, 0.12033172696828842, 0.465111643075943, 0.9553000330924988], [-0.31809282302856445, -0.3158491253852844, 0.9560669660568237, -0.5450275540351868, -1.0025720596313477, 1.0061872005462646, 1.4267535209655762, 0.9899624586105347], [-1.564744234085083, -1.5320966243743896, -0.22448261082172394, 0.5679686665534973, -0.32143014669418335, -1.2593988180160522, -2.571714162826538, 0.09895774722099304], [-0.8509973883628845, 0.3012101650238037, 1.6230685710906982, 0.2618056833744049, 0.4347863793373108, 0.12075647711753845, 0.6717480421066284, 0.20370391011238098], [-0.275198370218277, -1.2773516178131104, 0.3289091885089874, -0.03518153354525566, 1.6504356861114502, -1.0594754219055176, -1.254919409751892, 0.9732950925827026], [-0.9467180967330933, 0.12999971210956573, 0.042703792452812195, 1.0780744552612305, -1.5513290166854858, -0.4906715452671051, -0.7728798985481262, -0.20681338012218475], [-0.8289298415184021, 0.41069090366363525, 0.7511500120162964, -1.7355482578277588, -0.5766422152519226, -0.7048919796943665, 1.0460423231124878, -1.0367261171340942], [-0.1880130171775818, 1.6419440507888794, -0.3963049054145813, -2.7140262126922607, 1.2606505155563354, 0.01242211926728487, 0.7611773610115051, 2.880427122116089], [1.8784494400024414, -0.06766681373119354, -0.8116388916969299, 1.276519536972046, -0.381994366645813, 1.2983660697937012, -2.0290989875793457, 0.37233439087867737], [0.0546388104557991, 0.022348256781697273, 0.4588637351989746, 0.48301613330841064, -0.003212504554539919, -1.0592397451400757, 1.13790762424469, -2.171177864074707], [-0.6415448188781738, -0.6669561862945557, -0.14782841503620148, 0.5303450226783752, 0.3575977683067322, 0.049614209681749344, -0.7341318726539612, -0.09114126861095428], [-1.0048649311065674, -0.5118828415870667, -0.2515904903411865, 0.07418566942214966, 2.283823013305664, 0.5450649261474609, -0.8575279712677002, 1.078925609588623], [-0.32947924733161926, 0.5901054739952087, -1.0529018640518188, -0.2789071500301361, 0.30676937103271484, 0.4885817766189575, 0.020324446260929108, -0.2342444211244583], [0.19443823397159576, 1.5793554782867432, 0.3796389400959015, -0.734338104724884, -0.8746143579483032, -0.420591801404953, -0.19691744446754456, -0.2927949130535126], [0.011637167073786259, 1.518179178237915, -0.9004217982292175, 0.16687537729740143, 0.0976092517375946, 0.3078658878803253, 2.060380220413208, -0.17799057066440582], [-2.1304829120635986, -0.1294756382703781, 0.40006694197654724, 0.6527220606803894, 1.015088438987732, 0.1556982696056366, -0.6250076293945312, -2.2667315006256104], [1.6097408533096313, 0.9814252257347107, 1.5398695468902588, -0.27503153681755066, 0.5958369970321655, -2.5398099422454834, -0.8669484853744507, -2.29581356048584], [-1.4418578147888184, 0.66969233751297, 0.5058531761169434, -0.4233006238937378, -1.0335307121276855, -1.2546838521957397, 1.0297808647155762, -0.19269278645515442], [0.8756163120269775, 0.8143429160118103, -1.2098509073257446, 0.3308139145374298, 0.32010453939437866, -1.1874146461486816, -1.5104169845581055, 1.1568207740783691], [0.5364645719528198, 1.4703078269958496, 0.23931759595870972, 0.5048357844352722, 0.20448972284793854, 0.6387354135513306, -1.13084077835083, 1.2730807065963745], [-0.7876805067062378, 0.9182479977607727, -2.033574104309082, 0.41635021567344666, 0.08990587294101715, -0.7211292386054993, -1.5214998722076416, -0.79027259349823], [0.8404287099838257, 0.5401584506034851, -0.38922128081321716, -1.6949983835220337, 1.2897814512252808, 0.1376877725124359, -0.1972355842590332, 1.963645577430725], [-0.5290933847427368, -0.20220234990119934, -0.0381556898355484, -0.6419585347175598, -0.5138333439826965, -0.1618129312992096, -1.5550892353057861, -1.6397117376327515], [1.0196946859359741, 0.08015561103820801, 0.31215372681617737, -0.04083405062556267, -0.634972870349884, -0.6467065215110779, -0.513534665107727, -1.0345475673675537], [1.442466139793396, 0.8916967511177063, -0.4038747251033783, -1.5994558334350586, -0.2652948200702667, 0.8963582515716553, 0.3725346326828003, 0.5286260843276978], [-0.4183904230594635, -0.48766544461250305, 1.8811211585998535, 0.7943955063819885, -0.30623194575309753, 1.0180795192718506, 0.9185651540756226, -0.5784425139427185], [-1.8300814628601074, 0.49913913011550903, -0.682179868221283, 1.1400558948516846, -0.544758141040802, 0.4919073283672333, 1.1384059190750122, 0.18975095450878143], [1.1607093811035156, 1.9049979448318481, 0.38992375135421753, -0.9014449715614319, -0.4111858904361725, -1.1412829160690308, -0.12996692955493927, 0.29645204544067383], [-1.5110783576965332, 0.12912294268608093, -0.3848133683204651, -0.7022674679756165, -0.270883709192276, 0.47755423188209534, -0.14980065822601318, 0.7651399970054626], [0.7630314826965332, 0.7101767659187317, 0.7697526812553406, -0.6765622496604919, 1.4928606748580933, -0.41333937644958496, 1.3491796255111694, 0.25897300243377686], [-0.40752556920051575, -0.5914025902748108, -0.0589371956884861, 0.6754136681556702, 0.6616870760917664, -0.690735399723053, 1.1690349578857422, 0.9647457599639893], [-3.3299789428710938, 0.44338706135749817, 1.8925254344940186, 0.9673882722854614, 1.977858304977417, 0.31769421696662903, 1.2356535196304321, -1.3627150058746338], [-0.8147763013839722, -0.28893399238586426, 0.4496413469314575, 0.7326086759567261, -0.012516790069639683, 1.2301671504974365, 1.297392725944519, 0.21861423552036285], [-0.5132996439933777, -1.0898348093032837, -0.4684668481349945, -1.5248775482177734, 0.16767928004264832, 0.8996089696884155, 0.2332969456911087, 1.0938199758529663], [-0.34258905053138733, -0.7374355792999268, 0.3504185378551483, 0.5608154535293579, 0.4072789251804352, 0.9724645018577576, 1.928964376449585, -0.0017809522105380893], [1.1109217405319214, -1.3598312139511108, -0.6125513315200806, 1.0349403619766235, -0.5747919082641602, 0.10204271227121353, 0.34896597266197205, -0.12158067524433136], [0.678686797618866, 0.46277809143066406, -2.0666134357452393, -0.7290726900100708, -0.3862053155899048, -0.30424433946609497, -0.5843270421028137, -1.2627094984054565], [0.844859778881073, -0.5258563160896301, 0.18870921432971954, 0.07019349932670593, 0.15737222135066986, 0.6622182130813599, 0.3474951386451721, -1.1301392316818237], [-0.7829371094703674, 0.7204407453536987, 0.2474302053451538, 0.9444010853767395, 1.0135246515274048, -1.5097486972808838, 0.9422021508216858, 0.6301417350769043], [-1.4127846956253052, 0.05571695417165756, -0.9268699884414673, -0.28365829586982727, 0.023888686671853065, 0.6722374558448792, -1.10539710521698, 1.2671571969985962], [0.21474803984165192, 0.5335379838943481, -1.3623727560043335, 0.9220853447914124, 1.2368714809417725, 0.6929020881652832, 0.7569200396537781, -0.11867690086364746], [-1.3561655282974243, -0.26623788475990295, 0.7713292241096497, -0.2453274130821228, -0.9657261967658997, -0.1952763795852661, 1.4998488426208496, 0.47000399231910706], [-1.4702728986740112, -0.14001816511154175, 0.04614068195223808, 1.2131608724594116, -0.5177635550498962, -0.7213234305381775, -1.3776168823242188, -0.7759358882904053], [-1.1416010856628418, 0.14175862073898315, 0.6029634475708008, -0.2675231397151947, -0.4438147246837616, -0.18874353170394897, -1.1119614839553833, 2.130995988845825], [-0.3570241332054138, 0.9462900757789612, 0.7852566242218018, 0.8208738565444946, -0.27437451481819153, -0.2531478703022003, -0.9905460476875305, -0.3070394992828369], [-0.7884504795074463, -0.053273268043994904, 0.39335477352142334, 1.4479690790176392, -1.4404199123382568, 0.057381924241781235, -0.15787316858768463, -0.9838517904281616], [-1.5596522092819214, -1.1774810552597046, 0.852368175983429, 0.2257743626832962, 0.44047969579696655, 0.3912438750267029, -0.6579723358154297, 1.0687214136123657], [1.780207872390747, 0.777410626411438, -1.9629735946655273, -0.5562532544136047, 0.3277547359466553, -1.617455005645752, -0.5580328106880188, 0.029617171734571457], [0.030390912666916847, -0.9793685078620911, -0.5116012692451477, -0.11377277225255966, -1.526761531829834, 0.039638057351112366, -1.2966736555099487, -1.1672981977462769], [0.008010540157556534, -0.3395397961139679, -0.9313865900039673, -0.6853240132331848, -0.77634197473526, 1.8487318754196167, -0.06532742083072662, 0.06013519689440727], [-0.6819034218788147, 1.5044419765472412, -0.7286497950553894, 0.11402483284473419, -1.102524995803833, -1.432418704032898, 0.8423233032226562, 0.8088905215263367], [-1.7828704118728638, 0.2112758904695511, -1.142587661743164, -0.047699376940727234, -2.035182237625122, -1.150111436843872, 0.3354365825653076, -1.1033003330230713], [0.6784197688102722, -1.0816723108291626, -0.24156953394412994, -0.14428028464317322, 0.31220924854278564, 0.35606735944747925, -0.8234977126121521, 0.3685343861579895], [-0.8675220012664795, -1.2815191745758057, 1.3518296480178833, 1.1273833513259888, -0.8272265791893005, -1.7355632781982422, 1.385362982749939, 1.30509614944458], [-0.6988914012908936, -0.6871283054351807, -0.2852320075035095, -0.3627103269100189, -1.4840790033340454, 0.17846986651420593, -0.44402721524238586, 1.3246594667434692], [0.2325674593448639, 1.4147617816925049, -1.7348353862762451, -0.5899795889854431, 0.35172492265701294, 0.7904458045959473, 0.5754755139350891, 0.4856351315975189], [-2.0184104442596436, 0.2584366202354431, -0.4175741672515869, 0.4897400140762329, -0.4210151731967926, 1.9372637271881104, -0.8172064423561096, -0.8789955377578735], [-1.0467115640640259, 0.19968926906585693, 1.1997188329696655, -0.09466072916984558, 1.0511947870254517, 0.7856647372245789, 0.5142511129379272, 0.23698699474334717], [0.8371129035949707, 3.0052812099456787, -0.059629835188388824, -0.2280735820531845, -1.3062375783920288, -0.9676628708839417, 1.1500308513641357, 0.4751362204551697], [0.10216545313596725, 0.31388935446739197, -1.2504775524139404, -0.6102586984634399, 2.198864221572876, 0.27333375811576843, -0.3648918569087982, -0.07721135020256042], [-0.5128872394561768, -1.0185937881469727, -1.571384072303772, 0.6464289426803589, 0.6313196420669556, 1.132612705230713, -0.008754674345254898, 0.9801091551780701], [-1.0598499774932861, -1.0111095905303955, -0.27182504534721375, 0.6422807574272156, 0.9259024262428284, 1.319458246231079, -0.004742455668747425, -0.09313774853944778], [-0.7668665647506714, -0.8363003134727478, 0.6163040399551392, -1.26638662815094, 0.14781276881694794, -0.3081706166267395, 0.544761061668396, 0.2069723755121231], [0.1980409473180771, -0.04660723730921745, 0.9925737380981445, -0.1646367758512497, 0.28913551568984985, -0.2939910292625427, -1.5221030712127686, 3.2118122577667236], [-0.7922555208206177, 0.6310981512069702, 0.6386013627052307, 0.1912117898464203, 1.0382282733917236, -0.8835323452949524, -0.07501286268234253, -1.9777026176452637], [0.6342243552207947, 0.923561155796051, -0.6175165176391602, -0.12172633409500122, 0.409544974565506, -1.589342713356018, -0.2643171548843384, -1.8588809967041016], [1.103752613067627, -0.04514281824231148, 0.3887113034725189, -1.4983538389205933, -0.9522404670715332, -1.9489506483078003, 0.16177387535572052, 0.05265496298670769], [-0.8389711976051331, 0.8864395618438721, -1.1544158458709717, 1.0240240097045898, 1.7996960878372192, 0.1810438483953476, 0.8228194117546082, 0.9405151605606079], [0.08062876760959625, 0.3740638196468353, -0.2736526131629944, 1.3861833810806274, -0.3105372190475464, -0.21640542149543762, 0.9639559984207153, 0.4402869939804077], [-0.3213155269622803, -0.38398709893226624, 1.3260555267333984, 0.29868534207344055, -0.1870109736919403, 0.5312608480453491, -0.7921691536903381, 0.19384481012821198], [-1.4706244468688965, -0.09176009148359299, 0.2926212251186371, 1.1224620342254639, 1.27696692943573, -0.0381641760468483, -0.5420268177986145, -0.9574594497680664], [-0.6574240922927856, 0.11834375560283661, -0.5215064287185669, 0.29119637608528137, 0.602355420589447, 1.273977518081665, -2.286696672439575, 0.4247189164161682], [-1.0572755336761475, 0.9000106453895569, 0.807329535484314, -0.15045413374900818, -0.5477619767189026, -0.5017404556274414, 0.3283626437187195, -0.8323079347610474], [1.7042458057403564, 0.009419816546142101, 1.6999754905700684, 0.12346775829792023, -0.37894025444984436, 0.4221988022327423, 0.31989654898643494, -0.06798727065324783], [1.4148527383804321, 1.649804949760437, 0.7567774057388306, 0.14687128365039825, 0.010043027810752392, 0.8693701028823853, -0.9409090280532837, 0.501396119594574], [-0.029446957632899284, -0.5713820457458496, 1.8482695817947388, 0.8484644293785095, -0.551226019859314, -0.30001288652420044, -0.39888861775398254, 1.7896558046340942], [-0.8619852662086487, 1.9422214031219482, 0.7133046388626099, 0.390001505613327, 0.474445104598999, 0.21095627546310425, 1.3759394884109497, 1.1035090684890747], [-1.2131602764129639, 0.38991251587867737, -0.464066743850708, 0.1898828148841858, 0.4076336920261383, 1.3687951564788818, -1.1982295513153076, 1.5649663209915161], [-0.9822703003883362, 0.3516513407230377, 0.4729175567626953, 0.4676341712474823, 0.6986595392227173, 1.0853441953659058, -0.10397768765687943, 0.15177948772907257], [0.36305227875709534, -0.3097260296344757, -1.8969110250473022, -1.3677887916564941, 1.4125086069107056, -0.32515236735343933, 0.31774041056632996, 0.26163017749786377], [0.6404794454574585, 0.45530498027801514, 2.0337307453155518, 0.8824822306632996, -0.3995633125305176, -0.650581419467926, -0.3048560917377472, 1.4043635129928589], [-0.1808222532272339, -0.2824527621269226, -1.484316110610962, -0.9223158955574036, -0.45605793595314026, -0.16256754100322723, -0.0820079818367958, -1.04938542842865], [-1.1927940845489502, -1.2298402786254883, 0.11966440081596375, 1.0589330196380615, 2.2295281887054443, 0.7777175903320312, 0.021136775612831116, -0.37398213148117065], [-1.5819553136825562, 1.5694338083267212, -0.6648780107498169, -0.9961872696876526, 1.1336843967437744, 1.673378825187683, -0.972118616104126, 0.97384113073349], [-0.31614285707473755, 0.9044048190116882, 0.3314402401447296, 0.3699483573436737, -0.6805815696716309, -0.6544930934906006, -1.028221607208252, -0.4702225625514984], [0.7166041135787964, -1.6729096174240112, -0.2737997770309448, -0.7681438326835632, -0.11191869527101517, -0.829024612903595, 0.7412269711494446, 0.5496437549591064], [0.7030985951423645, -1.4963858127593994, 2.463534355163574, 0.8616908192634583, 0.3783775568008423, 0.5543776154518127, 0.033051326870918274, 0.6627811789512634], [0.27676641941070557, 1.1274887323379517, 2.5744986534118652, 0.3850458562374115, 0.9665287733078003, -0.1913370043039322, -0.010528060607612133, -0.14131353795528412], [1.3274551630020142, 0.8954086303710938, 0.542058527469635, 0.8302892446517944, -0.7911937832832336, -0.47329410910606384, 0.38459017872810364, 0.6938499808311462], [0.3472243547439575, -0.7966825366020203, 0.33934807777404785, -0.8188889026641846, 1.0253243446350098, 0.23777134716510773, 0.9344162344932556, -0.1765323281288147], [-0.02518211491405964, -0.6479896903038025, 0.9978079199790955, -1.308050274848938, -0.6385976076126099, 0.20674629509449005, 1.8420721292495728, -0.3866793215274811], [0.29781460762023926, 1.7575914859771729, -0.8460360169410706, -1.4437849521636963, -0.3720041513442993, -0.41528305411338806, -1.236855149269104, 1.3847850561141968], [0.46293336153030396, -1.2602847814559937, -0.26782023906707764, 0.8419041037559509, -0.6580671668052673, 0.5404293537139893, -0.43001341819763184, 0.32447218894958496], [-0.17156435549259186, -1.765196442604065, -0.6611077189445496, 1.9092919826507568, -0.07372801005840302, 0.3514386713504791, -2.4008147716522217, 0.4805532395839691], [0.24961087107658386, -0.6590132713317871, -0.9514589905738831, -0.47294533252716064, -0.9210986495018005, 1.4578075408935547, -1.1138323545455933, -0.847540557384491], [0.5636201500892639, 0.30810829997062683, 0.2675129175186157, 1.6870384216308594, 1.3489919900894165, -1.4890223741531372, 0.44652390480041504, 0.9941112995147705], [-0.26998016238212585, -1.0563710927963257, -0.8164309859275818, 1.6640286445617676, -0.9844182729721069, 0.4279426038265228, -0.6439703702926636, -0.0803091749548912], [-0.44457748532295227, -0.15558744966983795, 1.0957112312316895, 0.7800808548927307, 1.215907096862793, -0.3382345736026764, -0.7255419492721558, 0.25842973589897156], [1.3449599742889404, -0.8606895208358765, 1.978594183921814, 0.5337610840797424, -1.3159459829330444, -0.07123444974422455, 0.44161441922187805, 0.6263929009437561], [0.6830120086669922, -1.2978793382644653, -0.8617478609085083, 1.0430365800857544, -0.8110035061836243, -0.19694320857524872, -0.14392665028572083, -2.0151548385620117], [-0.9457018971443176, -0.5078949332237244, 1.4096202850341797, -0.27126097679138184, -0.5438188314437866, 0.40987107157707214, 0.5296846628189087, 0.5955607891082764], [1.6037938594818115, 0.7152358293533325, 1.9036880731582642, -1.1197839975357056, -2.211786985397339, -0.5754631757736206, 0.43194013833999634, 0.8337973356246948], [-0.035605356097221375, 0.6830963492393494, 0.3244982063770294, 0.01365012675523758, 0.15213020145893097, 0.6243249773979187, 0.26852792501449585, -0.8033345937728882], [0.42271679639816284, 1.6538554430007935, 0.9510926604270935, 0.5118778944015503, -1.1900272369384766, 1.9184749126434326, -2.9560916423797607, -0.5688542127609253], [-0.5916404128074646, 1.430708885192871, 1.4709101915359497, -0.52473384141922, -0.3144097924232483, 0.022899359464645386, -1.1074596643447876, 0.9957432746887207], [-2.6306073665618896, 0.5992472767829895, -0.7029293179512024, 0.22323791682720184, 0.7951143980026245, 0.12939783930778503, 0.9142645001411438, 0.9292114973068237], [-1.6540504693984985, -2.3314809799194336, -1.409194827079773, 0.5380795001983643, -0.1480797529220581, -0.7710021138191223, 1.8198219537734985, -1.0537325143814087], [1.3008407354354858, 0.07837270200252533, -0.63872891664505, 1.0313562154769897, -0.30855944752693176, -0.24024878442287445, -0.32236188650131226, -1.2888948917388916], [-0.4125853180885315, 1.237895131111145, -0.6284638047218323, 0.7046570777893066, 0.03140653297305107, -1.7996445894241333, -1.4432257413864136, 0.08125041425228119], [-0.411406546831131, -1.8406052589416504, -2.0436766147613525, 0.42013779282569885, -0.8925580978393555, 1.020958662033081, -0.41201815009117126, 1.7085591554641724], [-0.333589643239975, -0.28135958313941956, -0.16483047604560852, -1.2734577655792236, 0.019436126574873924, -0.9320706129074097, -1.0527254343032837, 1.7649425268173218], [0.20529429614543915, -0.10344512015581131, -0.2558497488498688, -1.124417781829834, 1.234626293182373, -0.2514779567718506, -0.05647978559136391, -0.7162632346153259], [1.1782972812652588, 0.3834797143936157, -0.10917145758867264, 0.38599473237991333, -0.3934630751609802, 0.9927220344543457, 2.2537410259246826, -0.4522915780544281], [1.30980384349823, -0.3214553892612457, -0.5563172101974487, 0.8302010893821716, -0.7550452947616577, 1.4170291423797607, -1.7036113739013672, -1.0102910995483398], [0.7378019690513611, 1.3995989561080933, -1.470655918121338, -1.0272765159606934, 2.0359413623809814, -0.9036440849304199, -0.4303922951221466, -0.012504233978688717], [0.7486474514007568, -0.06838834285736084, -1.8708808422088623, 1.1460610628128052, -1.497507095336914, -0.2042820304632187, 0.8279653787612915, -0.9235063791275024], [-0.5544583797454834, -1.160931944847107, -1.3557524681091309, 0.06923099607229233, -0.09633028507232666, 0.6774680018424988, 0.25319546461105347, -0.3686146140098572], [-0.08035801351070404, 2.3119149208068848, -0.132717102766037, -0.2164728343486786, 1.064156413078308, -0.3656167984008789, -1.4814951419830322, 0.44517946243286133], [-1.105804681777954, -0.11413786560297012, 0.6413545608520508, 1.5986541509628296, -0.8923685550689697, -0.03278011456131935, 0.927751362323761, -0.8081508278846741], [0.49088382720947266, -0.5036041736602783, 0.4085800051689148, -2.118499755859375, -0.05348663404583931, 0.39305785298347473, 0.5898187160491943, 0.3936220109462738], [-1.2057194709777832, 0.9434971213340759, 2.2540297508239746, -0.24868011474609375, -1.0002743005752563, 1.2636724710464478, 0.6790754795074463, 0.30284178256988525], [-1.6510292291641235, 0.5125589966773987, 1.4679569005966187, 0.14104382693767548, -0.13532039523124695, -0.026559926569461823, -0.6414768099784851, 0.6783877611160278], [0.045158762484788895, 0.2272917926311493, 0.4683491885662079, -0.6738691926002502, -0.28058838844299316, 0.8981117010116577, 0.19006812572479248, -0.6224954724311829], [0.30792340636253357, 0.974668025970459, -0.1315467804670334, -0.8398974537849426, -0.2903103828430176, 0.7829639315605164, 1.0445060729980469, -0.17752055823802948], [-0.4305139482021332, 0.714920699596405, 0.19111908972263336, -0.7942430973052979, 1.1142077445983887, 0.017137616872787476, 1.7074588537216187, -0.02453303150832653], [0.2617758810520172, 0.6249508857727051, -0.2697058618068695, 2.13431978225708, 1.1738930940628052, -0.7035954594612122, 1.4609498977661133, -1.0190480947494507], [-0.04582427814602852, 1.6799572706222534, 1.8014425039291382, 1.162798285484314, 0.02698582597076893, 0.09473627805709839, 2.159318208694458, -0.7413504123687744], [-0.4638664126396179, 1.4645962715148926, 1.2803459167480469, 0.2046937197446823, 0.7709148526191711, 0.8625486493110657, -0.6304371953010559, -0.1671423465013504], [-0.5503223538398743, -0.5122470259666443, -0.7472285628318787, -0.5722857117652893, -0.6746240854263306, -0.05612989142537117, -0.48177480697631836, -0.43234050273895264], [-0.6255935430526733, -2.089972496032715, -0.5782329440116882, -0.09689829498529434, -0.39860713481903076, -0.3341350853443146, -0.7131273150444031, -0.29773956537246704], [-1.3020775318145752, 1.6299883127212524, -1.9303805828094482, -0.5693497061729431, 0.6219901442527771, -0.8060954809188843, -1.1013405323028564, 0.043263308703899384], [-0.4190922677516937, -0.7431079745292664, 1.7739744186401367, 0.29130515456199646, -0.6558793187141418, 0.3763009309768677, 1.0075348615646362, -0.867841362953186], [-3.6730549335479736, -2.026535987854004, 0.48776766657829285, -0.6206935048103333, 1.8547711372375488, -0.25260236859321594, -0.9636421203613281, -1.1616594791412354], [2.276120185852051, 1.5698769092559814, 0.7723241448402405, 0.7940195202827454, 1.3748483657836914, 0.48125651478767395, 1.3763285875320435, -0.5323861241340637], [-2.7080137729644775, -0.5674030184745789, 1.7055655717849731, -0.6993895769119263, 1.6653697490692139, 0.9203701019287109, 0.8994441032409668, -0.28061726689338684], [0.02233513444662094, -0.6217368245124817, -0.004593715537339449, 1.4697331190109253, 0.1085415706038475, 0.35765787959098816, 0.2983136773109436, 0.881860077381134], [0.6229821443557739, -0.2677934765815735, 1.077895998954773, 1.0515491962432861, 0.49872639775276184, 0.7268216609954834, -1.2746964693069458, 1.0712151527404785], [-0.5192036032676697, 1.255714774131775, -0.210979163646698, -1.977278232574463, 0.6551619172096252, 0.5129640102386475, 0.23503378033638, -0.5877593755722046], [0.8739428520202637, 0.7416194081306458, -0.3285036087036133, -0.49004802107810974, 0.2653322219848633, -0.384305864572525, 0.3745373487472534, -0.07217987626791], [1.701848030090332, -1.9778130054473877, -2.3360652923583984, 0.6893957257270813, 1.0524446964263916, -0.10081661492586136, 0.018402449786663055, -0.37777408957481384], [-0.681857705116272, -1.2035245895385742, 0.20201537013053894, 0.15783542394638062, 0.6517825126647949, -0.2271537035703659, 1.1908186674118042, 0.81378173828125], [1.8312735557556152, -0.6159214973449707, -0.6072823405265808, -2.05973744392395, 1.528913974761963, 0.3378683924674988, 0.19153514504432678, 0.16352267563343048], [0.36649569869041443, -0.014798122458159924, -0.5697725415229797, 0.12924209237098694, -0.4888693690299988, 0.815041184425354, -1.5209996700286865, 1.4237743616104126], [0.7296534776687622, -1.9195669889450073, 0.03675834834575653, -0.37748172879219055, -0.20093362033367157, 0.25139230489730835, -0.10331392288208008, -0.14369672536849976], [0.052453964948654175, 0.7387601733207703, -0.661477267742157, -0.901073157787323, -1.0539705753326416, 0.35306495428085327, -0.026861609891057014, -1.2838927507400513], [-0.6087998151779175, 1.2164030075073242, 0.34167706966400146, -1.2828129529953003, -0.5639591813087463, 0.9879785776138306, 1.0798919200897217, -1.204416275024414], [-0.8975592851638794, 0.9357321858406067, 0.22089587152004242, 0.0001865392259787768, 0.08453663438558578, 0.6602092385292053, -0.17524604499340057, -1.0114848613739014], [-0.059532929211854935, -0.3380464017391205, -0.7696182131767273, -0.6416200995445251, -0.9340225458145142, -0.7117457389831543, -1.4062877893447876, -2.5983381271362305], [-0.6583409905433655, -1.4031424522399902, 0.6690455675125122, -0.41894659399986267, -0.9705556035041809, -0.25457486510276794, 0.6174586415290833, -1.1813483238220215], [-0.16590650379657745, -0.49906450510025024, -0.2997075319290161, -0.2627853751182556, -0.24338078498840332, -1.9938048124313354, -1.4780501127243042, -0.2562543749809265], [0.9709742665290833, 0.05320332944393158, 0.09507124871015549, 0.095390684902668, 0.5784270167350769, 1.7835617065429688, -0.24616819620132446, -0.07967540621757507], [-2.384847640991211, -0.8361179232597351, 2.4099037647247314, -0.30209505558013916, 0.8163011074066162, 1.1168246269226074, 0.259765625, -1.11485755443573], [0.918505072593689, 1.8135989904403687, 1.2051920890808105, -0.9469571709632874, -0.5567536354064941, -0.29451969265937805, 1.005386471748352, -1.3764395713806152], [0.7945883870124817, 0.26324141025543213, 0.4812512993812561, 0.005025305785238743, -0.2530854344367981, -0.09305161237716675, -0.7385913133621216, 0.410365492105484], [-1.0625808238983154, -0.6325799822807312, -0.6293240189552307, -1.676796793937683, 0.6724022030830383, 1.988852858543396, 0.8156911730766296, -1.4682726860046387], [1.4100316762924194, -1.6716358661651611, -0.15328267216682434, 0.4849059283733368, 0.04054870083928108, 1.2377253770828247, 0.5291568636894226, 0.6043599247932434], [-1.503974199295044, -1.1234679222106934, 0.7080435156822205, 0.5641013383865356, 1.0284515619277954, -1.2435901165008545, 0.12891314923763275, -0.30391475558280945], [0.7081893086433411, 0.36766695976257324, 0.8380652070045471, -0.14798974990844727, -0.34915632009506226, 0.5075635313987732, -2.4742560386657715, -0.5470424294471741], [-1.8470330238342285, -1.5377675294876099, 0.5987061262130737, -1.9748201370239258, 1.81429922580719, 2.5622010231018066, -0.12854163348674774, 0.024246666580438614], [0.7758861780166626, -0.2722229063510895, 0.5842163562774658, 2.508192777633667, -0.8610131740570068, 0.4553300142288208, 1.0844042301177979, -0.43247440457344055], [0.5145160555839539, 0.34301450848579407, -1.4056346416473389, 2.1109070777893066, 0.7317387461662292, 0.7044382691383362, -0.026226192712783813, -0.04732565954327583], [0.7958902716636658, 0.08366090059280396, 0.2784639596939087, -0.4012461006641388, -1.6781755685806274, 1.0421745777130127, 1.3498133420944214, -1.8915332555770874], [0.9981306791305542, -0.9885434508323669, -1.558246374130249, 1.5934867858886719, 0.20898523926734924, 1.4516714811325073, 0.6886338591575623, -0.3278236985206604], [0.8538100123405457, 1.0858161449432373, -0.257076621055603, 0.5135704278945923, -0.8436634540557861, -1.0528002977371216, -0.19202920794487, 0.6752467155456543], [-0.5230798125267029, -0.2852339744567871, -0.9385798573493958, 0.27237823605537415, -0.20325812697410583, 1.8644720315933228, 0.2284245491027832, -1.0508451461791992], [-0.6065208911895752, 0.5442990064620972, 0.168428435921669, -0.9055342674255371, 0.7951520681381226, 1.1086499691009521, 1.0071407556533813, -0.2595670521259308], [-0.5377262234687805, -0.25308433175086975, -0.6575452089309692, -1.6495811939239502, 0.7122166752815247, 3.127110242843628, -1.1124801635742188, -0.15099561214447021], [0.031071459874510765, -0.19451557099819183, 1.0773767232894897, -0.9741311073303223, -0.08733730018138885, -0.8863584995269775, -1.1876074075698853, -0.6709216833114624], [-1.3795819282531738, 1.0700255632400513, -0.9035430550575256, 0.7684311866760254, 0.43918687105178833, -0.5032516121864319, 2.1168277263641357, 1.2190254926681519], [-0.4673846364021301, 1.0498813390731812, -0.46941977739334106, 1.4829503297805786, 0.37560659646987915, -1.5713366270065308, -1.5468342304229736, 0.9168808460235596], [0.6063782572746277, 0.8173603415489197, -0.22688724100589752, -1.1237545013427734, -0.32901954650878906, -0.4898470342159271, -2.05774188041687, 0.13161659240722656], [-0.8298482894897461, -0.4415314793586731, 0.17241646349430084, 1.9421615600585938, 1.562544345855713, 0.1686505675315857, 0.42018502950668335, -0.14925028383731842], [1.2109287977218628, 0.6310098767280579, 0.07840844243764877, 0.48674020171165466, -0.7216915488243103, -2.5545196533203125, 0.56622314453125, -1.396386981010437], [-1.6769663095474243, -0.30025047063827515, -0.13936930894851685, -0.06214908882975578, -0.007171416189521551, -1.1232316493988037, -0.7838586568832397, 0.8225181102752686], [-0.18538963794708252, -0.9032593369483948, 0.7012733817100525, 0.0739564299583435, 1.2810107469558716, 0.7766879796981812, -1.0781707763671875, -0.19135694205760956], [1.0714901685714722, 0.2770947813987732, 1.470110535621643, 0.32233354449272156, -0.7616567611694336, -0.839328408241272, 1.8517940044403076, -0.6635286211967468], [0.8983091711997986, -1.2826790809631348, 0.9429571032524109, -0.8189326524734497, -0.34226953983306885, -1.591059923171997, 0.1907714605331421, 1.5742119550704956], [-1.0615793466567993, -0.12026090174913406, 0.022304248064756393, -1.02389395236969, 1.0715992450714111, 0.5138819217681885, -0.6343857645988464, 1.2441604137420654], [0.8964886665344238, -1.8381253480911255, 0.7590954303741455, 1.7858070135116577, -0.138911172747612, -0.6547709703445435, 0.4905698001384735, 0.05791275575757027], [-1.211637258529663, 1.1546247005462646, -1.2710429430007935, 0.7713620066642761, 1.5207173824310303, -0.2871687412261963, -1.0163240432739258, -0.12083777040243149], [-0.5364352464675903, -0.6566163301467896, 0.20143839716911316, -0.4214935600757599, -1.3504629135131836, 1.2463833093643188, 0.266470730304718, 0.8531110882759094], [-0.7456678748130798, -0.5424547791481018, 1.1172808408737183, 1.2690010070800781, -0.5311691164970398, 0.40232786536216736, -0.31755003333091736, -0.2143440544605255], [-1.222444772720337, -0.20686979591846466, -1.1714264154434204, 0.3148461580276489, 0.8544817566871643, 0.14110717177391052, 0.33016616106033325, -0.49288055300712585], [-0.6246475577354431, 0.5458914637565613, 1.1339378356933594, 0.37994468212127686, 0.9883264303207397, 1.6646748781204224, 1.64161217212677, -0.3709729015827179], [-0.12285543978214264, -1.9858015775680542, 0.33956480026245117, -2.2428078651428223, 1.1455104351043701, 0.07555925846099854, 2.0514774322509766, 0.4067625403404236], [-1.3780796527862549, 0.24324817955493927, -0.6817456483840942, -1.6439868211746216, -0.5999665260314941, 0.06372987478971481, -0.12517111003398895, -0.3209642171859741], [-1.263140320777893, 0.640616238117218, -2.3806817531585693, 0.3386209011077881, 2.394453763961792, 0.5557167530059814, -1.0487282276153564, 0.6063321232795715], [0.6800681352615356, 0.15699943900108337, -0.5252498388290405, 0.1548989862203598, 0.4995192289352417, 0.015308675356209278, 0.24745504558086395, -1.5995432138442993], [2.261472225189209, -1.037347674369812, 0.5600117444992065, -0.6316220164299011, -1.0659440755844116, 0.7230566143989563, 0.26612651348114014, -0.4407559931278229], [0.5443310141563416, -0.10614177584648132, 1.0942353010177612, 2.556436777114868, -0.022030044347047806, -1.853308081626892, 1.1103688478469849, 2.432276964187622], [-0.4312746524810791, 1.238283395767212, -1.114580512046814, -0.6148683428764343, 0.007748381234705448, 1.5093252658843994, -1.0849223136901855, -1.4431796073913574], [-1.7006511688232422, 1.6425124406814575, 0.7128486037254333, 1.0093746185302734, -0.23511694371700287, 0.025275185704231262, -0.9448363184928894, -0.2168036699295044], [1.0195852518081665, 1.0034033060073853, 0.23272959887981415, -0.288804292678833, 1.1119242906570435, -2.005244493484497, 0.9559786319732666, 0.4460761547088623], [0.6688598990440369, -1.8496778011322021, -0.8981682658195496, -1.8198574781417847, 1.5408786535263062, -0.22658120095729828, -0.12078481912612915, -0.224418044090271], [0.6312727332115173, 1.2055070400238037, 0.661880373954773, -1.6232306957244873, -0.6556453108787537, -1.7727932929992676, 0.23694133758544922, 1.0135279893875122], [-0.11987096071243286, 1.0359467267990112, -0.39349719882011414, -0.4082108438014984, -0.9416330456733704, -0.7881067395210266, 0.14762337505817413, 1.8994921445846558], [-1.8166285753250122, 1.0867328643798828, 1.074092984199524, 0.4065006971359253, 0.23467643558979034, 1.2446682453155518, 0.2893904447555542, -0.21177631616592407], [0.5446040630340576, -0.6431612372398376, 1.3162988424301147, 1.0178372859954834, 1.0349329710006714, -0.41859710216522217, -0.0019341909792274237, -0.19638602435588837], [0.718244731426239, -0.014253310859203339, 0.550400972366333, 0.5944002270698547, 0.23105056583881378, -2.1495070457458496, 0.6055557131767273, -1.6352488994598389], [0.027401821687817574, -0.15426556766033173, -0.43096083402633667, -1.5526883602142334, -0.2651190459728241, -0.38307347893714905, -1.2151542901992798, -0.16063188016414642], [-1.2615628242492676, -0.7224791646003723, 0.6933026313781738, 1.3916075229644775, -1.329063057899475, -1.8535979986190796, 0.33257147669792175, -1.5811970233917236], [-0.41451194882392883, -1.7112841606140137, 0.3645228147506714, -0.5803453326225281, -0.7104259133338928, -0.27301856875419617, 0.8717840909957886, 0.21581946313381195], [0.48090869188308716, 0.18929052352905273, 1.1354525089263916, -0.6747645735740662, 0.07306801527738571, -0.6391788721084595, -1.2798372507095337, 0.8491536378860474], [0.007477727252990007, -0.9981235861778259, 0.3358858823776245, -0.403655469417572, -0.821302056312561, -0.4428616166114807, 0.0054522850550711155, 0.5888067483901978], [-1.253650426864624, -1.1785379648208618, -0.1834365874528885, 0.33067959547042847, 1.1989246606826782, 0.9686306715011597, 1.0112489461898804, 0.1139822006225586], [1.2226921319961548, -0.12100958079099655, -0.22155585885047913, 0.04369707778096199, -0.716489851474762, -0.32763156294822693, 0.500879168510437, -0.3593980073928833], [-2.5865397453308105, -0.34503740072250366, 2.544426918029785, -0.6737848520278931, 0.3779611587524414, -0.6636177897453308, -0.5190923810005188, 1.3944073915481567], [-0.044672053307294846, -0.931537389755249, 0.5773400068283081, 0.4498053789138794, -0.786314845085144, -0.8587967753410339, 2.7657532691955566, 0.10762724280357361], [-0.9924269914627075, -0.2869058847427368, 0.631313145160675, 0.011147896759212017, 0.2315295934677124, 0.2862292230129242, -1.890141487121582, 0.6420553922653198], [1.2291969060897827, -0.31538885831832886, -0.41747066378593445, -0.5884386301040649, -0.02603708766400814, 0.16621097922325134, -0.6012223958969116, -0.3421604633331299], [-0.7063356041908264, -0.5264231562614441, -1.7349636554718018, 1.0374319553375244, 0.6910611987113953, 0.8735538721084595, -1.444889783859253, -0.01970100775361061], [0.6072882413864136, 0.01381341926753521, -1.2258875370025635, -0.7648856043815613, 1.061708927154541, 0.4146297574043274, -1.3748033046722412, -2.261307716369629], [0.2898170053958893, 2.417437791824341, -0.14138725399971008, -0.5056918263435364, 0.9609171152114868, 0.62253338098526, -0.04058430343866348, 0.8444993495941162], [-0.055251237004995346, 0.0028027333319187164, 0.17707571387290955, 0.8710139989852905, 0.5598982572555542, -0.1362670511007309, -1.2820724248886108, -0.487126886844635], [1.1743773221969604, 1.4991941452026367, -1.4990012645721436, 0.7639253735542297, -1.3458048105239868, -1.1471682786941528, -0.668298065662384, 2.0411791801452637], [-0.6875163912773132, 0.02639368176460266, -0.5339344143867493, -2.154031991958618, 0.6358048915863037, 0.12825366854667664, 0.06938871741294861, -1.217705488204956], [-0.5767040252685547, 1.2200424671173096, 0.31821900606155396, 1.762829303741455, -0.10457929968833923, -0.1784597486257553, -0.9445677399635315, -0.11059433221817017], [0.18187622725963593, -0.5929427742958069, 1.3379782438278198, 0.0005002303514629602, 1.3435239791870117, 0.06885890662670135, 0.5825276374816895, -0.2788130044937134], [-1.7109389305114746, -0.3980962932109833, -0.8636013269424438, 0.4358479678630829, -2.060826301574707, -0.1200309693813324, 1.6478662490844727, -0.43743881583213806], [0.6254984140396118, 0.22348006069660187, 0.4134656488895416, 0.4606502950191498, -1.2107481956481934, 2.0981762409210205, 1.2834501266479492, -0.7751655578613281], [0.5115852952003479, 0.4737768769264221, -0.3144196569919586, 1.013727068901062, 0.9466888308525085, 1.4363527297973633, 2.0015013217926025, -0.8238790035247803], [0.790336012840271, 1.0012837648391724, 1.2646348476409912, -1.3689936399459839, -1.185941457748413, 0.15462468564510345, 1.6430716514587402, -1.1943469047546387], [-0.7311143279075623, 0.43238136172294617, 0.8247925639152527, 0.49046799540519714, 0.2528456151485443, -1.3795639276504517, -0.47770124673843384, -1.2634378671646118], [0.82403165102005, -0.1252153068780899, 0.5203903317451477, 1.2396389245986938, 1.0148789882659912, 0.10773695260286331, 0.32627296447753906, -0.21783314645290375], [-0.6239087581634521, 1.0202544927597046, -1.2706018686294556, 0.9538101553916931, 0.5882193446159363, -1.7214021682739258, -0.49107497930526733, -0.35014641284942627], [-0.7148823738098145, -0.47165605425834656, 0.5969873666763306, -0.7609029412269592, 2.138603925704956, -0.8454997539520264, 1.2529345750808716, 0.23851734399795532], [-0.6289101243019104, 0.582241952419281, 0.27575093507766724, -0.6341200470924377, 0.7379553914070129, 0.5317660570144653, 1.0017085075378418, -0.5475045442581177], [-0.34197452664375305, 0.6519966125488281, 1.0618637800216675, 0.5700409412384033, 1.4142295122146606, 2.1132328510284424, -0.17224697768688202, -0.9494116902351379], [-0.5017030835151672, -0.4086924195289612, -0.8340075016021729, 0.3498367965221405, 0.9626069664955139, 0.6966891288757324, 1.0983505249023438, 0.7023108005523682], [-0.844612181186676, -1.297832727432251, 0.2651803195476532, -0.20789781212806702, -0.1364971399307251, 0.11454261839389801, 2.0197274684906006, -1.1392356157302856], [0.45961248874664307, 1.5001028776168823, 0.38991880416870117, 0.40374335646629333, -0.4790639281272888, -0.5763979554176331, -2.323904275894165, -0.28545236587524414], [-0.3446652591228485, 0.3741280436515808, -2.54410719871521, 0.0667978972196579, -1.5597635507583618, -0.7791121006011963, -0.2569107413291931, -0.9566484093666077], [0.6760590672492981, 0.4967702031135559, -1.1787267923355103, 0.272588849067688, 0.19444894790649414, -0.7109894156455994, -2.410029649734497, 1.4611015319824219], [-0.000680144876241684, 0.33280423283576965, 0.10649324208498001, 0.6704586744308472, 0.26555734872817993, -0.011008934117853642, 0.4769531488418579, -0.08263614028692245], [-0.47436684370040894, -0.7907041907310486, -0.47785261273384094, 0.2585754692554474, 0.7202938795089722, 1.3153655529022217, 0.66810142993927, -0.8280128836631775], [1.6419692039489746, -1.3696054220199585, -0.1333233267068863, 0.6123214364051819, -2.772749185562134, 0.4360438287258148, 0.12461294233798981, 1.5179888010025024], [0.8796705603599548, 1.725515604019165, -0.5343523025512695, -0.5595963597297668, 0.7044053673744202, -0.20116198062896729, -0.552157461643219, -0.16300757229328156], [-0.38007304072380066, -0.2619936764240265, -0.5226048231124878, -0.42274418473243713, 0.0772174745798111, 1.6049801111221313, 1.2685400247573853, 0.1908181607723236], [0.36240431666374207, -1.1095906496047974, 0.15686744451522827, 0.6185000538825989, 1.4835309982299805, -0.26363199949264526, 0.918861985206604, 0.15021729469299316]], "phi_defender.0.weight": [[0.5886839032173157, -0.3235623240470886, 0.4406202435493469, 1.065897822380066], [-0.26907703280448914, 0.31397199630737305, -0.6865062713623047, 0.9556596875190735], [-1.1551486253738403, -0.28747692704200745, 0.10254465788602829, -0.9460140466690063], [-0.6164630651473999, 0.7720391750335693, -1.0146092176437378, -0.004218666348606348], [1.1196885108947754, -1.0562548637390137, 1.1961824893951416, 0.8277010917663574], [-0.35599902272224426, 0.6403368711471558, -0.08089111745357513, -0.4229182004928589], [0.7672300338745117, 0.1758691817522049, 0.3117692768573761, 1.0800801515579224], [-0.15252532064914703, -0.1358366757631302, -1.053443431854248, -1.083747386932373], [-0.5123147368431091, -0.7593942880630493, 1.0716025829315186, -0.3342280089855194], [-0.2505591809749603, 0.9697015285491943, -0.5196599960327148, 0.023145532235503197], [-1.1177839040756226, 0.9654223918914795, -1.141352891921997, 0.7709888219833374], [-0.10207716375589371, -0.526413083076477, -0.26249396800994873, -0.9433829188346863], [-0.44728994369506836, 0.8193963766098022, 0.9407344460487366, 0.6995148062705994], [-0.39950883388519287, -0.29853543639183044, 0.6278734803199768, -0.9974802136421204], [-1.0618396997451782, -1.1482106447219849, 1.2580201625823975, 0.7118459343910217], [-0.33399999141693115, -0.7895169854164124, 0.25524523854255676, 0.44099417328834534], [0.17916177213191986, 0.582263171672821, 0.2052932232618332, -0.2620393633842468], [0.29623520374298096, 0.7223833799362183, -0.23689894378185272, 0.3100387454032898], [-1.1720269918441772, -0.8973821401596069, -0.847851037979126, 0.7521756291389465], [-0.8394215106964111, 0.6171005368232727, 0.1037454903125763, 0.37204548716545105], [-0.7518636584281921, 0.966684103012085, -1.7178208827972412, -0.6874266862869263], [0.21120992302894592, 0.31515249609947205, 0.031849950551986694, -1.6364424228668213], [-0.6550254225730896, -0.6578474044799805, 1.3043453693389893, 0.4514843225479126], [0.8081835508346558, -0.4577431380748749, 0.7761778831481934, -0.46981191635131836], [0.21047045290470123, 0.34953993558883667, 1.149023413658142, 0.2695891559123993], [-0.08469419926404953, 0.9823158979415894, 0.8344115018844604, -0.7474681735038757], [-0.23041969537734985, 1.013731837272644, -0.2984922528266907, -0.5019239783287048], [-0.13270412385463715, 0.7307582497596741, -1.031747579574585, 0.7815199494361877], [0.22292326390743256, 0.6466169953346252, -1.0895826816558838, -0.049939218908548355], [1.040388822555542, -0.6322572827339172, -0.028132658451795578, -0.061035577207803726], [-0.5766939520835876, 1.239763617515564, -1.1749744415283203, 0.26405709981918335], [-0.4166375696659088, 1.0272712707519531, 0.8097519874572754, -1.0314159393310547]], "phi_defender.0.bias": [-0.01860451139509678, -0.05657760426402092, 0.0, 0.20470762252807617, 0.06810757517814636, -0.04573672637343407, -0.07326749712228775, 0.0, 0.22841179370880127, 0.008412500843405724, 0.25615164637565613, 0.0, -0.1337449699640274, 0.1340385377407074, 0.11366502940654755, 0.07451881468296051, -0.07448291033506393, -0.1715131551027298, 0.4540088176727295, 0.1268746256828308, -0.08000700175762177, 0.0299130380153656, 0.2298712432384491, 0.055578235536813736, -0.08127806335687637, -0.10087483376264572, -0.04235116019845009, 0.15370723605155945, 0.05007094889879227, -0.0023790819104760885, -0.22375823557376862, 0.11812064051628113], "phi_defender.2.weight": [[-0.05431348830461502, 0.3878038227558136, 0.03983283415436745, 0.20967377722263336, -0.3586764633655548, -0.1178993508219719, -0.4301489591598511, -0.31200212240219116, -0.3138089179992676, -0.07576370239257812, 0.053407613188028336, -0.42273837327957153, -0.15769349038600922, -0.004151490051299334, 0.42547962069511414, -0.12722991406917572, -0.28617531061172485, 0.07231398671865463, 0.03174478933215141, -0.0021590713877230883, -0.09342237561941147, -0.02540636993944645, 0.3291691839694977, -0.3424969017505646, 0.17315882444381714, -0.1919424682855606, 0.12364798039197922, -0.23018722236156464, -0.3405528962612152, 0.1822182834148407, 0.11928445845842361, 0.20632196962833405], [-0.18831822276115417, -0.24615910649299622, 0.3106251657009125, 0.3593142628669739, 0.27781856060028076, -0.26779240369796753, -0.24602967500686646, 0.03654784336686134, 0.011933384463191032, -0.0295637808740139, -0.1556355059146881, 0.15369994938373566, -0.052463188767433167, 0.11478471010923386, -0.3826446831226349, 0.03621393442153931, -0.19832828640937805, -0.379365473985672, -0.5784707069396973, 0.5781072378158569, -0.5313209891319275, -0.14761322736740112, -0.025175077840685844, 0.09705474227666855, 0.061200376600027084, -0.03429499268531799, 0.19192267954349518, -0.4341553747653961, 0.4601600766181946, 0.28190407156944275, -0.4031537175178528, 0.6410509347915649], [0.13947784900665283, 0.3494236469268799, 0.17305836081504822, -0.33486610651016235, 0.2288384735584259, -0.11007051169872284, 0.2239471673965454, 0.15551936626434326, -0.15208838880062103, -0.13833823800086975, 0.3475911617279053, -0.21106083691120148, 0.054729875177145004, -0.05891309678554535, 0.24408654868602753, -0.10797668993473053, -0.35244542360305786, 0.1382259875535965, -0.3486999273300171, 0.30076074600219727, -0.0682644322514534, -0.10370804369449615, 0.11665602773427963, -0.19558995962142944, 0.060882825404405594, 0.248183935880661, -0.6707715392112732, -0.05586283281445503, -0.4459708034992218, 0.1477183997631073, -0.3202667534351349, 0.19562295079231262], [0.06342627108097076, 0.3560117781162262, -0.2143075317144394, -0.010049132630228996, -0.36532118916511536, -0.4423220455646515, -0.07704366743564606, -0.3631993234157562, -0.13024312257766724, 0.25453031063079834, 0.0023775675799697638, -0.02920708805322647, 0.3925330340862274, -0.7311676144599915, 0.10083774477243423, -0.19734825193881989, 0.35485780239105225, 0.007808889728039503, 0.45173537731170654, -0.033208686858415604, -0.5239971280097961, -0.35830751061439514, -0.14026618003845215, -0.2894906997680664, 0.34279558062553406, 0.40747010707855225, -0.3297017216682434, -0.33929458260536194, 0.06520190834999084, -0.4079491198062897, -0.00014069840835873038, 0.16766327619552612], [0.14168253540992737, 0.05113440752029419, 0.1903700828552246, -0.2547253966331482, -0.15180237591266632, -0.15339477360248566, -0.44431886076927185, -0.24721132218837738, 0.05736352130770683, 0.102107472717762, -0.2009280025959015, 0.3007102608680725, -0.24972575902938843, 0.02381526306271553, 0.37401264905929565, 0.28649282455444336, 0.39629897475242615, 0.1077732965350151, -0.2991589605808258, -0.16012005507946014, -0.12425071746110916, -0.32004889845848083, -0.16219832003116608, -0.41797998547554016, -0.216909721493721, -0.4444551169872284, 0.41067102551460266, 0.05569225549697876, 0.3999146819114685, 0.2345881164073944, 0.41195663809776306, -0.14142653346061707], [-0.2232666313648224, -0.11431708186864853, -0.39660370349884033, 0.04917285963892937, 0.03424730524420738, 0.3318215608596802, -0.10258637368679047, 0.14027856290340424, -0.0647626519203186, 0.06550173461437225, 0.08324223011732101, -0.1645016223192215, 0.22706280648708344, -0.5735870003700256, -0.03234338387846947, 0.1104142814874649, 0.21835696697235107, 0.16832469403743744, -0.4735158681869507, 0.2845207750797272, 0.26282191276550293, -0.175561785697937, -0.14308029413223267, 0.22001369297504425, 0.3525383472442627, -0.1600303202867508, -0.0299051683396101, -0.06287991255521774, -0.1734040379524231, 0.15689419209957123, 0.19845326244831085, -0.24448978900909424], [0.08573739230632782, 0.46211159229278564, -0.30281949043273926, -0.13528557121753693, -0.3924992084503174, -0.02362678200006485, 0.3964831531047821, 0.2816307544708252, -0.5678181052207947, -0.4175492525100708, 0.044447991997003555, -0.04952515289187431, 0.30281925201416016, -0.09424881637096405, 0.2359628677368164, -0.467257559299469, -0.09807351231575012, -0.02257356233894825, -1.0237598419189453, -0.029177406802773476, 0.218002051115036, -0.04169277474284172, -0.3247157633304596, 0.018286699429154396, 0.38688725233078003, 0.14019769430160522, -0.5926768779754639, -0.23934854567050934, 0.30216270685195923, -0.15168747305870056, -0.05348563566803932, -0.18711788952350616], [0.1480095386505127, -0.28957676887512207, -0.41042736172676086, 0.025467120110988617, -0.42531734704971313, -0.012120128609240055, 0.005361143033951521, -0.13705886900424957, 0.47365495562553406, 0.1970982402563095, 0.3634619414806366, 0.22583314776420593, 0.08716592192649841, 0.24305488169193268, 0.5286405682563782, 0.06883620470762253, 0.2779742181301117, -0.13533616065979004, -0.052492715418338776, 0.17670923471450806, -0.8716768622398376, -0.11536889523267746, 0.4119325876235962, 0.35899221897125244, 0.048002976924180984, -0.09227970242500305, 0.09697028249502182, -0.19014188647270203, -0.33756932616233826, 0.02071353606879711, 0.5317597985267639, 0.01917634904384613], [-0.25443434715270996, -0.1821778416633606, 0.11972924321889877, 0.40661755204200745, 0.17940965294837952, 0.5719172358512878, 0.3498460054397583, -0.21296490728855133, 0.13838237524032593, -0.28716838359832764, -0.13446961343288422, 0.16759824752807617, 0.13396035134792328, 0.42136669158935547, 0.42460495233535767, 0.5777376890182495, -0.1790625900030136, -0.06761041283607483, 0.6456714868545532, 0.21089787781238556, -1.0762150287628174, 0.3700762987136841, 0.05417853221297264, 0.2035542130470276, 0.4082178473472595, 0.3715307414531708, 0.05209946259856224, 0.11606442928314209, -0.285086065530777, 0.03723374381661415, 0.18935592472553253, 0.11078178137540817], [0.409332811832428, -0.30823197960853577, 0.3985080420970917, 0.31650859117507935, -0.17648962140083313, 0.2910856306552887, -0.0413820743560791, 0.2715194821357727, 0.31656503677368164, 0.30100446939468384, -0.11280805617570877, 0.34961429238319397, -0.009382962249219418, 0.3602668344974518, -0.004666638094931841, -0.5293187499046326, 0.4065225422382355, 0.2472284436225891, -0.15358556807041168, -0.33661743998527527, -0.34301289916038513, -0.3091356158256531, -0.4746282994747162, -0.1361302137374878, -0.05633382126688957, 0.5028263330459595, 0.11931274831295013, -0.28382694721221924, 0.5769365429878235, -0.17914646863937378, 0.061428721994161606, 0.04567721113562584], [-0.0664760172367096, -0.23817582428455353, -0.34437116980552673, -0.4084876775741577, -0.1987287402153015, 0.21968290209770203, 0.023800456896424294, 0.34517523646354675, 0.04103768616914749, -0.21547286212444305, 0.07178709656000137, -0.1109471246600151, 0.24548055231571198, 0.783406138420105, 0.38293972611427307, -0.5166605710983276, -0.20044448971748352, -0.3699096441268921, 0.04994380474090576, -0.34782925248146057, 0.574399471282959, 0.9144802689552307, -0.1822546422481537, 0.21031294763088226, 0.27505746483802795, 0.3221838176250458, 0.46702882647514343, 0.2814054787158966, 0.07971014082431793, 0.3503899574279785, 0.6751479506492615, -0.2798384130001068], [0.08195888996124268, 0.3617895841598511, -0.29274439811706543, 0.31540927290916443, 0.26311808824539185, 0.07420866936445236, -0.1423131376504898, -0.035811085253953934, 0.46417295932769775, -0.36623415350914, 0.255603551864624, -0.23438990116119385, 0.28858932852745056, 0.11336865276098251, 0.24715901911258698, 0.4809432029724121, -0.12095832824707031, -0.10891339182853699, 0.3173605501651764, 0.4643877446651459, 0.11356578767299652, -0.44210904836654663, 0.08342085033655167, -0.2936367988586426, 0.2761804759502411, 0.13908936083316803, 0.1323544830083847, -0.29265353083610535, -0.11798816174268723, 0.06142689287662506, 0.04124251380562782, -0.17875231802463531], [0.05503707751631737, -0.0844917893409729, 0.4102443754673004, -0.25178876519203186, -0.09206279367208481, -0.23310694098472595, 0.30138808488845825, -0.15594296157360077, -0.17024177312850952, 0.37399575114250183, -0.2727311849594116, -0.1446397602558136, 0.32756999135017395, 0.4749029874801636, -0.1848893016576767, -0.40951648354530334, -0.22969767451286316, 0.06814984977245331, -0.4055408835411072, 0.35262247920036316, 0.3592979311943054, 1.2231578826904297, -0.15214882791042328, -0.3218080699443817, 0.20200537145137787, -0.04333651065826416, -0.5398831367492676, 0.11340802907943726, 0.5833808779716492, -0.04947208985686302, -0.33556461334228516, 0.1947745531797409], [0.32198968529701233, -0.2767161428928375, -0.37872856855392456, -0.30982011556625366, 0.17803552746772766, -0.17771126329898834, -0.4253530204296112, -0.031073221936821938, -0.22000302374362946, -0.12817692756652832, -0.17089945077896118, -0.1452980637550354, -0.2819359302520752, -0.08792653679847717, -0.2728925049304962, -0.057222601026296616, -0.26978766918182373, 0.028390420600771904, 0.3070375919342041, -0.176299586892128, -0.05693637207150459, -0.07364078611135483, -0.14332352578639984, -0.29995420575141907, 0.10967770963907242, -0.03676020726561546, 0.022279489785432816, -0.1113099530339241, -0.27569177746772766, -0.15795667469501495, 0.22264736890792847, 0.2997751235961914], [-0.11172450333833694, 0.4125828742980957, -0.24836376309394836, -0.025428805500268936, -0.4158651828765869, 0.41611218452453613, 0.14307987689971924, 0.26398083567619324, 0.7668986916542053, 0.25609123706817627, 0.0496789813041687, 0.4259026348590851, -0.2955729365348816, -0.18101060390472412, 0.36269620060920715, 0.6542827486991882, 0.05127101019024849, 0.4329953193664551, 0.22462405264377594, 0.25815674662590027, 0.17067794501781464, 0.13884489238262177, -0.06714563071727753, -0.2958802282810211, 0.06771373003721237, 0.021733757108449936, 0.5430349707603455, 0.41469767689704895, 0.06852802634239197, 0.13116878271102905, 0.5782386064529419, -0.10416470468044281], [-0.322183758020401, -0.4961020052433014, 0.0417603962123394, -0.12426990270614624, 0.38530388474464417, -0.041865117847919464, 0.11288740485906601, -0.20919357240200043, 0.4225294589996338, 0.018463075160980225, 0.2467540204524994, 0.117494136095047, -0.07543522864580154, -0.4108377993106842, -0.259565532207489, -0.4518965482711792, -0.05467661842703819, -0.1712934970855713, 0.7591749429702759, 0.41699108481407166, -0.5122818350791931, -0.33614540100097656, -0.4079081118106842, 0.2038949728012085, 0.32117322087287903, -0.23080530762672424, -0.11502783745527267, -0.11578522622585297, 0.09296192228794098, 0.31074658036231995, -0.29567989706993103, 0.06408746540546417], [-0.34843605756759644, 0.4269286096096039, 0.18917778134346008, -0.21000158786773682, 0.17389246821403503, -0.03252692148089409, -0.26538360118865967, -0.41852015256881714, 0.4543241560459137, -0.2481304407119751, 0.42072826623916626, -0.1293157935142517, 0.2242777943611145, 0.06698262691497803, 0.4188021123409271, -0.0962698683142662, 0.24096450209617615, 0.12356660515069962, 0.4338644742965698, -0.08355820924043655, -0.012491333298385143, 0.292778879404068, 0.2975025773048401, -0.13218453526496887, -0.024479111656546593, -0.07839465886354446, -0.3071717917919159, 0.22693440318107605, 0.8676382303237915, 0.3525005280971527, -0.18440596759319305, 0.2962777316570282], [0.42295801639556885, 0.12087958306074142, 0.38201478123664856, -0.18340229988098145, -0.08972945809364319, 0.07666321843862534, 0.10967013984918594, 0.12720033526420593, -0.4726528823375702, -0.3252814710140228, -0.6074230074882507, -0.27908965945243835, 0.2464694082736969, -0.3864327669143677, -0.5401499271392822, 0.24229395389556885, -0.3854750692844391, 0.09423594921827316, 0.47645777463912964, -0.32570523023605347, -0.1143474131822586, 0.6604735255241394, 0.28287091851234436, 0.29916632175445557, -0.08460594713687897, 0.2253265231847763, 0.3174068033695221, 0.007102261297404766, 0.4867381751537323, 0.14149370789527893, 0.13213053345680237, -0.3080184757709503], [0.09296984225511551, -0.4445510804653168, 0.0723554715514183, -0.10912376642227173, 0.2200746089220047, 0.39599114656448364, -0.2340531051158905, 0.25748172402381897, -0.6267299056053162, 0.3678115904331207, 0.05339037626981735, -0.06647124886512756, 0.11720950901508331, -0.26483801007270813, -0.4132719039916992, 0.08570762723684311, 0.08491526544094086, 0.362108439207077, 0.0075166975148022175, 0.047677893191576004, 0.03695365786552429, 0.48479339480400085, -0.20396669209003448, 0.16788671910762787, 0.22185122966766357, -0.05523045361042023, -0.1027902215719223, 0.22958190739154816, 0.2829495966434479, -0.15821592509746552, -0.0062282816506922245, -0.033581532537937164], [-0.17843466997146606, 0.4370175004005432, 0.17429113388061523, 0.23177975416183472, 0.29197895526885986, 0.35365524888038635, 0.2567516565322876, 0.1927616000175476, -0.3238147795200348, -0.2119026482105255, 0.6553940176963806, 0.131766676902771, 0.049695827066898346, -0.04301837459206581, -0.0332983173429966, 0.23937514424324036, 0.24336086213588715, -0.11929159611463547, 0.8502007722854614, -0.3574957251548767, 0.6010806560516357, 1.0710062980651855, -0.36161404848098755, 0.07163713127374649, -0.1410805583000183, 0.11415095627307892, -0.3833933472633362, -0.2920133173465729, 0.11703970283269882, 0.31070125102996826, -0.06926438212394714, -0.4064125716686249], [-0.10487344861030579, -0.2092486321926117, 0.3599873483181, -0.05744920298457146, 0.1834436058998108, 0.7939738631248474, -0.3239668607711792, 0.16629822552204132, 0.14426805078983307, 0.41246363520622253, -0.16558121144771576, 0.1270068734884262, -0.41801828145980835, 0.4057897627353668, -0.2955581843852997, 0.48718908429145813, -0.30348390340805054, 0.04944861680269241, 0.40848803520202637, 0.24103564023971558, -0.24929195642471313, 0.3351723551750183, 0.48269423842430115, 0.11334319412708282, 0.3987506926059723, 0.3676602244377136, 0.3917793333530426, 0.0849001407623291, -0.26190271973609924, 0.11642923206090927, -0.2776709496974945, -0.030663510784506798], [-0.23570479452610016, -0.2549101710319519, -0.275820255279541, -0.18471035361289978, 0.0755259171128273, -0.012983502820134163, 0.1948864907026291, 0.18953421711921692, -0.12160162627696991, 0.3054269552230835, -0.30126067996025085, -0.24530476331710815, 0.41918227076530457, 0.20854637026786804, 0.20956507325172424, -0.40753886103630066, 0.31372252106666565, -0.35457777976989746, 0.0654916763305664, -0.21806927025318146, 0.16368576884269714, -0.24125900864601135, -0.3710484206676483, -0.39010587334632874, -0.3320620357990265, -0.1619964838027954, 0.014195313677191734, -0.1528899371623993, -0.1440475881099701, 0.0755825936794281, 0.36522114276885986, -0.13317649066448212], [0.4263074994087219, 0.03367207199335098, 0.34509333968162537, -0.09821318835020065, -0.13961517810821533, -0.18742527067661285, -0.021994857117533684, -0.27382582426071167, 0.21398495137691498, -0.21694155037403107, 0.11935972422361374, -0.4123280346393585, -0.3458881974220276, -0.050976790487766266, -0.6730244159698486, -0.39217957854270935, 0.02147762104868889, -0.04630956053733826, -1.0712268352508545, -0.050160668790340424, 0.26487281918525696, 0.4398525655269623, -0.6492287516593933, -0.2526211440563202, -0.35424351692199707, -0.026491042226552963, -0.22121231257915497, 0.5430945754051208, 0.5573694109916687, 0.42453834414482117, -0.04503650590777397, 0.05189600959420204], [-0.1937582641839981, -0.05323796346783638, 0.33149978518486023, -0.23023167252540588, -0.10458439588546753, 0.04848084598779678, 0.1409233957529068, -0.06024954468011856, -0.3425680696964264, -0.10274236649274826, 0.16901132464408875, -0.33717045187950134, -0.35781130194664, -0.13281820714473724, 0.09478791058063507, -0.15384355187416077, 0.14090701937675476, 0.059544481337070465, 0.3231649398803711, -0.041773248463869095, -0.23543667793273926, -0.1457526683807373, -0.33324265480041504, -0.15568242967128754, -0.21368882060050964, -0.3454180657863617, -0.4100501239299774, -0.37313786149024963, 0.1908412128686905, -0.18182633817195892, 0.36213091015815735, -0.18406784534454346], [0.18405629694461823, -0.35390621423721313, 0.41367921233177185, 0.15341587364673615, 0.043142955750226974, 0.4686642289161682, 0.09652367979288101, -0.16969265043735504, 0.10328494012355804, -0.18181979656219482, 0.09903981536626816, 0.4150961935520172, 0.4492453932762146, 0.3107403516769409, -0.05168699473142624, 0.4216497540473938, -0.29873257875442505, 0.11996249854564667, 0.6868847608566284, 0.4136289656162262, -0.10839390009641647, 0.49867817759513855, -0.05897972360253334, 0.34645551443099976, -0.42704108357429504, -0.24672000110149384, 0.31978532671928406, -0.4540916383266449, -0.12088693678379059, -0.41019296646118164, 0.3119427263736725, 0.3952176570892334], [-0.04562770947813988, 0.18395008146762848, 0.21445345878601074, 0.4912814199924469, 0.04507080093026161, -0.03649109601974487, -0.4074307978153229, 0.1734141707420349, -0.005954362917691469, 0.37329208850860596, 0.08553961664438248, -0.21921929717063904, -0.16462919116020203, 0.07373238354921341, 0.1976253241300583, 0.4377795159816742, -0.22124886512756348, -0.31468603014945984, -0.40983542799949646, 0.2120930552482605, 0.015623243525624275, -0.2122199833393097, 0.61900395154953, -0.2646215856075287, 0.37603604793548584, 0.25487422943115234, 0.1879149228334427, 0.24349021911621094, 0.05643637850880623, -0.01534192357212305, -0.11640599370002747, 0.17314481735229492], [0.23673874139785767, 0.300130695104599, -0.16104793548583984, 0.28550034761428833, 0.30445584654808044, 0.008828370831906796, 0.30825623869895935, -0.09197177737951279, -0.09151808172464371, 0.363049179315567, 0.22126933932304382, -0.39336785674095154, -0.19974669814109802, -0.1313074827194214, 0.3389393091201782, 0.2865559458732605, -0.3354077935218811, 0.1137700229883194, 0.5180507302284241, -0.015600473619997501, 0.37290337681770325, -0.7721323370933533, 0.0007901114877313375, -0.17500373721122742, -0.19013352692127228, -0.19911876320838928, -0.2342485785484314, -0.43516963720321655, -0.21550138294696808, 0.39943063259124756, -0.19857317209243774, 0.014724812470376492], [-0.12680751085281372, -0.22855673730373383, 0.10698328912258148, -0.09576977789402008, 0.19535492360591888, 0.6880254745483398, 0.11815562099218369, -0.2174401879310608, -0.07436064630746841, 0.15749548375606537, 0.3576646149158478, -0.2347629964351654, 0.2298433482646942, -0.001571911503560841, 0.6414019465446472, 0.20582839846611023, 0.34371405839920044, 0.17069539427757263, 0.4414222240447998, 0.06596207618713379, 0.04301930218935013, -0.13351044058799744, -0.031415048986673355, -0.07888946682214737, 0.13027480244636536, 0.4001992642879486, 0.48468464612960815, -0.3108503222465515, -0.43697279691696167, 0.2878302037715912, -0.14240553975105286, -0.16788224875926971], [0.09426458925008774, -0.052362266927957535, -0.3134026527404785, 0.6776483058929443, -0.40982240438461304, -0.20722068846225739, 0.20050883293151855, -0.06283901631832123, 0.3078688383102417, 0.12378489971160889, 0.09672367572784424, -0.08363755792379379, 0.09481359273195267, -0.10029523819684982, -0.145714670419693, 0.5549589991569519, -0.32830771803855896, -0.0999453216791153, -0.5258806347846985, 0.33989718556404114, -0.7617146372795105, 0.41229569911956787, -0.3275047838687897, 0.09097691625356674, 0.2104916274547577, -0.46884486079216003, -0.012581299990415573, 0.23808152973651886, 0.9400255084037781, 