{"kind": "dqn", "checkpoint": "results_v9/pbrs_dqn_nodist/dqn_weights.pth", "num_players": 450, "embed_dim": 8, "continuous_dim": 73, "state_dim": 78, "action_dim": 5, "state_dict_keys": ["player_embedding.weight", "phi_defender.0.weight", "phi_defender.0.bias", "phi_defender.2.weight", "phi_defender.2.bias", "phi_teammate.0.weight", "phi_teammate.0.bias", "phi_teammate.2.weight", "phi_teammate.2.bias", "shoot_head.0.weight", "shoot_head.0.bias", "shoot_head.2.weight", "shoot_head.2.bias", "shoot_head.4.weight", "shoot_head.4.bias", "pass_head.0.weight", "pass_head.0.bias", "pass_head.2.weight", "pass_head.2.bias", "pass_head.4.weight", "pass_head.4.bias"], "shapes": {"player_embedding.weight": [450, 8], "phi_defender.0.weight": [32, 4], "phi_defender.0.bias": [32], "phi_defender.2.weight": [32, 32], "phi_defender.2.bias": [32], "phi_teammate.0.weight": [32, 18], "phi_teammate.0.bias": [32], "phi_teammate.2.weight": [32, 32], "phi_teammate.2.bias": [32], "shoot_head.0.weight": [64, 53], "shoot_head.0.bias": [64], "shoot_head.2.weight": [32, 64], "shoot_head.2.bias": [32], "shoot_head.4.weight": [1, 32], "shoot_head.4.bias": [1], "pass_head.0.weight": [64, 85], "pass_head.0.bias": [64], "pass_head.2.weight": [16, 64], "pass_head.2.bias": [16], "pass_head.4.weight": [1, 16], "pass_head.4.bias": [1]}, "tensors": {"player_embedding.weight": [[1.9269150495529175, 1.4872841835021973, 0.9007171988487244, -2.1055214405059814, 0.6784184575080872, -1.2345449924468994, -0.043067481368780136, -1.6046669483184814], [-0.5153260827064514, 1.7507014274597168, -0.49691569805145264, -1.5523828268051147, -0.5341065526008606, -0.2762356996536255, -0.7304618954658508, 0.5783748030662537], [1.3808194398880005, 0.04205647483468056, -0.36637771129608154, 0.3065381348133087, -0.9684041738510132, 0.9876351356506348, 0.6727152466773987, 1.799389362335205], [1.3419667482376099, 1.2903554439544678, 0.19695894420146942, 1.2995516061782837, -0.3298448324203491, 0.13411229848861694, -0.4514206349849701, 0.9906054139137268], [-1.4858475923538208, -0.7224128842353821, -0.04050680249929428, 1.415825366973877, 0.24565918743610382, -0.46632763743400574, 0.3263149559497833, -0.6878326535224915], [-1.4740869998931885, 1.051430344581604, -1.0377384424209595, -0.6481223106384277, -0.8936943411827087, 1.7894783020019531, -0.9962214827537537, -0.7008061408996582], [-0.9683752059936523, -0.42540156841278076, -0.2328779399394989, 0.6488274931907654, -0.40294963121414185, 1.2289925813674927, -0.5146713256835938, -0.4485734701156616], [-1.2446929216384888, -0.16871756315231323, 0.11337349563837051, 0.6445669531822205, -0.11983738094568253, 1.8135836124420166, -1.094460368156433, 1.3926630020141602], [1.5264806747436523, 0.638437807559967, 1.8506580591201782, 0.4815572500228882, 0.3883993327617645, -0.29396355152130127, -1.0354654788970947, 1.2189069986343384], [-0.06204966455698013, 0.1935010552406311, -0.20839086174964905, 0.6015041470527649, 0.480441689491272, -0.39890366792678833, -1.9712518453598022, -0.5174586772918701], [0.035010240972042084, -0.2369583249092102, -1.3848655223846436, -0.335174024105072, 0.6918894648551941, 0.25988540053367615, 0.8127955794334412, 0.23349609971046448], [0.5613666772842407, -0.349210649728775, -1.2576508522033691, 0.2999100983142853, -1.6744321584701538, -0.7466589212417603, 1.4746005535125732, 0.5442622900009155], [-2.5473501682281494, 0.5648778080940247, 0.9444471597671509, 0.05517730861902237, 0.37233084440231323, 0.4508003890514374, 1.0493719577789307, -0.32576656341552734], [-0.060113754123449326, 0.9981159567832947, 0.4787360429763794, 0.33725297451019287, 0.3549473285675049, 1.3064459562301636, 0.25354135036468506, -0.03363142907619476], [-1.1435056924819946, 0.016503959894180298, -0.46975940465927124, 0.4484018385410309, 0.6548210382461548, 0.07825905084609985, -0.2557666003704071, 0.6205937266349792], [-0.0781874805688858, 0.09118719398975372, 0.20994427800178528, 0.6511357426643372, 1.1402654647827148, 0.25442415475845337, 0.9541695713996887, 0.29017317295074463], [1.888013243675232, 1.0815238952636719, -1.4360688924789429, -1.4133243560791016, -0.06693471968173981, 1.6197855472564697, 0.6749993562698364, 0.4185654819011688], [1.094520926475525, -0.1072692722082138, -1.8217923641204834, 0.9491286277770996, -0.400459349155426, 1.0062246322631836, -0.6429590582847595, 0.49610015749931335], [-1.0565801858901978, 0.8401266932487488, 1.525304913520813, 1.109857201576233, 0.36448562145233154, -0.24714869260787964, -0.6175069808959961, 0.3029605448246002], [0.43563687801361084, 0.9097038507461548, -0.38862863183021545, 1.3726996183395386, -2.562413215637207, -0.3348110616207123, -1.2753313779830933, 0.7283989191055298], [-1.7348747253417969, 0.20835073292255402, -0.07230257987976074, -0.21319670975208282, 0.5430371761322021, -1.15453040599823, 0.09564805030822754, -1.112964391708374], [-1.534106969833374, 1.3683072328567505, 1.565395712852478, -0.33488354086875916, -1.635902762413025, 0.70367032289505, 0.7354960441589355, 2.0687265396118164], [-0.05611005052924156, -0.10116644948720932, -0.5595498085021973, -0.0026986422017216682, -0.9445846080780029, -1.4919852018356323, -1.1159777641296387, -0.6322183609008789], [-0.5555790662765503, -1.3773486614227295, -2.022599935531616, 0.11597466468811035, 1.3047478199005127, -0.4834520220756531, 0.44804805517196655, 0.8107060790061951], [1.9319037199020386, -0.708391547203064, 0.8775272369384766, -0.7318622469902039, -1.2329487800598145, 0.4156786799430847, 0.059644099324941635, 1.3091000318527222], [0.5899772047996521, 1.9034032821655273, -0.7315270900726318, -0.8668529987335205, 0.3668835461139679, 1.0327937602996826, 1.2161420583724976, 0.29289478063583374], [-0.7973016500473022, -1.258053183555603, -0.4853118658065796, -0.3876652121543884, -0.1166430190205574, 0.5528408885002136, -0.249909907579422, -2.2737717628479004], [-0.3172721266746521, 0.9731918573379517, -1.5414793491363525, 1.458437442779541, 0.23343542218208313, -0.028191501274704933, 1.0832282304763794, 1.3523720502853394], [-0.1640833169221878, 1.8486248254776, -0.10604780912399292, -0.871607780456543, -0.6359261870384216, 0.12321151793003082, 0.4543527364730835, 2.1014809608459473], [-0.018238913267850876, -1.0037051439285278, -2.149627208709717, -1.2308038473129272, 0.03542577475309372, 0.0452045239508152, 0.3868226408958435, 0.4059200584888458], [-0.9349669814109802, 0.1851968765258789, -0.5809096097946167, 0.46737948060035706, -0.7825273275375366, -0.027681682258844376, -0.3642406165599823, 1.2781769037246704], [1.117477297782898, -0.8881240487098694, 0.5851508975028992, 0.7187207341194153, 0.5034076571464539, 0.7437934875488281, 0.2722052335739136, 0.349237859249115], [-0.9674741625785828, 0.5736749768257141, -1.473976969718933, -1.5168747901916504, -1.662783145904541, 0.4814569354057312, -0.24665629863739014, 0.7271610498428345], [-1.4578518867492676, 0.20602832734584808, 0.5287505984306335, 0.06254145503044128, 1.1087592840194702, 0.4337790906429291, -1.7409039735794067, -0.12243068963289261], [-1.4634350538253784, 0.6529977321624756, -2.5433077812194824, 0.17124870419502258, -0.20965524017810822, -0.46173927187919617, 1.4282636642456055, -0.009148121811449528], [1.2246195077896118, 1.6823203563690186, 0.660066545009613, 0.8148638606071472, 0.711936891078949, 1.1012221574783325, 0.18808387219905853, -0.12948770821094513], [0.8749096989631653, -0.8352964520454407, -0.3760303854942322, -0.297713041305542, -0.314780056476593, -0.23666466772556305, -0.7912585735321045, 0.03319011628627777], [1.9865174293518066, 0.15966807305812836, 0.7892396450042725, 0.5379764437675476, -0.3293801248073578, 0.1044173613190651, 1.0870705842971802, 0.8280782103538513], [0.36811020970344543, -0.9147735238075256, 0.850615918636322, -0.8524057269096375, 0.35007432103157043, 1.1839648485183716, -2.2190980911254883, -0.9602413773536682], [0.28329727053642273, -2.222226142883301, -0.2779437303543091, -1.1378618478775024, -0.5637110471725464, -0.03203299269080162, 0.988954484462738, -0.9450497627258301], [0.5140933394432068, -0.5806027054786682, 0.9320647120475769, -1.3514546155929565, 0.7694427371025085, 0.18644852936267853, 0.14864562451839447, -0.18772418797016144], [0.6854485869407654, 0.515172004699707, -1.5747089385986328, -0.9703583121299744, 0.48296400904655457, 0.15249484777450562, -0.3913692235946655, -0.31723564863204956], [1.1583722829818726, 0.1014789268374443, 0.9862574338912964, -0.12215868383646011, 0.7560049295425415, -0.6237881779670715, -0.30477431416511536, 0.18709403276443481], [0.80592942237854, 1.4929903745651245, -0.19306930899620056, 1.1152467727661133, 0.8586995601654053, -0.5821859240531921, -0.5633513331413269, -0.24898898601531982], [-0.6579028964042664, 0.39380618929862976, 0.20750020444393158, -1.3075703382492065, -0.36685630679130554, -0.9832823276519775, -0.6167498826980591, 1.887845516204834], [1.8722352981567383, 1.506135106086731, -0.13107962906360626, -0.21301497519016266, -1.6414158344268799, -0.7194758057594299, -0.19142292439937592, 2.045058250427246], [-0.15554219484329224, 0.21393565833568573, 2.028123378753662, 1.5878411531448364, 0.4286286532878876, 0.7470877766609192, -0.24144582450389862, 0.8542191386222839], [0.14824332296848297, -1.4163422584533691, -1.218845248222351, 0.2605302333831787, -0.3949131667613983, 0.9925217032432556, -0.4574320316314697, -0.32943961024284363], [0.939026951789856, -0.4631892740726471, -0.09526148438453674, 0.3724365532398224, 1.321697473526001, -0.7522504925727844, -0.4571531116962433, -0.5329595804214478], [-0.9008879661560059, -2.2280490398406982, -0.4437185525894165, 0.9520010352134705, 1.0133037567138672, 0.032258760184049606, -0.6750195622444153, 1.2488638162612915], [0.23520790040493011, -1.1302871704101562, -0.9150316715240479, -0.18502774834632874, 0.9386590719223022, 0.09239952266216278, 0.16317732632160187, -0.058969080448150635], [0.9598650932312012, -1.5960749387741089, 1.0386395454406738, 1.0061372518539429, -0.040003370493650436, -0.6076520085334778, -0.15585027635097504, 0.7210676074028015], [0.260488897562027, -0.8970212936401367, -0.3814999461174011, 0.3964425325393677, -0.7446928024291992, -0.47704407572746277, -0.46577921509742737, -1.4127143621444702], [-0.2752547264099121, -0.7714653015136719, 0.1242763102054596, 0.029083434492349625, 1.0185765027999878, -0.27750247716903687, -0.1274067461490631, 0.43953242897987366], [-0.6567210555076599, 0.6208367347717285, -0.4887898862361908, 1.5338205099105835, 0.8479518294334412, -0.32504406571388245, 0.7211582064628601, 0.7396891713142395], [0.6730025410652161, -1.1603062152862549, -0.022688815370202065, -1.1188944578170776, 0.0443769209086895, 1.1907426118850708, 0.9588847756385803, -0.7039905190467834], [-1.0784066915512085, 0.6840383410453796, -0.8175699710845947, -0.15100644528865814, -0.13924561440944672, -1.0828443765640259, -0.5652315020561218, 0.8879963159561157], [1.3593134880065918, -0.15496832132339478, -0.6501081585884094, 0.3180862367153168, -0.06204460561275482, -0.7355095744132996, -1.3728985786437988, 0.932178258895874], [1.4053459167480469, -0.7127161622047424, -0.08390761911869049, -0.15700063109397888, 0.19882798194885254, 1.3372957706451416, -0.9670685529708862, -1.5253900289535522], [-0.9341689944267273, 0.06072087213397026, 0.17047980427742004, -0.8670164346694946, 2.368417501449585, 1.924398422241211, 1.8574206829071045, -1.1762022972106934], [1.9427324533462524, 0.9156115651130676, -0.6478171944618225, -0.5781561136245728, -0.6664609313011169, -0.7349978685379028, -1.4165529012680054, -1.1653153896331787], [-0.49302247166633606, 0.05033859238028526, -0.5235950350761414, -1.301604986190796, -0.2774699032306671, -0.09470126777887344, 0.14908364415168762, -0.1881142556667328], [1.2118428945541382, -0.2971648871898651, 0.6863948702812195, -0.1763238161802292, -0.721002995967865, -0.645993709564209, -1.1840248107910156, 2.11057448387146], [-0.6235362887382507, -2.2573046684265137, 0.8775407671928406, 0.8622997999191284, 0.3701663613319397, 0.354060560464859, -0.3628479838371277, 0.5321221351623535], [-1.2591478824615479, 0.09093593806028366, -0.4729501008987427, 0.21001973748207092, 1.4525020122528076, 0.40528884530067444, -0.8058047890663147, -0.8541135191917419], [0.6767666339874268, -0.7330898642539978, 0.2732516825199127, -0.48404496908187866, -1.7833127975463867, 0.20974576473236084, -2.0149588584899902, -0.6662738919258118], [1.3324227333068848, -0.9677817225456238, 0.8502540588378906, 0.6273708939552307, 0.23007312417030334, -2.3687496185302734, -1.3957650661468506, -1.1044323444366455], [0.33835145831108093, -0.33269768953323364, 1.2183462381362915, -0.08884181082248688, 1.1916395425796509, 0.3940603733062744, 1.3273265361785889, -0.43002307415008545], [-1.7064025402069092, 0.11167580634355545, -1.2589447498321533, 0.9662597179412842, -0.8343942761421204, -0.9168453216552734, -0.06605053693056107, 1.3149648904800415], [2.014441967010498, -1.3303948640823364, 1.1969513893127441, 1.9701091051101685, -2.3992319107055664, -0.1664685159921646, -0.6246533393859863, -0.15858331322669983], [2.0979115962982178, 2.62619948387146, 0.2857680916786194, 0.46732744574546814, -0.034328266978263855, -0.3174322545528412, 0.3075038194656372, -0.6296148300170898], [0.8094460964202881, 0.7746659517288208, 1.285483479499817, -0.004451029468327761, 0.44260382652282715, -0.33863016963005066, -0.13391369581222534, 0.6333770155906677], [-0.7958414554595947, -0.9279433488845825, 0.1771133989095688, -0.7739346027374268, -1.8194267749786377, -0.15064994990825653, -0.339944452047348, 2.0111680030822754], [-0.5721489787101746, -1.1960026025772095, 0.6446240544319153, -0.1411363184452057, -0.2052556723356247, -0.27935072779655457, -1.3639658689498901, -0.508522629737854], [0.22533641755580902, 0.023887677118182182, 1.1171437501907349, -0.2005530595779419, -0.9082553386688232, 0.24394658207893372, 0.7232685089111328, -1.2921408414840698], [0.42121022939682007, -0.8488599061965942, 0.10455022007226944, 0.3569006323814392, 0.5963184237480164, 0.05238042399287224, 1.7942736148834229, 0.6456096768379211], [-1.5614862442016602, 2.4856512546539307, -0.8622027635574341, 0.6836192607879639, -0.30701103806495667, -2.1907780170440674, 1.2532823085784912, 0.15694625675678253], [-0.7446984052658081, 1.7272899150848389, 1.3163950443267822, -0.023413509130477905, 0.10222560167312622, 0.3559800684452057, 0.5969681739807129, 0.8933820724487305], [-0.4184180796146393, 0.5902200937271118, -0.39421895146369934, -0.5005372762680054, -0.04345785453915596, -0.12038453668355942, 0.27630841732025146, -0.6368013024330139], [-1.0806198120117188, -0.1393481194972992, 0.919299840927124, 1.26912260055542, -0.04766048863530159, 1.3259594440460205, -0.006228509824723005, 0.5409159660339355], [-0.7439664006233215, -0.056878842413425446, 1.9720652103424072, 0.3119640052318573, 0.31202641129493713, -0.5195821523666382, -0.8829630017280579, 0.7168089151382446], [0.2797453999519348, 0.1794317364692688, -1.2375296354293823, 1.4810004234313965, 0.004333713091909885, -0.07176757603883743, -0.6249767541885376, -0.2822611331939697], [-0.35774102807044983, -0.952029287815094, 0.01396092213690281, -2.1108438968658447, -0.06304197013378143, 1.191238522529602, -0.03438838943839073, -0.1323668360710144], [-0.9081199169158936, -0.029777025803923607, -0.8870585560798645, 0.06787609308958054, -0.5486364960670471, 0.8212239742279053, 0.05279244855046272, -1.6421527862548828], [2.215932607650757, -1.5992863178253174, 0.09238719195127487, -0.9497817754745483, -0.7373905181884766, 0.6492777466773987, 0.37210023403167725, -0.7501863241195679], [-2.5080020427703857, -0.7207980155944824, 0.6408287286758423, -1.7338180541992188, 0.8530631065368652, -0.35230934619903564, 0.41240552067756653, 0.8562327027320862], [-0.06676127761602402, 0.9558265805244446, 0.2857474684715271, 2.4158847332000732, 0.29325369000434875, -0.37671130895614624, -0.16004672646522522, 1.556330680847168], [0.11835364252328873, -0.45534804463386536, 1.4258960485458374, -0.6580677628517151, -1.2581589221954346, 3.218472957611084, 1.2684556245803833, 0.49259400367736816], [0.45057451725006104, 0.17783036828041077, 1.1688133478164673, 1.1586321592330933, 0.2387710064649582, 1.4201620817184448, -0.11429258435964584, -0.9370803833007812], [-1.4736969470977783, 0.04515731707215309, -0.8851210474967957, -0.710258960723877, 0.0885021984577179, 0.05791298672556877, 0.8501149415969849, 1.232718825340271], [0.6162804365158081, 0.7060606479644775, 1.0249286890029907, 1.530310034751892, 0.5628812909126282, 0.12195418030023575, -0.29163891077041626, 0.10604269057512283], [0.09315997362136841, 1.7979567050933838, -1.3806642293930054, 0.2747536301612854, 0.4716300070285797, -1.24281644821167, -1.4318405389785767, -0.3478354811668396], [0.0418342724442482, 0.04531756415963173, 1.3102625608444214, 1.0992300510406494, 0.26142337918281555, 0.5241692662239075, -0.9745188355445862, -1.2529969215393066], [0.30307915806770325, 0.6833887100219727, -1.3322649002075195, 2.017529010772705, 1.8099888563156128, -1.0764893293380737, -1.0515235662460327, -2.263972759246826], [-0.07044897973537445, -0.9812020659446716, -1.6050175428390503, 0.35339197516441345, 0.8805997371673584, 0.08507363498210907, -0.46351438760757446, 2.7178096771240234], [0.8264895081520081, 0.6999862194061279, 2.0018608570098877, 0.5986273288726807, 0.07303590327501297, -1.4101295471191406, -0.38740795850753784, 0.7566483020782471], [0.4919836223125458, -3.169405698776245, -1.4790066480636597, -1.5772678852081299, -0.18324027955532074, 0.054690856486558914, -0.8421980142593384, -0.4317626655101776], [0.5710273385047913, -0.46211832761764526, -0.5934877991676331, 0.5331122279167175, -0.27357324957847595, 0.9617516994476318, -0.592876136302948, -0.8389011025428772], [0.030122414231300354, 0.10573281347751617, 0.6828073859214783, 1.225659728050232, 0.33381569385528564, -2.0315370559692383, 0.6351577043533325, 1.6903424263000488], [-0.5795048475265503, -0.049077775329351425, -1.6683790683746338, 0.17145989835262299, 0.597588300704956, 1.387047529220581, 0.8674187064170837, -0.2828536331653595], [0.8045412302017212, 0.43224525451660156, 0.22516167163848877, -1.5038597583770752, -0.3264490067958832, 0.08942516893148422, 0.07974665611982346, -1.3030269145965576], [-0.33920109272003174, 1.2731356620788574, 0.26292604207992554, -0.8346158862113953, -0.5582228899002075, -0.7186951637268066, -1.2601360082626343, 1.163129448890686], [-0.935545027256012, -1.9627134799957275, 0.5963968634605408, 0.5988133549690247, -0.22613447904586792, -1.095014214515686, 0.2515009939670563, -0.7260444760322571], [1.2450331449508667, -0.3510998785495758, -0.8481486439704895, 1.9394316673278809, -1.5120289325714111, 2.1411917209625244, -0.706400990486145, -0.004651552997529507], [-0.22976891696453094, 0.7233718633651733, 0.5135000348091125, 1.750117301940918, -0.6778866052627563, -0.09605752676725388, -1.1143420934677124, -0.5728843808174133], [-0.28312814235687256, -0.24725231528282166, 0.09912558645009995, 0.2435014545917511, 0.5548154711723328, 0.6396175622940063, -0.5494183301925659, 0.008161289617419243], [0.8316805362701416, -0.6075609922409058, 1.2314352989196777, 0.7554816007614136, -0.19143888354301453, 1.3251981735229492, 0.6774712204933167, -0.04267708212137222], [-1.6300568580627441, -2.3507778644561768, -0.10087200999259949, -0.07041334360837936, 0.07185588032007217, 1.1737453937530518, -0.04441244155168533, 1.5148566961288452], [-0.6679545640945435, -2.326205253601074, -1.5541725158691406, -0.6858236789703369, 0.20454581081867218, -0.3226461708545685, 0.359635591506958, -2.3893704414367676], [-0.4899730086326599, -0.5948320031166077, 1.0303242206573486, 1.3179372549057007, -1.044708251953125, -0.23868732154369354, -0.9672545790672302, 1.1511342525482178], [1.2794194221496582, -1.436964988708496, -1.3986847400665283, -1.150792121887207, -1.3814481496810913, -2.5843372344970703, 1.1711742877960205, -0.4248916208744049], [0.6290931105613708, -0.5534996390342712, 0.06509972363710403, 1.313970923423767, 0.7681512236595154, -0.3580337166786194, -1.667939305305481, -0.7586730718612671], [-0.6473974585533142, -0.4224684238433838, 1.0763884782791138, -0.6353651881217957, -2.6315367221832275, 0.34857654571533203, 1.6111186742782593, 1.1153966188430786], [-0.3640543222427368, -1.1118781566619873, 0.5678068399429321, 0.2140885591506958, 0.4391975700855255, 1.3930232524871826, 2.017409324645996, -0.1254163384437561], [1.6934033632278442, -0.6381775736808777, 0.719053328037262, -0.9579797983169556, 0.8690788745880127, -1.1164823770523071, -0.4958776533603668, 0.08577917516231537], [1.3828128576278687, -1.2620348930358887, 2.310419797897339, -0.007203347515314817, -0.22881190478801727, 0.9704535603523254, 0.7563894391059875, -1.115004539489746], [0.07112511247396469, -0.3477245271205902, -2.0806267261505127, -0.42864441871643066, 0.3268433213233948, -0.1143665462732315, 0.07443048059940338, -0.1761360764503479], [0.773858368396759, -1.055128812789917, -1.3704355955123901, 0.5578198432922363, 0.32746490836143494, 0.532797634601593, 1.0407025814056396, 0.7528348565101624], [0.2147746980190277, 0.24432902038097382, 0.08471794426441193, 0.3708213269710541, 0.30846092104911804, -0.7208064198493958, 0.31416910886764526, -0.4987563192844391], [-0.20551085472106934, -1.4150699377059937, -0.26867371797561646, 0.020460886880755424, 0.4930766820907593, 1.5834765434265137, -0.6915406584739685, -0.2682916522026062], [-0.2611095607280731, -0.6589445471763611, -0.13842038810253143, -0.2338014543056488, -0.8180692195892334, -0.6855913996696472, 1.3958303928375244, -1.2985917329788208], [-0.37109053134918213, 1.063012957572937, -0.38238587975502014, -1.011076807975769, -0.8176934719085693, 2.189134120941162, -0.776292622089386, 0.34470394253730774], [1.064172625541687, -1.5063599348068237, 1.419037103652954, -2.9889400005340576, -0.25868716835975647, -0.5335816740989685, -1.7838592529296875, -0.5606842041015625], [-0.05122819170355797, 0.9016974568367004, 1.829516887664795, -1.8584777116775513, -1.3388187885284424, 0.5260108709335327, 0.3638491630554199, -1.9725717306137085], [-0.22028692066669464, -0.19925135374069214, -0.09321833401918411, -0.4213123321533203, -0.2854222357273102, -0.3386743664741516, -0.5680389404296875, -0.1737826019525528], [-1.1128261089324951, 0.6663074493408203, 2.06890869140625, -0.3063915967941284, 0.9855806827545166, 1.4265530109405518, 1.279002070426941, 0.27332258224487305], [0.36947911977767944, -0.4143297076225281, 0.23939020931720734, 0.10397141426801682, 0.6089264154434204, -0.28231287002563477, 1.099952220916748, 0.820517897605896], [0.7342309355735779, -0.8738404512405396, -0.9358769059181213, -0.5233188271522522, 0.42363253235816956, 1.3851096630096436, 0.4723271131515503, 1.4564114809036255], [-1.4594109058380127, 1.0964707136154175, -1.5346081256866455, 0.9582912921905518, -0.3380746841430664, 0.0746556892991066, -1.797518014907837, -0.9126104712486267], [1.5030800104141235, 0.2276509553194046, -0.010918478481471539, -0.10928689688444138, -1.075613260269165, 0.5102410912513733, 0.2673739790916443, 0.14879557490348816], [-0.48203369975090027, -0.4432004690170288, 1.2714940309524536, -1.0581607818603516, 0.28905707597732544, -0.1981828808784485, 1.2245632410049438, -1.4261211156845093], [-0.2656857967376709, 2.067005157470703, -0.13244839012622833, 0.6193599104881287, 0.7403197288513184, 0.5266628265380859, -0.28167590498924255, -0.27820518612861633], [0.49307531118392944, 0.226248636841774, 0.17956550419330597, 0.33608224987983704, 0.06874091178178787, 1.4218608140945435, 1.2988790273666382, 0.8187313675880432], [0.9947895407676697, -0.7208184599876404, 0.6724846959114075, -0.11247928440570831, -0.05553998798131943, -1.1007312536239624, -1.734665036201477, -2.6693828105926514], [0.457363098859787, -0.9428896307945251, 0.8093769550323486, 1.4372386932373047, -0.7221562266349792, 0.16204069554805756, 0.06574545055627823, 0.10468631237745285], [0.8355262875556946, 1.5149857997894287, 0.8080731630325317, 0.28044870495796204, -0.13698522746562958, -1.2675131559371948, -0.40310579538345337, -0.7587277889251709], [0.24296365678310394, 0.22425314784049988, -0.34078559279441833, 0.5887604355812073, 0.2158755511045456, 0.3335099220275879, 0.9210870265960693, 0.8974527716636658], [0.6733834743499756, -0.10906407237052917, -1.4939879179000854, -1.6541424989700317, 0.4576491117477417, -1.3868520259857178, 1.9512696266174316, -0.0927114337682724], [-0.15019243955612183, 0.8844963908195496, -0.7563668489456177, -0.6873999238014221, -0.1636587381362915, 1.4292312860488892, 0.371883749961853, -0.11036837846040726], [0.9385010004043579, -1.1614867448806763, 0.6916451454162598, -1.2004071474075317, 1.1083704233169556, -0.87532639503479, -0.5251585841178894, -0.05736358091235161], [-0.10864514112472534, -0.34661048650741577, 1.1679823398590088, 0.34616395831108093, -1.7940948009490967, 0.2123940885066986, 1.4734220504760742, -1.3258659839630127], [-0.7689809799194336, -0.4118254482746124, 0.1363135129213333, 0.0741782933473587, 0.9462761282920837, -0.20218726992607117, -0.043022800236940384, 3.1074042320251465], [-1.0642210245132446, -0.7079263925552368, -0.21710065007209778, 0.5305612087249756, -0.016808971762657166, -0.8461398482322693, 1.574570894241333, 0.45739245414733887], [0.0614079087972641, 2.2718539237976074, 0.3755682706832886, -0.1377246230840683, -1.1113275289535522, -0.5571647882461548, 0.7078604102134705, -0.43667423725128174], [-1.2147172689437866, -0.09496702253818512, 0.6881552934646606, 1.1939449310302734, 2.0832433700561523, 1.871756911277771, 0.043145470321178436, -2.1004700660705566], [0.04433510825037956, -1.2773021459579468, -0.4004669189453125, -0.5576507449150085, 1.7372311353683472, -0.42628729343414307, 0.4342098832130432, -0.8365540504455566], [0.10613418370485306, -0.3067088723182678, 0.864227294921875, -1.0658658742904663, -1.0129939317703247, -0.9939180612564087, 2.9082677364349365, 1.4483332633972168], [-0.8985297083854675, -0.8847941756248474, -0.41042643785476685, 0.3440343737602234, -0.35559481382369995, -0.7437131404876709, 0.9931610822677612, 1.101485013961792], [0.9100077748298645, 0.7314918041229248, 0.8916484117507935, 1.087571144104004, 0.3287752568721771, -0.7319393157958984, -1.0241665840148926, -1.6577417850494385], [-0.6982862949371338, 0.6134306192398071, 0.6493934988975525, 0.5755008459091187, 1.0546233654022217, 1.9470670223236084, 0.5890468955039978, 1.4354289770126343], [0.4702833294868469, 0.3822401762008667, 1.1031581163406372, 2.0301852226257324, 0.13272631168365479, 0.4136529862880707, 0.10378225147724152, 0.8633090853691101], [-0.8625897765159607, -0.6307170987129211, -0.255107581615448, 1.9230936765670776, -0.7256235480308533, -0.4956800937652588, 1.3902209997177124, -0.13201774656772614], [-0.033268965780735016, 0.788896918296814, 1.2112265825271606, 0.6870997548103333, 0.15767209231853485, 0.5066547989845276, 0.011783129535615444, -0.6485161185264587], [-1.9746785163879395, 0.4045853614807129, -0.6817443370819092, -0.14802508056163788, -0.40009135007858276, 1.1889302730560303, -1.3336682319641113, -0.4174310564994812], [0.33895841240882874, -1.518599510192871, -1.5101457834243774, -0.49125880002975464, 0.5830327868461609, -1.1447627544403076, 1.1210943460464478, -1.8194377422332764], [1.4363702535629272, 0.3609599173069, -0.8751072287559509, 0.6035802364349365, -0.9559575915336609, -0.20665313303470612, 0.37657126784324646, 0.7222427129745483], [-0.46810558438301086, 0.5115917921066284, -0.7044299244880676, -0.011521447449922562, -0.5326019525527954, 0.553646445274353, 0.3271500766277313, 0.9472153186798096], [0.6669564843177795, -0.9478273391723633, -0.8609387874603271, 0.14270606637001038, -0.3916400969028473, -0.7490947842597961, 0.8126199841499329, 2.2172369956970215], [-1.7926822900772095, -0.9151403903961182, 0.7206301689147949, 1.038336157798767, 0.8824478387832642, -0.014499682933092117, -1.1733002662658691, -0.6388840675354004], [2.3045527935028076, -1.9594669342041016, 0.5400508642196655, -1.445039987564087, -0.426473468542099, 0.21607466042041779, -0.4821529686450958, -1.623467206954956], [-0.4932185709476471, -0.10924097895622253, 0.8205704689025879, -0.3330787122249603, 0.448880672454834, -1.0826263427734375, 1.049172043800354, 0.3132210373878479], [-0.4752584397792816, -0.8584216833114624, -0.13414059579372406, -0.5496121644973755, -0.1432955414056778, 1.510245442390442, -1.6984524726867676, -0.13416922092437744], [0.14753639698028564, 0.017756283283233643, 0.6272903680801392, 1.1388921737670898, -0.7435798645019531, -1.0798940658569336, -0.6172441244125366, 1.349134087562561], [0.21619217097759247, -0.519589900970459, -0.8784465789794922, 1.3586455583572388, 0.12821073830127716, 0.13077382743358612, -0.7790339589118958, -0.36398330330848694], [0.6668919324874878, -1.2190028429031372, -2.0403947830200195, -0.47230806946754456, 1.0031107664108276, 0.8335499167442322, -0.4114513397216797, 0.8427209854125977], [1.1967037916183472, -0.0018258659401908517, -0.9016574025154114, -0.22806651890277863, 0.4088926911354065, -0.15194828808307648, -0.23157624900341034, -0.2689157724380493], [0.001121942070312798, -1.4273836612701416, 0.36127617955207825, -0.1786527931690216, -1.797090768814087, -0.2682020962238312, -0.39295023679733276, -1.1476646661758423], [-0.22976474463939667, 0.14555883407592773, -0.047094956040382385, 0.9793838262557983, 1.4316002130508423, 2.1071226596832275, -0.26371005177497864, -1.306834101676941], [-0.5301722288131714, -0.5880056023597717, 0.5470752120018005, -1.7566288709640503, 0.08256987482309341, 0.7282475233078003, -1.0880264043807983, -0.835109531879425], [-0.846329927444458, -0.31202831864356995, -0.6085044145584106, 0.2795618176460266, 0.36128443479537964, -0.7476885914802551, -0.45733362436294556, 0.7369065880775452], [0.5859074592590332, 1.2684248685836792, -0.24542059004306793, 1.3467463254928589, -1.0169910192489624, 0.49236637353897095, 0.12621964514255524, -0.06507182866334915], [-0.4750325679779053, -0.6190906763076782, 0.1820145696401596, -0.2492055892944336, 1.2924331426620483, 0.2159869223833084, -0.5963912010192871, -0.4840649664402008], [2.694340944290161, -1.3052583932876587, 1.78571355342865, -1.0458683967590332, -1.6768732070922852, -0.15076503157615662, -1.0298118591308594, -0.3392772078514099], [-0.9426730275154114, 0.06297429651021957, 0.3740830421447754, -1.1915032863616943, 1.3538628816604614, -0.12817761301994324, 1.7811237573623657, 0.17119096219539642], [-1.1146950721740723, 0.7723053693771362, -0.12801411747932434, -0.9366441369056702, 0.4149083197116852, -0.4868994653224945, -0.3273018002510071, -0.38318899273872375], [1.5913091897964478, -0.006695180665701628, 1.9556007385253906, -0.12728457152843475, 1.0851719379425049, 1.2084866762161255, 0.391046941280365, 0.06978294998407364], [0.3080539107322693, -1.4164495468139648, -0.8454268574714661, -0.17024531960487366, -0.6444171667098999, 0.45549315214157104, -0.9404211640357971, 1.085727334022522], [0.37312132120132446, -0.06896410882472992, -0.06967200338840485, -1.405518889427185, -0.818193256855011, -0.7458522319793701, 0.3107384741306305, 1.1712616682052612], [-1.1814937591552734, 0.44110023975372314, 1.0377612113952637, -0.7892920970916748, 0.45900312066078186, 0.4461238384246826, 2.2955868244171143, -1.0068796873092651], [-1.1335337162017822, -0.19838832318782806, 0.286560595035553, -0.4515226185321808, -0.4144544005393982, -0.5497232675552368, 1.1589126586914062, -1.640640377998352], [0.7287460565567017, -0.400631844997406, -0.9651980400085449, 0.5256631374359131, -0.27431362867355347, 0.4411343038082123, -1.5399714708328247, 0.810590922832489], [0.06973426043987274, 1.184038758277893, 0.16331622004508972, 0.3837603032588959, -0.22539640963077545, -0.38222625851631165, -1.1269723176956177, 1.066938877105713], [-0.6340484023094177, 0.07177240401506424, 1.4063163995742798, -0.41738712787628174, -0.11070471256971359, 1.442582607269287, -1.1978228092193604, -0.6815351843833923], [1.4256055355072021, 1.2255014181137085, -1.1458735466003418, 0.21815896034240723, -0.08282127976417542, -0.5100898146629333, -0.309501051902771, -0.391112357378006], [-1.0729305744171143, 0.12457184493541718, 0.05051489546895027, 0.6697075963020325, -0.7628178596496582, -0.7273775339126587, -0.3452931344509125, 0.5557132363319397], [0.5023984909057617, -1.859649658203125, 0.15945686399936676, 1.192538857460022, 0.6599571704864502, 1.251848816871643, -1.1121433973312378, -0.9392527341842651], [1.390899896621704, -2.1314663887023926, 0.34160739183425903, 0.6490341424942017, 0.9750322103500366, -0.43864792585372925, -0.4426584839820862, 0.09914340823888779], [0.534875750541687, -2.0240297317504883, -0.5874917507171631, -0.31686052680015564, -0.41241613030433655, 0.31303533911705017, -0.2948099672794342, 0.009435288608074188], [0.13905727863311768, -0.006940336432307959, -1.6170258522033691, 0.8321064114570618, 0.5719134211540222, -0.2405192255973816, 0.4615718722343445, -1.6740256547927856], [-1.6722862720489502, -0.2783602178096771, -0.7092334628105164, -1.1036962270736694, -1.4272931814193726, -1.4574755430221558, -0.5893020629882812, 1.2145602703094482], [-1.4276691675186157, -0.8869455456733704, 1.3742026090621948, 1.0814260244369507, 0.26438045501708984, -0.8326366543769836, -0.7017208933830261, 0.23533396422863007], [-0.9506557583808899, 1.1316394805908203, -1.0278104543685913, -2.4341931343078613, 1.0510821342468262, 0.5055437684059143, 0.29058507084846497, 1.014563798904419], [-0.8498581051826477, -0.7336586713790894, -0.20109596848487854, -0.8659418821334839, 0.6210748553276062, 0.8895635008811951, -1.0662301778793335, -3.0565881729125977], [-1.2510343790054321, -0.5977717638015747, -0.7148423790931702, -0.4735177159309387, 0.8106006383895874, 2.5833098888397217, 0.8777592182159424, 0.00919400155544281], [-1.0859673023223877, 0.015413970686495304, 1.9859269857406616, -0.8954576849937439, -0.7107256054878235, -0.1975725293159485, -0.3538755178451538, -0.2617968022823334], [-1.4103062152862549, -1.2389048337936401, -0.8863039612770081, 1.1171362400054932, 0.12104152888059616, 0.28426703810691833, -0.2131597250699997, -0.24874912202358246], [-0.05923374369740486, 0.027960989624261856, -1.5189117193222046, -1.6632511615753174, -0.009828811511397362, -0.7927772402763367, 1.2836169004440308, -0.955893337726593], [1.109425663948059, -1.0480706691741943, 0.07479533553123474, 0.6460680961608887, 0.8772509694099426, 0.4898982048034668, 0.3992097079753876, -0.4748711884021759], [-0.6562364101409912, 0.6770723462104797, -0.4939573407173157, 0.4319530129432678, -0.536189615726471, -0.2822990417480469, 0.36341777443885803, 1.6201727390289307], [-0.8970566987991333, 1.5326523780822754, -1.0852842330932617, 0.9202897548675537, 1.1059412956237793, 1.629272222518921, 0.715946614742279, -1.133114218711853], [-0.3942192792892456, 0.4332717955112457, -0.44338876008987427, -0.16291815042495728, 0.48665106296539307, 1.116620421409607, 0.9127480387687683, 0.8312577605247498], [-0.2459513396024704, -1.4415760040283203, -0.2516690194606781, -0.813561201095581, 1.1068884134292603, 1.5751407146453857, 0.012246018275618553, 0.957256019115448], [0.7184942960739136, -0.9164088368415833, -0.06453436613082886, 0.9392462372779846, -0.28998449444770813, -0.1613815873861313, 0.5916076898574829, 0.4263177216053009], [-0.18966060876846313, 0.6518477201461792, -3.1289303302764893, 0.0717768743634224, -0.41775742173194885, -1.2312557697296143, -1.5548791885375977, 1.3851311206817627], [-0.9380512237548828, -0.6385068893432617, 0.2194686383008957, -0.439242959022522, -0.1391070932149887, -0.018692156299948692, 1.6560721397399902, 1.0661178827285767], [-0.4466944932937622, -1.4535592794418335, 0.6238914132118225, -0.06354011595249176, 0.2503473162651062, 1.0311613082885742, -0.5857436060905457, 0.895546019077301], [-0.031527046114206314, 0.4712819457054138, -0.11506779491901398, -0.022892752662301064, -1.735032081604004, -0.5971865057945251, 1.1644021272659302, -0.4047805070877075], [-1.1061087846755981, 0.312949538230896, -0.9435054659843445, 0.8040417432785034, -0.08046451210975647, 0.2687055468559265, -1.5302233695983887, -0.35081303119659424], [-0.17049919068813324, -0.1795724630355835, 0.10996633768081665, 0.666986346244812, -1.1246815919876099, 0.7691519260406494, 0.5379470586776733, -0.9779654741287231], [0.47835469245910645, -1.128225564956665, -0.49343371391296387, -1.7917239665985107, -0.9058405756950378, 0.4155508577823639, -0.3811253607273102, 1.3231607675552368], [1.0252376794815063, -0.7622264623641968, 1.2365773916244507, -0.8531621694564819, 0.8154352903366089, 1.4256314039230347, -0.1457558274269104, 0.19484171271324158], [0.44738736748695374, -1.1666682958602905, 1.297318935394287, 1.8215975761413574, -0.9363878965377808, -0.08565399050712585, 0.3047494888305664, 1.0090079307556152], [-0.21817737817764282, 0.26343676447868347, 0.6556084156036377, -0.6158233880996704, -0.5117316246032715, 1.3970670700073242, 0.9975206851959229, 0.9029253125190735], [-1.3293579816818237, -1.2720720767974854, -0.39950576424598694, 0.24084803462028503, -0.38907429575920105, -1.0372593402862549, -2.809608221054077, -0.09536027163267136], [-0.9568183422088623, 0.6158983111381531, 1.640593409538269, 0.4238245487213135, 0.25676101446151733, 0.34216126799583435, 0.885039210319519, 0.6803057789802551], [-0.5181031227111816, -1.6162188053131104, 0.4174554944038391, -0.10552649945020676, 1.3640122413635254, -0.9467418193817139, -1.7998570203781128, 1.1412410736083984], [-1.316609263420105, -0.16422846913337708, 0.19671805202960968, 1.3153958320617676, -1.5527944564819336, -0.22382737696170807, -0.43363073468208313, 0.08605865389108658], [-0.7619712948799133, 0.5318520069122314, 0.8076885938644409, -1.5553054809570312, -0.5255745053291321, -0.7299175262451172, 1.2241042852401733, -1.471423864364624], [-0.40042948722839355, 1.7208309173583984, -0.5043857097625732, -2.8464598655700684, 0.8577166795730591, 0.09681128710508347, 1.095745325088501, 2.9202516078948975], [1.6193253993988037, -0.5052222013473511, -1.1446036100387573, 1.0518767833709717, -0.3434344530105591, 1.1263723373413086, -2.5083167552948, -0.10464958101511002], [-0.12987421452999115, 0.14690254628658295, -0.0804254338145256, 0.42332205176353455, 0.5050496459007263, -0.863297164440155, 1.371843695640564, -1.9784270524978638], [-0.578324556350708, -0.9120731353759766, 0.023624442517757416, 0.8669686317443848, 0.36947891116142273, -0.21107254922389984, -0.3255263566970825, -0.332412987947464], [-1.2047553062438965, -0.8352841734886169, -0.2419072389602661, 0.2419441193342209, 1.9955030679702759, 0.9355513453483582, -0.5255488753318787, 1.2550487518310547], [-0.3723182678222656, 0.013042031787335873, -0.43860024213790894, -0.48963963985443115, 0.3164016902446747, 0.7664734125137329, -0.11854780465364456, 0.4874759614467621], [-0.06673958897590637, 1.4993629455566406, 0.2771870791912079, -0.5519407987594604, -1.0640122890472412, -0.10705272108316422, -0.025012526661157608, -0.8301604986190796], [0.2798895835876465, 1.4879429340362549, -1.0353732109069824, 0.024907449260354042, 0.040954891592264175, 0.2955731749534607, 1.9196696281433105, -0.6522922515869141], [-1.7248146533966064, 0.18548336625099182, 0.0904516652226448, 0.6748413443565369, 0.6003440022468567, 0.4279334247112274, -0.9480798244476318, -1.6828644275665283], [0.8676931858062744, 0.7897552251815796, 1.1921164989471436, -0.42447584867477417, 0.4300878643989563, -2.6375885009765625, -1.0909451246261597, -2.3054234981536865], [-1.3480250835418701, 0.2577560544013977, 0.2886885106563568, -0.5538830161094666, -0.5408691167831421, -1.459201455116272, 1.3002036809921265, 0.3198920488357544], [1.288648009300232, 1.140354037284851, -1.7018802165985107, -0.07293836772441864, -0.030799774453043938, -1.4394011497497559, -0.7275882959365845, 1.0839848518371582], [0.3983934819698334, 1.2854465246200562, -0.07478863000869751, 0.3599507510662079, 0.10422569513320923, 0.8959283828735352, -1.0328348875045776, 1.0747768878936768], [-0.7186323404312134, 0.9545047879219055, -1.5387529134750366, 0.8158214688301086, 0.005217043217271566, -0.8408765196800232, -1.115253210067749, -1.0568382740020752], [0.42619070410728455, 0.1124952882528305, -0.33912551403045654, -1.7706542015075684, 1.4129741191864014, 0.5820551514625549, -0.3030162453651428, 1.9153110980987549], [-0.08110050857067108, 0.06836407631635666, -0.02050831727683544, -0.5893815159797668, -0.3348401188850403, -0.32435446977615356, -1.720908761024475, -1.5630282163619995], [1.0421351194381714, 0.4016267955303192, 0.26863881945610046, -0.11335969716310501, 0.05035349354147911, -0.5983366966247559, -0.9905919432640076, -0.7342642545700073], [1.2334039211273193, 0.8963240385055542, -0.1431981325149536, -0.8870075941085815, -0.8737341165542603, 1.348885178565979, 0.5959809422492981, 0.7064275741577148], [-0.15168410539627075, -0.5131073594093323, 1.7805944681167603, 0.9474081993103027, -0.17938116192817688, 0.824715793132782, -0.011236307211220264, -0.9911064505577087], [-1.5341352224349976, 0.19133616983890533, -0.5878041386604309, 1.513494610786438, -0.34370630979537964, -0.006414390169084072, 1.0045928955078125, -0.27843213081359863], [0.676322340965271, 1.6901072263717651, 0.44977644085884094, -0.9636885523796082, -0.3298715651035309, -1.0305465459823608, 0.2343619465827942, 0.21236693859100342], [-1.7887988090515137, 0.38679882884025574, -0.08577927947044373, -0.6074098944664001, -0.29273921251296997, 0.6105898022651672, -0.134634330868721, 1.027787685394287], [0.4102221429347992, 0.5984094738960266, 1.1877723932266235, -0.38797158002853394, 1.350515604019165, -0.11615172028541565, 1.4077948331832886, 0.178555428981781], [-0.1897689700126648, -0.5006874799728394, 0.1922726333141327, 0.6084081530570984, 0.6039164066314697, -1.128728985786438, 0.3771909177303314, 0.7970174551010132], [-3.593087911605835, 0.2525511682033539, 2.083299160003662, 1.0130008459091187, 2.367992877960205, 0.22771847248077393, 1.0572021007537842, -1.1858749389648438], [-0.7788856625556946, -0.2462945133447647, 0.16531342267990112, 0.6151720881462097, 0.0061415075324475765, 0.7384003400802612, 1.4706578254699707, 0.49586597084999084], [-0.5796762704849243, -0.882039487361908, -0.5725685954093933, -1.0302602052688599, -0.02918780781328678, 0.5174679756164551, -0.021657712757587433, 1.4446989297866821], [-0.47954246401786804, -0.41691792011260986, 0.5126098990440369, 0.6737104058265686, 0.10828754305839539, 1.0525789260864258, 1.5908124446868896, -0.23421579599380493], [1.2195546627044678, -1.083428978919983, -0.5403162837028503, 0.8093486428260803, -0.4550809860229492, -0.48183178901672363, 0.47719666361808777, 0.06985461711883545], [0.460020512342453, 0.6131229400634766, -1.6966105699539185, -0.21444547176361084, -0.6383715867996216, -0.42721447348594666, -0.9961220622062683, -1.5477744340896606], [0.5488167405128479, -0.6870543956756592, 0.43438395857810974, 0.36753106117248535, 0.13455496728420258, 0.2564060389995575, 0.5552546381950378, -1.3618016242980957], [-1.1558669805526733, 0.8973930478096008, 0.10555703192949295, 0.8122356534004211, 1.0800412893295288, -0.8306580781936646, 1.182180404663086, 0.39868101477622986], [-1.1527245044708252, -0.28066542744636536, -0.9256322383880615, -0.35586971044540405, -0.18091216683387756, 0.5155529379844666, -0.8356293439865112, 1.2765530347824097], [0.40198183059692383, 0.5664035081863403, -1.085404396057129, 0.42556217312812805, 1.1084213256835938, 0.4126441478729248, 0.7539439797401428, 0.2511965036392212], [-0.9027004837989807, -0.7786703705787659, 0.6068921089172363, -0.3781062960624695, -0.901847779750824, -0.7568563222885132, 0.9053562879562378, 0.3886471688747406], [-1.8382965326309204, -0.43176698684692383, 0.40083596110343933, 1.055808186531067, -0.8223676681518555, -0.35276779532432556, -1.2712830305099487, -0.5201449990272522], [-0.6229395270347595, 0.6758753061294556, 0.8604060411453247, -0.2594420909881592, -0.5372810363769531, -0.4744660556316376, -0.9507550001144409, 2.030362606048584], [-0.09280993044376373, 0.9673382639884949, 0.8675339221954346, 0.6148930191993713, -0.7108369469642639, -0.22328032553195953, -1.0766929388046265, -0.31616172194480896], [-0.5096718668937683, -0.039174847304821014, 0.2813618779182434, 1.4322254657745361, -1.1756420135498047, -0.259179949760437, -0.5504928827285767, -0.6383591294288635], [-1.5020277500152588, -1.1370348930358887, 0.6552145481109619, -0.03743848204612732, 0.3480704128742218, 0.21777230501174927, -0.4399661719799042, 1.1427006721496582], [1.8462090492248535, 1.2315537929534912, -1.9045294523239136, -0.5938208103179932, -0.3481085002422333, -1.2951312065124512, -0.008244491182267666, 0.9077096581459045], [0.004314373712986708, -0.5878819227218628, -0.37110471725463867, -0.33322834968566895, -1.695709466934204, -0.3132151961326599, -0.7262410521507263, -1.1945847272872925], [0.5756553411483765, -0.7115330100059509, -0.5985128283500671, -0.44988274574279785, -0.7635523676872253, 1.287503957748413, 0.07360854744911194, -0.03754599019885063], [-0.5688531994819641, 1.8204364776611328, -0.9311513304710388, 0.7093329429626465, -0.793535053730011, -1.2103185653686523, 0.8145251274108887, 0.8147003054618835], [-1.3411917686462402, -0.1469491869211197, -1.0601446628570557, 0.71077561378479, -2.1094515323638916, -0.6821480393409729, 0.03892252966761589, -0.5456045866012573], [0.84586501121521, -1.0664114952087402, -0.09189216792583466, 0.12305741757154465, 0.5964367389678955, 0.846230685710907, -0.8947774171829224, 0.272085964679718], [-0.593885600566864, -1.4467324018478394, 1.8811275959014893, 0.9703060388565063, -0.8935132026672363, -1.7122676372528076, 1.538543939590454, 1.19145929813385], [-0.8499730229377747, -0.22094407677650452, -1.0787914991378784, -0.3249697685241699, -1.1021934747695923, 0.007539983838796616, -0.6028881669044495, 0.9161715507507324], [0.15505017340183258, 1.2694960832595825, -1.490308403968811, -0.4549781382083893, 0.44872549176216125, 0.7099721431732178, 0.27429354190826416, 0.42651885747909546], [-2.1955888271331787, 0.3821466267108917, -0.38980454206466675, 0.8326429128646851, -0.4553442597389221, 1.9345117807388306, -0.9749715328216553, -1.0985983610153198], [-1.1008586883544922, -0.009294804185628891, 1.4099129438400269, 0.3964424133300781, 1.2808538675308228, 0.5179123282432556, 0.5228385925292969, -0.018156761303544044], [0.9490910768508911, 2.6745853424072266, -0.047592055052518845, -0.024271689355373383, -1.2385262250900269, -0.9491791129112244, 0.9189339280128479, 0.15933085978031158], [0.0946006253361702, 0.5637173652648926, -1.6788192987442017, -0.847520112991333, 2.1493687629699707, 0.6296339631080627, 0.14653660356998444, 0.016782106831669807], [-0.7531371712684631, -0.6862868666648865, -1.7054429054260254, 1.0467870235443115, 0.03243667259812355, 1.1340919733047485, -0.37380340695381165, 0.8686156868934631], [-1.2651140689849854, -1.0829088687896729, 0.10600312054157257, 0.7901238799095154, 1.0613468885421753, 1.172729253768921, 0.39286887645721436, -0.038512829691171646], [-0.9973449110984802, -1.0927759408950806, 1.002799391746521, -1.765167236328125, 0.5458707213401794, 0.0017679939046502113, 0.5765126943588257, -0.13873569667339325], [0.3800033926963806, 0.06232278048992157, 1.35059654712677, -0.20618993043899536, -0.3993389308452606, -0.5299795269966125, -1.3798977136611938, 2.9816598892211914], [-1.0032976865768433, 0.9286256432533264, 0.7697814702987671, 0.1384432315826416, 1.5046544075012207, -1.1312803030014038, 0.2414122223854065, -1.773908257484436], [0.7248718738555908, 0.9247516989707947, -0.7122637033462524, -0.3231409192085266, 0.6819390058517456, -1.703964352607727, -0.7493953108787537, -1.613564133644104], [1.2230193614959717, 0.3114880919456482, 0.8497201204299927, -1.333968162536621, -0.7709454298019409, -1.2806698083877563, -0.06530677527189255, 0.12845571339130402], [-0.5976822972297668, 0.8483499884605408, -0.9653162360191345, 1.3759264945983887, 1.8608452081680298, 0.36104142665863037, 0.7332537174224854, 0.4493008553981781], [0.4218711256980896, 0.17607511579990387, -0.5015003085136414, 2.0239341259002686, 0.11712449789047241, -0.24836134910583496, 1.1620182991027832, -0.04384544864296913], [0.06803520768880844, -0.9845389127731323, 1.1835618019104004, 0.12516723573207855, -0.2614533007144928, 0.225251704454422, -0.7080894708633423, -0.3444991111755371], [-1.272519588470459, -0.10459212213754654, 0.13068273663520813, 0.49312737584114075, 1.7474212646484375, 0.3242235481739044, -0.32123443484306335, -0.7730443477630615], [0.11567872762680054, 0.023575101047754288, -0.4535776376724243, 0.4055030643939972, 0.7352812886238098, 1.3087050914764404, -1.9747387170791626, 0.4981071949005127], [-0.7536361217498779, 0.6445304155349731, 0.8896732926368713, 0.32226163148880005, -0.5753957033157349, -0.018810952082276344, 0.2914474308490753, -0.7929638028144836], [1.4279831647872925, -0.08483601361513138, 1.604952335357666, -0.3455222547054291, -0.3909745216369629, 0.247783824801445, 0.6872503757476807, 0.039659224450588226], [1.3218356370925903, 1.8646403551101685, 0.4711068868637085, -0.20537608861923218, -0.18130798637866974, 0.4123295545578003, -1.2974635362625122, -0.006831070873886347], [0.31200799345970154, -0.6594070792198181, 2.093498706817627, 1.155767798423767, -0.13589335978031158, -0.893645167350769, -0.10520842671394348, 1.1187288761138916], [-0.8043029308319092, 2.256282091140747, 0.8049525022506714, 0.3476240336894989, 0.487343430519104, 0.06550406664609909, 1.142354965209961, 0.9938634634017944], [-0.9885939955711365, -0.22811973094940186, -0.5035017728805542, 0.4956669211387634, 0.5377328991889954, 1.4033699035644531, -1.4561774730682373, 0.9532269835472107], [-0.7277153134346008, -0.7232483625411987, 0.010709518566727638, 0.25453752279281616, 0.9357410073280334, 1.8283557891845703, 0.16396811604499817, 0.39085882902145386], [0.466420978307724, 0.028518935665488243, -2.2616283893585205, -1.7619292736053467, 1.6902247667312622, -0.4190893769264221, 0.7897015810012817, 0.20787227153778076], [1.051729679107666, 0.8987727165222168, 1.6490527391433716, 1.3978668451309204, 0.07412543892860413, -1.0341591835021973, -0.4104321599006653, 1.229559063911438], [-0.16192002594470978, -0.48961830139160156, -1.0681047439575195, -1.1598594188690186, -0.7364708781242371, -0.4766445457935333, -0.019573701545596123, -0.6350212097167969], [-1.027978539466858, -0.9910989999771118, -0.08828961104154587, 0.3553057610988617, 2.3205370903015137, 1.0642833709716797, 0.5723538398742676, -0.3258836567401886], [-1.1612401008605957, 1.688645839691162, -0.7267088890075684, -0.9136475920677185, 1.7493940591812134, 1.2904096841812134, -1.1536554098129272, 1.063425898551941], [-0.2813047468662262, 0.8867306709289551, 0.09387928992509842, 0.9641476273536682, -0.2936433255672455, -0.5412161946296692, -0.8397638201713562, -0.7100528478622437], [0.7286046743392944, -1.8359795808792114, -0.8240530490875244, -0.6920446753501892, 0.15746155381202698, -0.74006587266922, 0.7565815448760986, -0.022152118384838104], [0.20617234706878662, -1.3788299560546875, 2.047213554382324, 0.8323616981506348, 0.38975393772125244, 0.4871840476989746, 0.25193312764167786, 1.514103889465332], [0.07143184542655945, 1.4519340991973877, 2.619504928588867, 0.2450365573167801, 1.5046348571777344, 0.12804219126701355, -0.22425460815429688, 0.45398589968681335], [1.3605222702026367, 0.7691785097122192, 0.4351155161857605, 0.25221967697143555, -0.48281171917915344, -0.968147337436676, 0.4375852644443512, 0.7518863081932068], [0.31849420070648193, -0.3547634482383728, 0.5669467449188232, -1.0354951620101929, 1.0875869989395142, -0.14252164959907532, 1.0478312969207764, -0.6061006188392639], [0.48587775230407715, -0.4776213765144348, 0.9952517151832581, -1.2340794801712036, -0.7360205054283142, 0.9886252880096436, 1.2449016571044922, -0.5058932304382324], [0.5290331840515137, 1.922227382659912, -0.5734760165214539, -1.2929869890213013, -0.5570513010025024, -0.4382455050945282, -1.2355453968048096, 1.2512497901916504], [0.11255241930484772, -1.117202639579773, 0.16211512684822083, 0.6597445011138916, -0.24786783754825592, 0.398886501789093, -0.10314667224884033, 0.4391865134239197], [-0.5750135183334351, -1.458258867263794, -0.09229239821434021, 2.1661808490753174, -0.5026565194129944, 0.515699565410614, -2.2084693908691406, 0.3964858651161194], [0.6646530032157898, -1.3112972974777222, -0.9674078226089478, 0.07765111327171326, -1.5393275022506714, 1.7408031225204468, -0.7110583782196045, -0.9112305641174316], [0.9652213454246521, 0.6353894472122192, 0.2856261730194092, 1.650128960609436, 1.256377935409546, -1.256115436553955, 0.3260026276111603, 0.6841329336166382], [-0.6574503779411316, -0.8043858408927917, -1.0994819402694702, 1.5115416049957275, -1.2820024490356445, 0.3322715759277344, -0.6986464262008667, -0.16423459351062775], [-0.35674914717674255, -0.3006541430950165, 1.4450368881225586, 0.7584300637245178, 1.1803758144378662, 0.0477149523794651, -0.6607229709625244, 0.24162045121192932], [1.1968498229980469, -0.9836877584457397, 2.037137031555176, 0.5920321345329285, -1.2892249822616577, -0.03562666475772858, 0.17291635274887085, 0.18755421042442322], [0.5686700940132141, -0.810955822467804, -0.6668803691864014, 0.5051525831222534, -0.8615536093711853, 0.044663336127996445, -0.7941219210624695, -1.5924102067947388], [-0.6448761820793152, -0.3932037651538849, 1.5331411361694336, -0.3431997299194336, -0.6680169105529785, 0.6135598421096802, 0.9822823405265808, 0.6232008337974548], [1.6037938594818115, 0.7152358293533325, 1.9036880731582642, -1.1197839975357056, -2.211786985397339, -0.5754631757736206, 0.43194013833999634, 0.8337973356246948], [0.27490052580833435, 1.4043480157852173, 0.6093644499778748, 0.19491329789161682, -0.14588354527950287, 0.4864734411239624, 0.558708667755127, -0.24651190638542175], [0.8035858869552612, 1.3038849830627441, 0.8787577748298645, 0.48493728041648865, -0.7845833897590637, 1.6856017112731934, -2.735880136489868, -0.20599132776260376], [-0.9075320363044739, 0.5684070587158203, 1.4709542989730835, -0.1856130212545395, 0.43937185406684875, -0.09902174025774002, -0.4038701355457306, 0.8264973163604736], [-2.273984909057617, 1.3708163499832153, -0.5387851595878601, 0.07418031245470047, 1.2127842903137207, 0.12129233032464981, 0.4922228157520294, 0.8094897866249084], [-1.6530182361602783, -2.3706486225128174, -1.1817137002944946, 0.37698084115982056, -0.7237445116043091, -0.6101564168930054, 1.7407824993133545, -0.7404723763465881], [1.4208582639694214, -0.2586820721626282, -0.47202709317207336, 0.3091379404067993, -0.1202736496925354, -0.7193068861961365, -0.5169066190719604, -0.8401989936828613], [-0.221852645277977, 1.0014653205871582, -0.3791225850582123, 0.9333348870277405, 0.01148071140050888, -1.5186853408813477, -1.9364279508590698, 0.03679452836513519], [-0.7377771735191345, -1.9804295301437378, -1.8144830465316772, -0.17956839501857758, -0.36302807927131653, 0.9041517972946167, 0.0015903960447758436, 1.8114255666732788], [-0.3674651086330414, -0.7593324780464172, -0.03954581916332245, -1.3486045598983765, -0.06846952438354492, -0.7910929322242737, -1.2782423496246338, 1.455260992050171], [-0.17793488502502441, -0.3175690770149231, -0.40986377000808716, -1.0940604209899902, 1.3466506004333496, -0.2404530793428421, 0.25458258390426636, -0.535283625125885], [0.8604521155357361, 0.5092176198959351, 0.03271239623427391, 0.6379584074020386, -0.4425782859325409, 1.3803064823150635, 2.520413875579834, -0.2256731539964676], [1.5329678058624268, 0.08379285037517548, -0.8215214014053345, 0.845421314239502, -0.7801251411437988, 1.4285178184509277, -1.9881938695907593, -1.0359543561935425], [1.401170015335083, 1.383810043334961, -1.691771149635315, -0.9617828726768494, 1.9822003841400146, -0.771942138671875, -1.010488748550415, -0.014490138739347458], [0.9007517695426941, -0.2358786016702652, -2.103548288345337, 1.569091558456421, -1.8087164163589478, 0.34891870617866516, 0.6434486508369446, -0.9915514588356018], [-0.7058520317077637, -0.8338682651519775, -1.724476933479309, -0.1677112579345703, -0.05923227593302727, 0.5365478992462158, 0.15917226672172546, -0.567736804485321], [-0.023428307846188545, 2.173020362854004, -0.3023693263530731, -0.5216655135154724, 1.102096438407898, -0.043332912027835846, -1.1181650161743164, 0.8989812135696411], [-0.6895440220832825, -0.034439682960510254, 0.5896306037902832, 1.3894656896591187, -1.2984684705734253, -0.3054488003253937, 0.7222731709480286, -0.7130782604217529], [0.04956195130944252, -0.6025834083557129, 0.18749023973941803, -1.6898783445358276, -0.4211346507072449, 0.3638606369495392, 0.0014285494107753038, 0.7222660779953003], [-0.11576645821332932, 0.8017224669456482, 1.7069807052612305, 0.07051052153110504, -0.2732022702693939, 1.4922343492507935, 0.5829487442970276, 0.17933842539787292], [-1.187574863433838, 0.5289444327354431, 0.9384244084358215, 0.7390622496604919, -0.18201592564582825, -0.2629220187664032, -0.36961638927459717, 0.9347677230834961], [-0.12571413815021515, 0.32199230790138245, 0.5166674852371216, -0.5108466744422913, -0.17540507018566132, 0.8309369087219238, 0.31922298669815063, -0.4119207262992859], [0.4040813148021698, 0.42134901881217957, -0.6156377196311951, -0.8783807158470154, -0.36285287141799927, 0.4885472357273102, 1.1321163177490234, -0.5028092861175537], [-0.2982232868671417, 0.6496009230613708, 0.09375642985105515, -0.4855288565158844, 1.1533849239349365, -0.21218542754650116, 1.4431846141815186, 0.15096412599086761], [0.09122732281684875, 0.2622104287147522, -0.15342764556407928, 1.9586092233657837, 1.344787836074829, -0.6896358728408813, 2.0066072940826416, -1.0509660243988037], [-0.7776778936386108, 1.063857913017273, 2.275174379348755, 1.273863434791565, -0.2525164783000946, -0.40208864212036133, 2.3323159217834473, -0.37273481488227844], [-0.8100702166557312, 1.2291110754013062, 1.5342631340026855, -0.4747043550014496, 1.0679209232330322, 0.540290117263794, -0.8405734300613403, -0.2239629477262497], [-0.28092965483665466, -0.28742516040802, -0.5158584117889404, -0.9419719576835632, -1.3532874584197998, 0.07916498184204102, -1.2544711828231812, -0.3542894721031189], [-0.5444970726966858, -1.186942219734192, -1.0855358839035034, -0.5104353427886963, -0.14523367583751678, -0.11627117544412613, -0.4374997615814209, 0.3147486448287964], [-1.2058600187301636, 2.098445415496826, -2.0558462142944336, -0.5612480044364929, 1.01889169216156, -0.7399458289146423, -1.6253368854522705, 0.289314866065979], [-0.6164666414260864, -0.5519168972969055, 1.718683123588562, 0.9199973344802856, -0.48665761947631836, 0.6467119455337524, 0.6856769323348999, -0.7838203310966492], [-3.4919955730438232, -2.116548538208008, 0.39047378301620483, -0.8971531391143799, 1.2608462572097778, -0.48570170998573303, -0.5333821177482605, -1.582223653793335], [2.107656717300415, 1.74385666847229, 1.2092150449752808, 0.4729577600955963, 1.3844876289367676, 0.8598498702049255, 1.2454512119293213, -0.29413557052612305], [-2.6845407485961914, -0.510445237159729, 1.4654076099395752, -0.495121568441391, 2.1239218711853027, 1.145870327949524, 0.8176030516624451, -0.9109170436859131], [-0.22311121225357056, -0.48083966970443726, 0.36610668897628784, 1.4997745752334595, -0.1545715481042862, 0.17931386828422546, 0.5828672051429749, 0.6453898549079895], [0.5864547491073608, -0.5623832941055298, 0.43444281816482544, 0.6422696709632874, -0.07233824580907822, 1.0776437520980835, -1.215970516204834, 0.9192923307418823], [-0.41151461005210876, 1.519060492515564, 0.1399831473827362, -2.031642436981201, 0.6082754135131836, 0.38718274235725403, 0.3750723600387573, -0.14003463089466095], [0.8250956535339355, 0.6269567012786865, -0.551365315914154, 0.12095404416322708, 0.22517289221286774, -0.9160857796669006, -0.39382675290107727, -0.09650267660617828], [1.4013993740081787, -2.2335803508758545, -1.9140067100524902, 0.2339869886636734, 0.6995700597763062, 0.08087620139122009, 0.14569425582885742, -0.23153604567050934], [-0.9733190536499023, -1.2548030614852905, -0.1820225715637207, 0.5828746557235718, 0.5138867497444153, -0.11445099860429764, 1.1639338731765747, 0.8277280330657959], [1.8312735557556152, -0.6159214973449707, -0.6072823405265808, -2.05973744392395, 1.528913974761963, 0.3378683924674988, 0.19153514504432678, 0.16352267563343048], [0.41237202286720276, -0.32569974660873413, -0.9165863394737244, 0.003653619671240449, 0.06135442480444908, 0.6166580319404602, -1.4046255350112915, 1.7646889686584473], [0.6406025886535645, -1.5558726787567139, 0.34783855080604553, -0.4630448520183563, -1.1806226968765259, 0.12215424329042435, 0.5608704686164856, -0.2600313425064087], [-0.2431933879852295, 0.4163680076599121, -0.6797187924385071, -1.0956007242202759, -1.456349492073059, 0.40132713317871094, -0.20889399945735931, -1.0116662979125977], [-1.0137712955474854, 1.52743661403656, 0.2748870849609375, -1.3702776432037354, -0.2678590416908264, 0.789515495300293, 1.3637198209762573, -1.5060471296310425], [-0.9062260389328003, 1.3628276586532593, 0.3696170151233673, -0.1360234022140503, 0.5502180457115173, 0.5271043181419373, -0.12928366661071777, -0.6426509022712708], [0.14551420509815216, -0.28838539123535156, -1.3474631309509277, -0.549195408821106, -0.910785973072052, -0.31398114562034607, -1.3662704229354858, -2.536324977874756], [-0.6010454297065735, -1.2570838928222656, 0.6195273399353027, -0.5145140290260315, -1.3782910108566284, -0.4132477045059204, 0.8566116690635681, -1.2866955995559692], [-0.04230666160583496, -0.5026179552078247, -0.41027048230171204, -0.24723146855831146, -0.27695709466934204, -2.026387929916382, -1.1293385028839111, -0.25595763325691223], [0.7873421907424927, -0.6512906551361084, 0.21606126427650452, 0.3944251835346222, 0.5416010022163391, 1.851749300956726, -0.733120322227478, 0.03848506882786751], [-1.7940855026245117, -1.042403221130371, 1.7614542245864868, -0.332806259393692, 0.048396963626146317, 1.3171621561050415, -0.1568642407655716, -0.9621981978416443], [0.8844239115715027, 1.4383502006530762, 1.1708712577819824, -1.0870740413665771, -1.0130231380462646, -0.581769585609436, 0.4538373053073883, -1.0722376108169556], [0.8724561333656311, 0.14984911680221558, -0.21869271993637085, -0.03245118260383606, -0.168135404586792, 0.4608393609523773, -0.987517237663269, 0.1392868012189865], [-1.0625808238983154, -0.6325799822807312, -0.6293240189552307, -1.676796793937683, 0.6724022030830383, 1.988852858543396, 0.8156911730766296, -1.4682726860046387], [1.452892780303955, -1.3818150758743286, -0.12111546844244003, 0.24343907833099365, 0.06885746121406555, 1.5785536766052246, 0.8546664118766785, 0.8453823924064636], [-1.2664142847061157, -1.1650038957595825, 0.6481119990348816, 1.0688050985336304, 0.45961931347846985, -1.171120524406433, 0.08571180701255798, -0.41957950592041016], [0.7434421181678772, -0.22871126234531403, 0.9004307389259338, -0.24036027491092682, -0.07052826136350632, 0.6547775864601135, -2.1297051906585693, -0.7041490077972412], [-2.0188581943511963, -1.0599838495254517, 0.7904942631721497, -1.9867491722106934, 1.5689599514007568, 2.2494349479675293, -0.18743319809436798, -0.04684264585375786], [0.965968906879425, -0.5353811383247375, 0.4966652989387512, 2.163576126098633, -0.5685161352157593, 0.1268211156129837, 0.9771190285682678, -0.23618344962596893], [0.46896126866340637, 0.611815869808197, -1.5512539148330688, 2.59889817237854, 0.6290520429611206, 0.3872537612915039, 0.22152777016162872, -0.02131573110818863], [0.2892437279224396, 0.1899726837873459, -0.1302827149629593, -0.2604241669178009, -1.6232070922851562, 1.1540577411651611, 1.402260184288025, -1.6264268159866333], [1.060552954673767, -0.6761811971664429, -1.833114743232727, 1.0815021991729736, 0.21327345073223114, 1.2068800926208496, 0.6457788944244385, 0.005110067315399647], [0.9004147052764893, 0.47613686323165894, -0.8893640041351318, 0.35299402475357056, -0.3992047607898712, -1.0302037000656128, -0.019735446199774742, 1.0516657829284668], [-1.027237892150879, -0.8893100023269653, -1.125173568725586, -0.02761530503630638, -0.032946228981018066, 1.7849822044372559, 0.4239485263824463, -0.6966373920440674], [-0.4669014811515808, 0.46718424558639526, -0.13976715505123138, -0.6610490083694458, 0.8908199071884155, 0.996766984462738, 0.6744493246078491, 0.25619277358055115], [-0.6026151776313782, -0.07951569557189941, -0.298264741897583, -1.4611594676971436, 0.6472361087799072, 3.004652261734009, -1.1084598302841187, 0.17064067721366882], [0.047252316027879715, 0.16712389886379242, 1.2778376340866089, -0.9912753105163574, -0.09037582576274872, -0.7227760553359985, -1.16556978225708, -0.2915627956390381], [-1.3795819282531738, 1.0700255632400513, -0.9035430550575256, 0.7684311866760254, 0.43918687105178833, -0.5032516121864319, 2.1168277263641357, 1.2190254926681519], [-0.7082353830337524, 1.0001682043075562, -0.2844979465007782, 1.1310818195343018, 0.24185341596603394, -1.7724051475524902, -1.1085526943206787, 1.3168553113937378], [0.6296809911727905, -0.035218290984630585, -0.7114858627319336, -0.9017360806465149, -0.16034047305583954, -0.5083370208740234, -2.010742664337158, -0.20322945713996887], [-0.898806631565094, -0.6190614700317383, -0.005038121715188026, 1.7147802114486694, 0.8477310538291931, -0.095947265625, 0.32014045119285583, -0.2508052885532379], [0.9613847136497498, 0.7856628894805908, -0.08539799600839615, 0.3248734474182129, -0.8133910298347473, -2.38968563079834, 0.5778164267539978, -1.4885575771331787], [-0.9569611549377441, -1.1546032428741455, -0.4413168430328369, 0.17600195109844208, 0.004684733226895332, -1.4346685409545898, -0.7498711943626404, 0.2156614512205124], [-0.030871087685227394, -0.639951765537262, 0.6665478348731995, 0.10276839137077332, 1.185347318649292, 0.7616662979125977, -0.9732264876365662, -0.3401338458061218], [0.9894568920135498, 0.3286265432834625, 1.587578535079956, 0.04054398834705353, -0.8160314559936523, -1.0691605806350708, 2.028864860534668, -0.7911067008972168], [0.5706772804260254, -1.24761962890625, 0.6967772245407104, -0.9863448143005371, -0.26019904017448425, -1.527087688446045, 0.16149713099002838, 1.102393627166748], [-1.281060814857483, -0.32597070932388306, 0.12270621955394745, -1.4967215061187744, 1.0285675525665283, 0.44408878684043884, -0.910073459148407, 0.8266269564628601], [0.9412997961044312, -1.8326152563095093, 1.0753695964813232, 1.6644457578659058, 0.01351024117320776, -0.22341370582580566, 0.14383605122566223, 0.8004871010780334], [-1.0775331258773804, 0.9902262687683105, -1.3246738910675049, 0.7058192491531372, 1.4809130430221558, -0.060380592942237854, -0.8652567863464355, -0.07789728790521622], [-0.30515941977500916, -0.6692762970924377, 0.17030498385429382, -0.6465564966201782, -0.9176065325737, 0.8108607530593872, 0.3400841951370239, 0.9469735026359558], [-0.903339147567749, -0.9465415477752686, 1.068878412246704, 1.0865426063537598, -0.7758467793464661, 0.2674683928489685, -0.40756019949913025, -0.46693840622901917], [-1.109118103981018, -0.30875301361083984, -1.0698726177215576, 0.6396085619926453, 0.12697111070156097, -0.0028898557648062706, 0.0580136701464653, -0.755990743637085], [-0.38850411772727966, 0.2952229678630829, 0.71733158826828, 0.3352547585964203, 0.2039611041545868, 1.6895633935928345, 1.4927549362182617, -0.3439243733882904], [0.2135898321866989, -2.173050880432129, 0.4009414315223694, -2.289846181869507, 0.9603049755096436, -0.41294100880622864, 2.0471296310424805, 0.561273992061615], [-1.6451983451843262, 0.5579266548156738, -0.5182410478591919, -1.901414155960083, -0.48599493503570557, 0.3935895264148712, 0.35257449746131897, -0.17502780258655548], [-1.363519549369812, 0.5841954350471497, -2.2523353099823, 0.16781829297542572, 2.4707558155059814, 0.13623373210430145, -1.2181687355041504, 0.986214280128479], [0.8309966325759888, 0.3813341557979584, -0.6571192741394043, 0.4954630732536316, 1.1404895782470703, 0.0325608067214489, 0.2956955134868622, -2.1247425079345703], [1.694076657295227, -1.1659727096557617, 1.5101993083953857, -0.7473466992378235, -0.45198261737823486, 0.9376170039176941, -0.3975951373577118, 0.05615359544754028], [0.13493657112121582, -0.11929035931825638, 0.9754106998443604, 2.1795718669891357, 0.017534539103507996, -2.153420925140381, 1.4040030241012573, 2.2409539222717285], [-0.49444708228111267, 1.8533748388290405, -1.0609047412872314, -0.5907971858978271, 0.16243982315063477, 1.0458728075027466, -1.1876318454742432, -1.792431116104126], [-1.8994498252868652, 1.6411162614822388, 0.6860380172729492, 0.5576199889183044, -0.1446685791015625, -0.33898529410362244, -1.0580915212631226, -0.08941727131605148], [0.7997545003890991, 0.6543744206428528, 0.05258282274007797, -0.26495084166526794, 0.8705270290374756, -1.827191948890686, 0.6655542254447937, -0.11223497241735458], [0.9825800657272339, -1.7661494016647339, -1.0004515647888184, -1.809699296951294, 1.7375233173370361, -0.48105141520500183, 0.001020860392600298, 0.20046840608119965], [0.49185600876808167, 1.3337832689285278, 0.6420764923095703, -1.4100325107574463, -0.4646706283092499, -1.9738249778747559, 0.2350209355354309, 0.7486922144889832], [0.27610981464385986, -0.08985824137926102, -0.22326456010341644, -0.5218996405601501, -1.1744240522384644, -0.657073974609375, 0.7971154451370239, 1.616455078125], [-1.7327158451080322, 1.3022058010101318, 1.467448115348816, 0.29475703835487366, -0.3557981252670288, 1.0707372426986694, -0.48880550265312195, -0.016664396971464157], [-0.011980549432337284, -0.48316776752471924, 1.474825143814087, 1.1284711360931396, 1.223787546157837, -0.07418996840715408, -0.11175961047410965, -0.06172192096710205], [0.6672852039337158, 0.6591609120368958, -0.1560966521501541, 1.0346484184265137, 0.44838905334472656, -2.1463468074798584, 0.3033679723739624, -1.4021122455596924], [-0.13721832633018494, -0.11367650330066681, -0.875001072883606, -1.3822077512741089, -0.5320629477500916, 0.15481601655483246, -1.4329297542572021, -0.010078595951199532], [-0.8327808976173401, -0.9621291160583496, 0.9615429043769836, 1.496345043182373, -1.011968731880188, -1.816571593284607, 0.197211354970932, -1.7533116340637207], [-0.41451194882392883, -1.7112841606140137, 0.3645228147506714, -0.5803453326225281, -0.7104259133338928, -0.27301856875419617, 0.8717840909957886, 0.21581946313381195], [0.5897684693336487, 0.30059462785720825, 1.2132854461669922, -0.24529165029525757, 0.17301127314567566, -0.4271887540817261, -0.9829481840133667, 0.8723081350326538], [0.03782699257135391, -0.7466933727264404, 0.7785188555717468, -0.456685870885849, -0.7936297655105591, -0.18101046979427338, 0.19857563078403473, 0.8302657008171082], [-1.3951224088668823, -0.7678298950195312, 0.06427177041769028, 0.7070891261100769, 1.4896680116653442, 1.4595459699630737, 1.2223609685897827, 0.33704760670661926], [0.6749937534332275, 0.04970068857073784, -0.17598386108875275, -0.12148243188858032, -0.8109068274497986, -0.3844618499279022, -0.14639107882976532, -0.5865296125411987], [-3.1014792919158936, -0.026507221162319183, 2.406780242919922, -0.6756243705749512, 0.32227498292922974, -0.37230271100997925, -0.7981628179550171, 1.2154796123504639], [0.1910049319267273, -1.6112536191940308, 0.5542846322059631, 0.279766321182251, -0.3744271695613861, -0.4540124535560608, 2.7948617935180664, -0.26802366971969604], [-0.8471006751060486, -0.6619368195533752, 0.9850613474845886, -0.00857751164585352, 0.3764941692352295, 0.480941504240036, -1.8742095232009888, 1.2943520545959473], [1.081067681312561, -0.18981510400772095, -0.6919100880622864, -0.7222707271575928, 0.2789529263973236, 0.2017340213060379, -0.3734039068222046, -0.49089986085891724], [-0.4920271635055542, -0.41782113909721375, -1.2585763931274414, 1.2734193801879883, 0.06228829175233841, 1.5865240097045898, -1.3482905626296997, -0.6816525459289551], [0.5901840329170227, 0.2333221584558487, -1.7365256547927856, -0.9487612247467041, 1.3918941020965576, 0.5891238451004028, -1.476900339126587, -1.8484162092208862], [0.42681583762168884, 2.568209171295166, 0.5821226835250854, -0.16182610392570496, 0.7589800953865051, 0.6410807967185974, 0.47100749611854553, 0.9020841121673584], [-0.07743926346302032, 0.27101054787635803, -0.3102174997329712, 0.6487621068954468, 0.3101767301559448, -0.08513058722019196, -1.0499078035354614, -0.5777687430381775], [1.0906200408935547, 1.1986234188079834, -1.2465084791183472, 1.0887293815612793, -1.20431387424469, -1.2819377183914185, -0.7621628046035767, 1.7472527027130127], [-0.9144748449325562, 0.2937428951263428, -0.1677737534046173, -1.7700607776641846, 0.21254891157150269, 0.1756405234336853, -0.28579574823379517, -1.0474095344543457], [-0.7704280018806458, 0.36271238327026367, -0.0520680770277977, 1.8260780572891235, -0.24642904102802277, -0.10965478420257568, -0.7227065563201904, 0.13767699897289276], [0.3425588011741638, -0.21110060811042786, 1.302972435951233, 0.19410215318202972, 0.7888013124465942, 0.4031940996646881, 0.09729630500078201, -0.1420934647321701], [-1.8598624467849731, -0.26171889901161194, -0.711384654045105, 0.4430614113807678, -1.8666355609893799, 0.378872275352478, 1.5813558101654053, -0.40952613949775696], [0.2646549642086029, 0.3840376138687134, 0.4500100016593933, 0.21472084522247314, -1.0810086727142334, 1.7197154760360718, 1.0424960851669312, -1.0559804439544678], [1.0570732355117798, -0.0392492301762104, 0.041659798473119736, 0.7778664231300354, 0.6685856580734253, 0.9683307409286499, 1.6839896440505981, -0.8079628348350525], [0.7394393682479858, 0.9455142021179199, 1.1935724020004272, -1.1506701707839966, -1.1126203536987305, 0.34681886434555054, 1.3076841831207275, -1.0506459474563599], [-0.589524507522583, 0.630770206451416, 0.5099714398384094, 0.7591702342033386, 0.3098212480545044, -1.1254929304122925, -0.2858651578426361, -1.3946765661239624], [0.6140391230583191, -0.23201999068260193, 0.4098831117153168, 1.4020246267318726, 0.5041847229003906, -0.3650903105735779, 0.25000911951065063, -0.29017892479896545], [-0.27789515256881714, 1.2004474401474, -1.4287058115005493, 0.7102689743041992, -0.32249242067337036, -1.1996099948883057, -0.39369073510169983, -0.9113646149635315], [-1.0508259534835815, -0.50867760181427, 0.4218418300151825, -0.28395137190818787, 1.6014418601989746, -0.7325384616851807, 0.8043261170387268, -0.07350296527147293], [-0.8516751527786255, 0.7862807512283325, 0.26867687702178955, -0.010491769760847092, 0.5993978381156921, 0.5515437722206116, 0.5665631294250488, -0.22893980145454407], [-0.30449360609054565, 0.8280628323554993, 1.2824174165725708, 0.48634034395217896, 1.1849110126495361, 2.4070534706115723, -0.1650538295507431, -1.052173376083374], [-0.5769495964050293, -0.626659631729126, -0.5108413100242615, 0.3847472667694092, 0.9307935833930969, 0.44596123695373535, 0.8046448826789856, 0.612596333026886], [-0.6397724151611328, -1.235522985458374, 0.8777355551719666, -0.21215683221817017, -0.16934259235858917, 0.2825556695461273, 1.9138127565383911, -1.6499587297439575], [0.45961248874664307, 1.5001028776168823, 0.38991880416870117, 0.40374335646629333, -0.4790639281272888, -0.5763979554176331, -2.323904275894165, -0.28545236587524414], [-0.2014022171497345, 0.5863981246948242, -2.6177024841308594, 0.23468033969402313, -1.1767760515213013, -0.9339839816093445, -0.054534994065761566, -1.1041532754898071], [0.3131403625011444, 0.22412507236003876, -1.3266675472259521, 0.38532915711402893, 0.40614745020866394, -0.9287911653518677, -2.5613765716552734, 1.3032625913619995], [0.30367088317871094, 0.08359377086162567, 0.05282178521156311, 1.4838560819625854, 0.4960367679595947, 0.467160165309906, 0.8062762022018433, 0.507900059223175], [-0.20206932723522186, -0.5851725935935974, -0.3131358027458191, -0.1940077394247055, 0.6477261185646057, 1.2108592987060547, 0.6000271439552307, -0.16246366500854492], [1.6419692039489746, -1.3696054220199585, -0.1333233267068863, 0.6123214364051819, -2.772749185562134, 0.4360438287258148, 0.12461294233798981, 1.5179888010025024], [0.3571283221244812, 1.748321771621704, -0.34773823618888855, -0.1515045464038849, 0.5549846291542053, 0.16293799877166748, -0.46275845170021057, 0.09073199331760406], [-0.38007304072380066, -0.2619936764240265, -0.5226048231124878, -0.42274418473243713, 0.0772174745798111, 1.6049801111221313, 1.2685400247573853, 0.1908181607723236], [0.36240431666374207, -1.1095906496047974, 0.15686744451522827, 0.6185000538825989, 1.4835309982299805, -0.26363199949264526, 0.918861985206604, 0.15021729469299316]], "phi_defender.0.weight": [[0.21440666913986206, 1.2216297388076782, 0.315096378326416, -0.39280542731285095], [-0.17519690096378326, -0.0032096386421471834, -0.7706137895584106, 0.6264728307723999], [1.1579731702804565, 0.6712166666984558, 0.7187398672103882, 1.1677316427230835], [0.15821906924247742, -0.07451436668634415, -0.41407132148742676, -1.0252305269241333], [-0.8110798001289368, -0.06626210361719131, -0.8636642098426819, -0.8445690274238586], [0.2022317796945572, -0.7038353681564331, -1.0176911354064941, -0.8507117629051208], [0.6165788769721985, 0.22469788789749146, -1.1495521068572998, -0.7815998792648315], [0.44545307755470276, 1.105429768562317, 0.35682281851768494, 0.626625657081604], [-0.0652180165052414, 0.5520710349082947, 0.6380857229232788, -0.6721467971801758], [0.6878465414047241, -0.2946862280368805, 0.4598306119441986, -1.1208876371383667], [-0.6688503623008728, -0.5517780780792236, -0.5643613338470459, 1.1915363073349], [-0.6225744485855103, 0.3872135579586029, -0.13299132883548737, 0.2295551598072052], [-0.5471919178962708, -0.7086235880851746, -0.9957619309425354, 0.09961441904306412], [-0.8773296475410461, -1.179060459136963, 1.1762211322784424, 0.6229914426803589], [-0.24962320923805237, -0.533511757850647, 1.0866451263427734, -0.05269689857959747], [-1.0934362411499023, 0.8798118233680725, 1.1034725904464722, 0.2311655730009079], [0.8628312349319458, -0.93630450963974, 0.07365801185369492, 1.192813515663147], [-1.2575042247772217, -1.332935094833374, 0.17289157211780548, 0.385172039270401], [0.3713673949241638, -0.3146277964115143, 0.9885149002075195, 0.8812450766563416], [-1.263505220413208, -1.0945677757263184, 0.991188645362854, -0.6848205327987671], [0.2532988488674164, 0.39301344752311707, 0.2662605345249176, -0.720978319644928], [-0.8568801879882812, -1.1855883598327637, 0.4839523732662201, -0.2503069043159485], [-0.6789821982383728, -1.0795838832855225, 0.7274030447006226, 0.185824915766716], [-1.1735825538635254, -0.06688844412565231, -0.3337141275405884, -0.0341540090739727], [0.36487123370170593, 0.39112749695777893, -1.1223012208938599, 0.2845640778541565], [0.5884518027305603, -0.29459691047668457, 0.9648314714431763, 1.1995731592178345], [0.33650046586990356, 1.176809549331665, 0.5053611397743225, -0.8233753442764282], [0.8609133362770081, -0.3940427303314209, -0.990181028842926, -0.9085811972618103], [0.12515930831432343, 1.1276072263717651, -0.47826462984085083, 0.22362542152404785], [0.40350332856178284, 0.7686430215835571, 1.0509840250015259, 0.6590787768363953], [-0.4360380470752716, -0.034621939063072205, -1.1740840673446655, -0.9494967460632324], [-0.7811733484268188, 0.7421308755874634, 0.2703607380390167, -0.009153224527835846]], "phi_defender.0.bias": [0.01714232936501503, 0.1873043030500412, -0.023857833817601204, 0.0, 0.0, 0.0, 0.2401830404996872, 0.05253881216049194, -0.02188863605260849, 0.014972192235291004, 0.011607054620981216, -0.015105023048818111, 0.0, 0.11596639454364777, 0.046009548008441925, -0.01016354002058506, -0.034539882093667984, 0.04010869562625885, 0.04570029303431511, -0.05336730182170868, -0.04727337509393692, -0.047253940254449844, 0.08725886791944504, 0.0, -0.014339078217744827, 0.02342120371758938, -0.11146046966314316, 0.13307136297225952, -0.027535604313015938, 0.011899330653250217, 0.0, 0.0950070396065712], "phi_defender.2.weight": [[0.25196748971939087, -0.2465972900390625, 0.32979899644851685, 0.40719351172447205, -0.3516027629375458, 0.3438962399959564, 0.34812963008880615, -0.06187748536467552, 0.07793771475553513, -0.2059822976589203, -0.088208869099617, -0.13971474766731262, -0.30117034912109375, -0.007059089373797178, -0.3623099625110626, -0.07912378013134003, 0.3181958794593811, -0.15665654838085175, -0.12593260407447815, 0.008641003631055355, -0.2335808426141739, 0.05550995096564293, -0.3734004497528076, 0.11692777276039124, 0.31492140889167786, 0.04020906984806061, 0.3829806447029114, -0.3600594103336334, -0.2728424370288849, -0.13427653908729553, 0.3701625168323517, -0.4400797188282013], [-0.08793400973081589, -0.3958369493484497, 0.07519980520009995, -0.3760673403739929, -0.355625182390213, -0.26949751377105713, -0.16693560779094696, 0.26635071635246277, 0.06131148338317871, -0.39034533500671387, 0.4010425806045532, -0.01115022599697113, 0.12646791338920593, -0.2235976755619049, -0.20415957272052765, -0.3433830142021179, -0.345691442489624, -0.22125081717967987, 0.23183201253414154, -0.1647927463054657, -0.37727198004722595, 0.1268920749425888, -0.11375567317008972, -0.31033316254615784, 0.34271353483200073, -0.4115014672279358, -0.4311773180961609, 0.25026392936706543, 0.2317305952310562, -0.17427179217338562, 0.3060697317123413, -0.29811206459999084], [-0.20363077521324158, -0.06233268603682518, -0.14494183659553528, 0.2799721658229828, -0.4024566411972046, 0.35060203075408936, 0.24801678955554962, -0.23873727023601532, -0.22821661829948425, 0.06735909730195999, -0.03292407840490341, -0.38396790623664856, 0.35424870252609253, 0.34071454405784607, 0.34650006890296936, 0.20560882985591888, -0.3014373183250427, -0.2278471291065216, -0.18281804025173187, 0.12010931223630905, 0.23341718316078186, -0.02045506238937378, -0.4260428845882416, -0.27446267008781433, -0.20704595744609833, -0.2914784848690033, 0.22293004393577576, 0.019322022795677185, -0.30903613567352295, -0.26269039511680603, -0.31635499000549316, -0.2999822795391083], [0.1848183423280716, -0.6867697834968567, -0.37589651346206665, 0.031272370368242264, -0.025964219123125076, -0.3590210974216461, 0.07837402075529099, 0.0471683070063591, 0.11893003433942795, -0.052566416561603546, -0.08707751333713531, -0.24220052361488342, 0.2798987627029419, 0.4425645172595978, 0.45534399151802063, 0.35025614500045776, 0.3382941782474518, 0.6293432712554932, -0.3733189105987549, 0.43820664286613464, -0.3677181005477905, -0.19399335980415344, 0.35967132449150085, -0.22933664917945862, -0.7615658044815063, 0.40726518630981445, 0.16769061982631683, 0.07657454907894135, -0.10453078150749207, 0.17575274407863617, -0.006815790664404631, -0.021498223766684532], [-0.09116744250059128, 0.5365011692047119, -0.30499890446662903, -0.1335003525018692, 0.3161921799182892, -0.02017415128648281, 0.3365783393383026, -0.18878954648971558, 0.338073194026947, -0.30714696645736694, -0.21047697961330414, -0.37405648827552795, -0.34586066007614136, 0.42406541109085083, 0.3716822564601898, 0.29456833004951477, 0.1939263492822647, 0.3467139005661011, 0.2717459499835968, -0.045932359993457794, -0.19563637673854828, 0.3749787509441376, 0.43570393323898315, 0.13415421545505524, -0.1257711499929428, 0.379595547914505, -0.05029809847474098, -0.08010594546794891, -0.1811079978942871, -0.010097682476043701, 0.20583832263946533, 0.20461253821849823], [0.10591873526573181, 0.27245450019836426, 0.30973368883132935, -0.24596109986305237, -0.15703248977661133, -0.04127109795808792, -0.21676921844482422, -0.30808767676353455, -0.07548368722200394, 0.47613367438316345, -0.5893190503120422, 0.004878700245171785, 0.08769445866346359, 0.013017448596656322, -0.25923311710357666, -0.46832475066185, -0.35806629061698914, -0.3910853862762451, 0.24919544160366058, -0.006620390340685844, 0.09861811250448227, -0.01266151200979948, -0.16488109529018402, -0.0706467255949974, -0.3318631947040558, 0.23434965312480927, -0.09612739086151123, 0.0854635089635849, 0.17263825237751007, -0.27472272515296936, -0.2817791998386383, -0.4561246335506439], [-0.14433279633522034, -0.27212145924568176, -0.4070972800254822, 0.19363431632518768, 0.23542965948581696, -0.1786961555480957, -0.34194302558898926, 0.3159205913543701, -0.5428173542022705, -0.32933974266052246, -0.2583870589733124, 0.3027157485485077, 0.0981873869895935, 0.5136479735374451, -0.10224013030529022, -0.217499241232872, 0.45501071214675903, 0.4189136326313019, -0.3445320427417755, -0.3485306203365326, 0.19659918546676636, -0.14013713598251343, 0.20751750469207764, -0.028424076735973358, -0.16392375528812408, 0.406025230884552, 0.11224319785833359, 0.030855918303132057, -0.4489666819572449, -0.1204754114151001, 0.2024022489786148, 0.2599622309207916], [0.09373670816421509, -0.2013290673494339, -0.19747117161750793, 0.42668667435646057, 0.3516086935997009, 0.2280185967683792, -0.32699689269065857, -0.18710966408252716, 0.20321187376976013, -0.327623575925827, 0.3155750036239624, 0.3415096402168274, 0.1706886887550354, 0.2976498305797577, 0.058104220777750015, 0.3780933916568756, -0.4319878816604614, -0.1107567548751831, -0.10561160743236542, -0.22482678294181824, -0.2957567274570465, 0.1300337314605713, -0.19873319566249847, -0.1308080554008484, 0.44302618503570557, 0.45393431186676025, 0.16666369140148163, -0.15474876761436462, 0.37414807081222534, 0.019204795360565186, 0.26094865798950195, 0.2987877428531647], [0.06535076349973679, 0.3701632618904114, 0.23833563923835754, 0.4066425859928131, 0.40893030166625977, 0.08370925486087799, -0.027632465586066246, -0.10717421025037766, -0.003941716626286507, -0.12510091066360474, -0.13297335803508759, 0.25645381212234497, 0.2852223217487335, -0.2884379029273987, 0.019442453980445862, -0.336071252822876, 0.17138715088367462, 0.24349237978458405, 0.13357454538345337, -0.26394784450531006, 0.44328534603118896, -0.37031394243240356, -0.07639259099960327, -0.08383598178625107, -0.3336217403411865, 0.24582156538963318, 0.0020046383142471313, -0.21945393085479736, -0.11315789818763733, -0.12125683575868607, -0.06656153500080109, -0.5310612320899963], [0.21655970811843872, 0.19019553065299988, 0.15438662469387054, 0.4308684468269348, -0.09662720561027527, -0.25987204909324646, -0.2493075728416443, -0.059180617332458496, -0.07096969336271286, 0.2911551296710968, 0.1190071776509285, 0.46633008122444153, -0.22065915167331696, -0.26537206768989563, 0.050226807594299316, 0.1960306465625763, -0.21695196628570557, -0.06265923380851746, -0.07002637535333633, 0.04360821843147278, 0.41103264689445496, 0.40033507347106934, -0.4341071844100952, -0.4126247465610504, 0.2902783751487732, 0.36006960272789, -0.4080360531806946, 0.3449370563030243, -0.25991740822792053, -0.31524062156677246, -0.3012193441390991, 0.1730767786502838], [0.4982603192329407, 0.2357328087091446, -0.3675917387008667, 0.2334766983985901, 0.39301225543022156, 0.30558130145072937, 0.34181392192840576, -0.1925964206457138, -0.12071622908115387, 0.12496861070394516, -0.29089438915252686, -0.10462932288646698, 0.31082409620285034, 0.1966545283794403, -0.07182623445987701, 0.2765386700630188, -0.2981398105621338, -0.3599851131439209, 0.15954411029815674, -0.25281378626823425, 0.3741608262062073, 0.06349505484104156, 0.2642310559749603, 0.3108662962913513, 0.11857475340366364, -0.13683272898197174, -0.2632622718811035, -0.22671431303024292, -0.33900418877601624, 0.3161123991012573, 0.03370776027441025, -0.04628695175051689], [-0.02271243929862976, 0.6698506474494934, -0.19365230202674866, 0.08348207920789719, 0.05206951126456261, -0.05864795669913292, -0.42010653018951416, 0.15566132962703705, -0.12787513434886932, -0.1367175281047821, 0.030001437291502953, -0.3016990125179291, -0.22195391356945038, 0.18072934448719025, 0.31588995456695557, -0.10983017086982727, -0.26194971799850464, 0.2454264611005783, -0.2520088255405426, 0.0974099263548851, 0.16689912974834442, 0.18281269073486328, 0.021284278482198715, -0.05827826261520386, -0.2145577073097229, 0.29223164916038513, -0.08887533098459244, -0.1174013763666153, -0.27233293652534485, 0.1909460723400116, -0.26721957325935364, 0.2207784354686737], [0.028833674266934395, -0.44663092494010925, 0.27470025420188904, 0.17058652639389038, 0.1828170120716095, -0.19420868158340454, 0.19049952924251556, 0.2050175815820694, -0.2652369737625122, 0.3180277943611145, 0.15387827157974243, -0.10511136054992676, -0.3508998155593872, 0.41455626487731934, -0.38378453254699707, -0.17191347479820251, -0.34920522570610046, 0.4765743315219879, 0.37676888704299927, 0.1302953064441681, -0.12345103174448013, 0.7397424578666687, 0.48088914155960083, 0.30309104919433594, -0.13572129607200623, 0.3889966905117035, -0.10214956849813461, 0.20756188035011292, -0.13022363185882568, 0.025553138926625252, 0.2527744174003601, -0.11413246393203735], [-0.28472599387168884, 0.18603107333183289, -0.40487146377563477, -0.34491318464279175, 0.09314533323049545, 0.38541722297668457, 0.143986776471138, 0.26687631011009216, -0.3441322147846222, -0.15982431173324585, 0.4896780848503113, 0.4037392735481262, -0.18277199566364288, -0.2115904539823532, 0.03683897852897644, 0.31800907850265503, 0.34044164419174194, 0.12149413675069809, -0.21195250749588013, 0.11030295491218567, -0.5647533535957336, 0.012354640290141106, -0.511694073677063, -0.09089474380016327, 0.23936453461647034, 0.3641207218170166, 0.06004275754094124, 0.07035581022500992, 0.26427116990089417, 0.02256244607269764, -0.275424063205719, -0.2730734646320343], [0.1289430856704712, -0.44263237714767456, -0.15424449741840363, -0.2218603938817978, -0.32246777415275574, -0.2801855206489563, -0.11956410855054855, 0.0067297061905264854, 0.35933730006217957, -0.4451103210449219, 0.3396776020526886, 0.11491791903972626, -0.41870737075805664, 0.1425207406282425, 0.34005361795425415, -0.32396063208580017, 0.20893380045890808, 0.075918048620224, 0.22996139526367188, -0.7088308930397034, -0.17329463362693787, -0.3072415590286255, -0.03454390913248062, 0.19234569370746613, -0.4213089048862457, 0.3714432716369629, -0.08735863864421844, -0.055691029876470566, -0.11378808319568634, -0.050696179270744324, 0.06430799514055252, -0.4627605974674225], [0.1994328498840332, 0.39178383350372314, -0.32341906428337097, 0.16560636460781097, -0.3937743604183197, -0.017034107819199562, -0.19711928069591522, -0.37447959184646606, 0.18973924219608307, 0.2707928419113159, 0.05905229225754738, 0.14588315784931183, -0.23950865864753723, 0.28613871335983276, -0.34463098645210266, -0.11898019909858704, -0.15590935945510864, -0.18681207299232483, 0.35650694370269775, 0.3351605236530304, 0.2225605547428131, -0.166853129863739, -0.26676005125045776, -0.11995641887187958, -0.1690705269575119, 0.048265233635902405, 0.21849755942821503, 0.4061141610145569, 0.3034319281578064, -0.35573574900627136, 0.3719552159309387, -0.40175220370292664], [0.0796942412853241, -0.06615843623876572, -0.07724378257989883, -0.13343097269535065, -0.18674951791763306, 0.24829134345054626, -0.2648630738258362, 0.10593664646148682, 0.20682312548160553, 0.3412831425666809, 0.2566095292568207, 0.534799337387085, -0.4237573742866516, 0.10606184601783752, -0.5782716274261475, 0.06446672976016998, -0.3925398886203766, 0.40347203612327576, -0.2302023321390152, 0.03681275621056557, 0.4774337112903595, -0.42675212025642395, 0.31981441378593445, -0.3688477873802185, 0.17934536933898926, -0.1324489265680313, -0.3113820552825928, -0.13015854358673096, 0.07432730495929718, 0.1711535006761551, 0.25965288281440735, 0.027759475633502007], [-0.22957368195056915, 0.1595948040485382, -0.15664595365524292, 0.37047842144966125, 0.28874561190605164, -0.4246666133403778, -0.31552112102508545, 0.0046294815838336945, -0.36270588636398315, 0.11358959227800369, -0.32785600423812866, -0.02951396256685257, 0.3222942054271698, 0.1648104339838028, 0.4805658757686615, -0.05709978938102722, -0.14410024881362915, -0.2361399084329605, 0.035989224910736084, 0.783138632774353, -0.14441174268722534, 0.017042743042111397, 0.261154443025589, 0.015099991112947464, 0.1421928107738495, 0.3919505476951599, 0.3930855393409729, 0.3969741463661194, -0.4297289550304413, 0.05717192590236664, 0.35207271575927734, 0.4401506781578064], [-0.3831779658794403, 0.26210901141166687, -0.19799458980560303, -0.21685312688350677, -0.24389664828777313, -0.230169877409935, -0.30691081285476685, -0.004627327434718609, -0.0037966447416692972, -0.3289378881454468, -0.287759393453598, 0.19656796753406525, -0.3907671868801117, 0.2679012417793274, -0.10049457848072052, -0.16989101469516754, 0.08817313611507416, 0.003205344546586275, -0.24896201491355896, 0.012107500806450844, -0.21997541189193726, -0.4463130235671997, 0.4173349440097809, 0.026823213323950768, -0.27480214834213257, 0.3742484152317047, 0.21148261427879333, -0.15089577436447144, -0.05564308539032936, 0.06454107910394669, -0.1595611423254013, -0.3513858914375305], [0.3575204610824585, 0.1422751247882843, 0.3717012107372284, 0.25875160098075867, -0.024453895166516304, -0.3990183472633362, 0.10896262526512146, -0.1015077605843544, 0.04035875201225281, -0.028669439256191254, 0.5747007131576538, 0.24504511058330536, -0.2568080425262451, -0.000796120788436383, -0.28257161378860474, 0.19474227726459503, -0.28189146518707275, -0.0513770692050457, -0.30241867899894714, -0.5057125091552734, 0.31667712330818176, 0.0377652570605278, 0.37916818261146545, -0.1198289692401886, -0.10130690038204193, -0.10756278038024902, -0.3943985402584076, 0.23759067058563232, -0.19206717610359192, 0.12605544924736023, -0.3689553141593933, 0.08693630993366241], [0.32557034492492676, 0.03485451266169548, 0.08934812992811203, -0.4274872839450836, -0.1768621802330017, 0.3586515188217163, 0.3298599421977997, 0.14867205917835236, 0.13401244580745697, -0.10242325067520142, -0.09424179792404175, 0.1536547690629959, -0.15878531336784363, -0.02339034155011177, -0.235517680644989, 0.2953570485115051, -0.11458801478147507, -0.046126581728458405, -0.2637830972671509, -0.16750197112560272, -0.39441952109336853, 0.5053373575210571, 0.3184569776058197, -0.3295494616031647, -0.3790426552295685, 0.11843747645616531, -0.30626603960990906, -0.275772362947464, 0.2476189136505127, -0.11879037320613861, 0.08959409594535828, 0.00037503906060010195], [-0.276448518037796, -0.35776546597480774, 0.1333426684141159, -0.3823312222957611, -0.05946607142686844, -0.03809837996959686, -0.2636111378669739, 0.4117153584957123, -0.348577618598938, -0.2789000868797302, -0.3667244017124176, 0.37185603380203247, -0.36859819293022156, 0.2574608325958252, 0.4325719475746155, 0.4130993187427521, 0.37711870670318604, 0.23348411917686462, -0.3933224678039551, 0.40394464135169983, 0.21863272786140442, 0.15278692543506622, -0.4461061358451843, 0.32667821645736694, 0.09200811386108398, 0.2730342149734497, -0.036909136921167374, -0.24104925990104675, 0.3492475748062134, -0.43550074100494385, -0.30935075879096985, 0.41239240765571594], [-0.14226311445236206, 0.6000102162361145, 0.26349207758903503, -0.050850268453359604, -0.08707012236118317, 0.19240015745162964, 0.025990577414631844, 0.17626598477363586, -0.20272475481033325, -0.039626676589250565, -0.009022795595228672, -0.38035130500793457, -0.13183815777301788, -0.0778532475233078, 0.06992006301879883, 0.031618788838386536, -0.2593816816806793, -0.6649918556213379, -0.07508779317140579, 0.13480034470558167, 0.16677844524383545, -0.12856999039649963, 0.02655659057199955, -0.19465291500091553, -0.025448011234402657, 0.1758597046136856, -0.44237223267555237, 0.7384722828865051, 0.26254045963287354, -0.4394354224205017, 0.18173682689666748, 0.1304989755153656], [0.17235048115253448, -0.12589241564273834, 0.28902992606163025, -0.25005125999450684, -0.1883794367313385, 0.13937321305274963, -0.34398677945137024, 0.3104286789894104, -0.10560551285743713, -0.2239534705877304, -0.2158755511045456, -0.06900380551815033, -0.3374342918395996, 0.42764154076576233, 0.19980089366436005, 0.17544279992580414, -0.2781306803226471, 0.20347227156162262, 0.3203611671924591, 0.32991811633110046, 0.10326537489891052, 0.25707194209098816, -0.2807517945766449, -0.13775578141212463, 0.42940181493759155, -0.0765833854675293, -0.12026012688875198, 0.33309030532836914, -0.18235759437084198, -0.06422748416662216, 0.35971033573150635, 0.02439979277551174], [0.223674014210701, -0.074198417365551, 0.23167480528354645, -0.2345917820930481, 0.4238787293434143, -0.11988430470228195, -0.4233799874782562, -0.06753358989953995, 0.33374300599098206, 0.3967645764350891, 0.045816242694854736, 0.4876902997493744, -0.14447452127933502, -0.058099426329135895, 0.1922694891691208, -0.004267724230885506, 0.11343947798013687, 0.13416656851768494, 0.041251521557569504, -0.08632379025220871, 0.09489644318819046, 0.19816894829273224, -0.12866003811359406, 0.4189695119857788, 0.4649867117404938, -0.37810957431793213, -0.11970659345388412, -0.03980595991015434, 0.29960641264915466, -0.07510913908481598, -0.06655383855104446, -0.096274733543396], [-0.26976892352104187, -0.37198448181152344, -0.34413275122642517, 0.08217353373765945, 0.2018701583147049, -0.02778838761150837, 0.39869752526283264, -0.07523737102746964, 0.32259202003479004, -0.07259431481361389, -0.24076062440872192, 0.042514655739068985, -0.43166986107826233, 0.16228483617305756, 0.09172385185956955, 0.20177945494651794, 0.22586748003959656, 0.3718359172344208, -0.2840726971626282, -0.4079847037792206, 0.036887962371110916, -0.19119547307491302, 0.0021779146045446396, 0.37518128752708435, 0.04600849747657776, 0.05203250050544739, -0.3602375090122223, 0.002267267322167754, -0.3472186028957367, -0.10836590826511383, 0.2978198528289795, -0.03530661016702652], [0.19037936627864838, 0.21327278017997742, 0.29480284452438354, 0.1389828771352768, -0.3841176927089691, -0.033462051302194595, -0.3690747618675232, -0.1751098781824112, -0.29171502590179443, -0.1509914994239807, 0.4787485599517822, 0.05911599099636078, -0.039205145090818405, 0.16991493105888367, 0.25327539443969727, 0.261370450258255, 0.18626545369625092, 0.2346562147140503, 0.08662787824869156, -0.46877482533454895, 0.25949108600616455, -0.2382681518793106, 0.3589740991592407, -0.3348556458950043, -0.31282344460487366, 0.2865259051322937, -0.2653978168964386, 0.1768806427717209, -0.28357523679733276, 0.14288568496704102, 0.37242817878723145, 0.2625099718570709], [-0.2414388656616211, 0.4327505826950073, 0.0022927355021238327, -0.08940346539020538, -0.42627593874931335, -0.28542202711105347, 0.33278903365135193, 0.33441853523254395, -0.2677072286605835, -0.5896403193473816, -0.30073997378349304, -0.23893457651138306, -0.3861156105995178, -0.4183546006679535, 0.1306271106004715, -0.3735768496990204, 0.07611352205276489, -0.07903623580932617, 0.4007866680622101, 0.017464108765125275, -0.4468381106853485, -0.09440731257200241, 0.21607793867588043, -0.1734948605298996, 0.4070410430431366, -0.33172720670700073, -0.41986408829689026, 0.24429553747177124, -0.08553484082221985, 0.27797117829322815, 0.07250522077083588, 0.08890321850776672], [0.34569409489631653, 0.2060002088546753, -0.17103706300258636, -0.15588602423667908, -0.11326296627521515, -0.386863648891449, 0.8249494433403015, 0.2100798338651657, -0.1301916092634201, 0.4186716377735138, 0.11966020613908768, 0.28772062063217163, 0.2537323534488678, -0.04575254023075104, -0.0459907166659832, 0.3338615596294403, 0.12006442248821259, 0.4652485251426697, 0.22566115856170654, 0.1672731637954712, -0.07611782103776932, 0.4824865758419037, 0.055909134447574615, -0.18801918625831604, 0.14428991079330444, -0.3568994104862213, 0.2823461890220642, 0.5074716806411743, -0.18215760588645935, -0.41534483432769775, 0.10147083550691605, 0.07278168201446533], [0.4344765245914459, -0.3999745845794678, -0.051087554544210434, 0.264744371175766, 0.28335750102996826, 0.21720732748508453, 0.42593082785606384, -0.3643181324005127, 0.4447926878929138, 0.3314747214317322, -0.08872395753860474, -0.2017890214920044, 